{
  "layers": [
    {
      "type": "input",
      "nodes": 784,
      "values": [
        0.0,
        0.0,
        0.0,
        0.0,
        0.0,
        0.0,
        0.0,
        0.0,
        0.0,
        0.0,
        0.0,
        0.0,
        0.0,
        0.0,
        0.0,
        0.0,
        0.0,
        0.0,
        0.0,
        0.0,
        0.0,
        0.0,
        0.0,
        0.0,
        0.0,
        0.0,
        0.0,
        0.0,
        0.0,
        0.0,
        0.0,
        0.0,
        0.0,
        0.0,
        0.0,
        0.0,
        0.0,
        0.0,
        0.0,
        0.0,
        0.0,
        0.0,
        0.0,
        0.0,
        0.0,
        0.0,
        0.0,
        0.0,
        0.0,
        0.0,
        0.0,
        0.0,
        0.0,
        0.0,
        0.0,
        0.0,
        0.0,
        0.0,
        0.0,
        0.0,
        0.0,
        0.0,
        0.0,
        0.0,
        0.0,
        0.0,
        0.0,
        0.0,
        0.0,
        0.0,
        0.0,
        0.0,
        0.0,
        0.0,
        0.0,
        0.0,
        0.0,
        0.0,
        0.0,
        0.0,
        0.0,
        0.0,
        0.0,
        0.0,
        0.0,
        0.0,
        0.0,
        0.0,
        0.0,
        0.0,
        0.0,
        0.0,
        0.0,
        0.0,
        0.0,
        0.0,
        0.0,
        0.0,
        0.0,
        0.0,
        0.0,
        0.0,
        0.0,
        0.0,
        0.0,
        0.0,
        0.0,
        0.0,
        0.0,
        0.0,
        0.0,
        0.0,
        0.0,
        0.0,
        0.0,
        0.0,
        0.0,
        0.0,
        0.0,
        0.0,
        0.0,
        0.0,
        0.0,
        0.0,
        0.0,
        0.0,
        0.0,
        0.0,
        0.0,
        0.0,
        0.0,
        0.0,
        0.0,
        0.0,
        0.0,
        0.0,
        0.0,
        0.0,
        0.0,
        0.0,
        0.0,
        0.0,
        0.0,
        0.0,
        0.0,
        0.0,
        0.0,
        0.0,
        0.0,
        0.0,
        0.0,
        0.0,
        0.0,
        0.0,
        0.0,
        0.0,
        0.0,
        0.0,
        0.0,
        0.0,
        0.0,
        0.0,
        0.0,
        0.0,
        0.0,
        0.0,
        0.0,
        0.0,
        0.0,
        0.0,
        0.0,
        0.0,
        0.0,
        0.0,
        0.0,
        0.0,
        0.0,
        0.0,
        0.0,
        0.0,
        0.0,
        0.0,
        0.0,
        0.0,
        0.0,
        0.0,
        0.0,
        0.0,
        0.0,
        0.0,
        0.0,
        0.0,
        0.0,
        0.0,
        0.0,
        0.0,
        0.0,
        0.0,
        0.0,
        0.0,
        0.0,
        0.0,
        0.32941176470588235,
        0.7254901960784313,
        0.6235294117647059,
        0.592156862745098,
        0.23529411764705882,
        0.1411764705882353,
        0.0,
        0.0,
        0.0,
        0.0,
        0.0,
        0.0,
        0.0,
        0.0,
        0.0,
        0.0,
        0.0,
        0.0,
        0.0,
        0.0,
        0.0,
        0.0,
        0.0,
        0.0,
        0.0,
        0.0,
        0.0,
        0.0,
        0.8705882352941177,
        0.996078431372549,
        0.996078431372549,
        0.996078431372549,
        0.996078431372549,
        0.9450980392156862,
        0.7764705882352941,
        0.7764705882352941,
        0.7764705882352941,
        0.7764705882352941,
        0.7764705882352941,
        0.7764705882352941,
        0.7764705882352941,
        0.7764705882352941,
        0.6666666666666666,
        0.20392156862745098,
        0.0,
        0.0,
        0.0,
        0.0,
        0.0,
        0.0,
        0.0,
        0.0,
        0.0,
        0.0,
        0.0,
        0.0,
        0.2627450980392157,
        0.4470588235294118,
        0.2823529411764706,
        0.4470588235294118,
        0.6392156862745098,
        0.8901960784313725,
        0.996078431372549,
        0.8823529411764706,
        0.996078431372549,
        0.996078431372549,
        0.996078431372549,
        0.9803921568627451,
        0.8980392156862745,
        0.996078431372549,
        0.996078431372549,
        0.5490196078431373,
        0.0,
        0.0,
        0.0,
        0.0,
        0.0,
        0.0,
        0.0,
        0.0,
        0.0,
        0.0,
        0.0,
        0.0,
        0.0,
        0.0,
        0.0,
        0.0,
        0.0,
        0.06666666666666667,
        0.25882352941176473,
        0.054901960784313725,
        0.2627450980392157,
        0.2627450980392157,
        0.2627450980392157,
        0.23137254901960785,
        0.08235294117647059,
        0.9254901960784314,
        0.996078431372549,
        0.41568627450980394,
        0.0,
        0.0,
        0.0,
        0.0,
        0.0,
        0.0,
        0.0,
        0.0,
        0.0,
        0.0,
        0.0,
        0.0,
        0.0,
        0.0,
        0.0,
        0.0,
        0.0,
        0.0,
        0.0,
        0.0,
        0.0,
        0.0,
        0.0,
        0.0,
        0.3254901960784314,
        0.9921568627450981,
        0.8196078431372549,
        0.07058823529411765,
        0.0,
        0.0,
        0.0,
        0.0,
        0.0,
        0.0,
        0.0,
        0.0,
        0.0,
        0.0,
        0.0,
        0.0,
        0.0,
        0.0,
        0.0,
        0.0,
        0.0,
        0.0,
        0.0,
        0.0,
        0.0,
        0.0,
        0.0,
        0.08627450980392157,
        0.9137254901960784,
        1.0,
        0.3254901960784314,
        0.0,
        0.0,
        0.0,
        0.0,
        0.0,
        0.0,
        0.0,
        0.0,
        0.0,
        0.0,
        0.0,
        0.0,
        0.0,
        0.0,
        0.0,
        0.0,
        0.0,
        0.0,
        0.0,
        0.0,
        0.0,
        0.0,
        0.0,
        0.0,
        0.5058823529411764,
        0.996078431372549,
        0.9333333333333333,
        0.17254901960784313,
        0.0,
        0.0,
        0.0,
        0.0,
        0.0,
        0.0,
        0.0,
        0.0,
        0.0,
        0.0,
        0.0,
        0.0,
        0.0,
        0.0,
        0.0,
        0.0,
        0.0,
        0.0,
        0.0,
        0.0,
        0.0,
        0.0,
        0.0,
        0.23137254901960785,
        0.9764705882352941,
        0.996078431372549,
        0.24313725490196078,
        0.0,
        0.0,
        0.0,
        0.0,
        0.0,
        0.0,
        0.0,
        0.0,
        0.0,
        0.0,
        0.0,
        0.0,
        0.0,
        0.0,
        0.0,
        0.0,
        0.0,
        0.0,
        0.0,
        0.0,
        0.0,
        0.0,
        0.0,
        0.0,
        0.5215686274509804,
        0.996078431372549,
        0.7333333333333333,
        0.0196078431372549,
        0.0,
        0.0,
        0.0,
        0.0,
        0.0,
        0.0,
        0.0,
        0.0,
        0.0,
        0.0,
        0.0,
        0.0,
        0.0,
        0.0,
        0.0,
        0.0,
        0.0,
        0.0,
        0.0,
        0.0,
        0.0,
        0.0,
        0.0,
        0.03529411764705882,
        0.803921568627451,
        0.9725490196078431,
        0.22745098039215686,
        0.0,
        0.0,
        0.0,
        0.0,
        0.0,
        0.0,
        0.0,
        0.0,
        0.0,
        0.0,
        0.0,
        0.0,
        0.0,
        0.0,
        0.0,
        0.0,
        0.0,
        0.0,
        0.0,
        0.0,
        0.0,
        0.0,
        0.0,
        0.0,
        0.49411764705882355,
        0.996078431372549,
        0.7137254901960784,
        0.0,
        0.0,
        0.0,
        0.0,
        0.0,
        0.0,
        0.0,
        0.0,
        0.0,
        0.0,
        0.0,
        0.0,
        0.0,
        0.0,
        0.0,
        0.0,
        0.0,
        0.0,
        0.0,
        0.0,
        0.0,
        0.0,
        0.0,
        0.0,
        0.29411764705882354,
        0.984313725490196,
        0.9411764705882353,
        0.2235294117647059,
        0.0,
        0.0,
        0.0,
        0.0,
        0.0,
        0.0,
        0.0,
        0.0,
        0.0,
        0.0,
        0.0,
        0.0,
        0.0,
        0.0,
        0.0,
        0.0,
        0.0,
        0.0,
        0.0,
        0.0,
        0.0,
        0.0,
        0.0,
        0.07450980392156863,
        0.8666666666666667,
        0.996078431372549,
        0.6509803921568628,
        0.0,
        0.0,
        0.0,
        0.0,
        0.0,
        0.0,
        0.0,
        0.0,
        0.0,
        0.0,
        0.0,
        0.0,
        0.0,
        0.0,
        0.0,
        0.0,
        0.0,
        0.0,
        0.0,
        0.0,
        0.0,
        0.0,
        0.0,
        0.011764705882352941,
        0.796078431372549,
        0.996078431372549,
        0.8588235294117647,
        0.13725490196078433,
        0.0,
        0.0,
        0.0,
        0.0,
        0.0,
        0.0,
        0.0,
        0.0,
        0.0,
        0.0,
        0.0,
        0.0,
        0.0,
        0.0,
        0.0,
        0.0,
        0.0,
        0.0,
        0.0,
        0.0,
        0.0,
        0.0,
        0.0,
        0.14901960784313725,
        0.996078431372549,
        0.996078431372549,
        0.30196078431372547,
        0.0,
        0.0,
        0.0,
        0.0,
        0.0,
        0.0,
        0.0,
        0.0,
        0.0,
        0.0,
        0.0,
        0.0,
        0.0,
        0.0,
        0.0,
        0.0,
        0.0,
        0.0,
        0.0,
        0.0,
        0.0,
        0.0,
        0.0,
        0.12156862745098039,
        0.8784313725490196,
        0.996078431372549,
        0.45098039215686275,
        0.00392156862745098,
        0.0,
        0.0,
        0.0,
        0.0,
        0.0,
        0.0,
        0.0,
        0.0,
        0.0,
        0.0,
        0.0,
        0.0,
        0.0,
        0.0,
        0.0,
        0.0,
        0.0,
        0.0,
        0.0,
        0.0,
        0.0,
        0.0,
        0.0,
        0.5215686274509804,
        0.996078431372549,
        0.996078431372549,
        0.20392156862745098,
        0.0,
        0.0,
        0.0,
        0.0,
        0.0,
        0.0,
        0.0,
        0.0,
        0.0,
        0.0,
        0.0,
        0.0,
        0.0,
        0.0,
        0.0,
        0.0,
        0.0,
        0.0,
        0.0,
        0.0,
        0.0,
        0.0,
        0.0,
        0.23921568627450981,
        0.9490196078431372,
        0.996078431372549,
        0.996078431372549,
        0.20392156862745098,
        0.0,
        0.0,
        0.0,
        0.0,
        0.0,
        0.0,
        0.0,
        0.0,
        0.0,
        0.0,
        0.0,
        0.0,
        0.0,
        0.0,
        0.0,
        0.0,
        0.0,
        0.0,
        0.0,
        0.0,
        0.0,
        0.0,
        0.0,
        0.4745098039215686,
        0.996078431372549,
        0.996078431372549,
        0.8588235294117647,
        0.1568627450980392,
        0.0,
        0.0,
        0.0,
        0.0,
        0.0,
        0.0,
        0.0,
        0.0,
        0.0,
        0.0,
        0.0,
        0.0,
        0.0,
        0.0,
        0.0,
        0.0,
        0.0,
        0.0,
        0.0,
        0.0,
        0.0,
        0.0,
        0.0,
        0.4745098039215686,
        0.996078431372549,
        0.8117647058823529,
        0.07058823529411765,
        0.0,
        0.0,
        0.0,
        0.0,
        0.0,
        0.0,
        0.0,
        0.0,
        0.0,
        0.0,
        0.0,
        0.0,
        0.0,
        0.0,
        0.0,
        0.0,
        0.0,
        0.0,
        0.0,
        0.0,
        0.0,
        0.0,
        0.0,
        0.0,
        0.0,
        0.0,
        0.0,
        0.0,
        0.0,
        0.0,
        0.0,
        0.0,
        0.0,
        0.0,
        0.0,
        0.0,
        0.0,
        0.0,
        0.0,
        0.0,
        0.0,
        0.0
      ]
    },
    {
      "type": "hidden",
      "nodes": 128,
      "neurons": [
        {
          "weights": [
            0.03872169554233551,
            -0.05775787681341171,
            -0.07920876890420914,
            -0.03957770764827728,
            0.036619916558265686,
            -0.0774405300617218,
            -0.08004897832870483,
            0.003232821822166443,
            0.03518468141555786,
            -0.023601796478033066,
            -0.04124393314123154,
            -0.01904594525694847,
            0.07581185549497604,
            -0.006097421050071716,
            0.00012459605932235718,
            -0.05675448477268219,
            -0.002808287739753723,
            -0.04972122609615326,
            0.0028778836131095886,
            0.030761681497097015,
            -0.048286862671375275,
            -0.024663642048835754,
            -0.05811416357755661,
            -0.0780227854847908,
            -0.0801430195569992,
            -0.020725183188915253,
            -0.01513991504907608,
            -0.013290636241436005,
            0.05702086538076401,
            0.03956030309200287,
            -0.004624947905540466,
            0.02907194197177887,
            -0.03260361775755882,
            0.01874658279120922,
            0.0009946273639798164,
            0.05243343859910965,
            -0.07585383951663971,
            -0.026798944920301437,
            -0.09874698519706726,
            -0.02682594582438469,
            -0.04255928099155426,
            -0.034996822476387024,
            -0.05687999725341797,
            0.030335159972310066,
            -0.015998637303709984,
            0.057850271463394165,
            -0.09021081775426865,
            -0.040710415691137314,
            0.017805181443691254,
            0.06656374037265778,
            -0.011708864942193031,
            -0.10724455863237381,
            0.011713206768035889,
            0.045491285622119904,
            0.0464211031794548,
            0.0459449365735054,
            -0.043070126324892044,
            0.003654107451438904,
            0.02448747307062149,
            0.03607943281531334,
            0.05084778741002083,
            -0.061927348375320435,
            -0.06292649358510971,
            -0.048874907195568085,
            -0.08694428950548172,
            -0.11756797134876251,
            0.10804205387830734,
            0.051700882613658905,
            -0.01679285615682602,
            -0.25039634108543396,
            -0.15140534937381744,
            -0.012645883485674858,
            -0.02488921768963337,
            -0.08165612071752548,
            -0.06220452859997749,
            -0.14004817605018616,
            0.00622863695025444,
            -0.03082844614982605,
            -0.1111879050731659,
            0.020684201270341873,
            0.06763815879821777,
            -0.024929244071245193,
            0.02321823686361313,
            0.04669951647520065,
            0.047977156937122345,
            -0.04294881597161293,
            -0.03697999194264412,
            0.12201645970344543,
            0.03772175312042236,
            0.00992351770401001,
            -0.09016107022762299,
            -0.13916389644145966,
            -0.034308649599552155,
            0.00779312988743186,
            0.09131477028131485,
            -0.15824568271636963,
            -0.1616826057434082,
            -0.27906885743141174,
            -0.48846617341041565,
            -0.27577900886535645,
            -0.22453907132148743,
            -0.1325455904006958,
            -0.20196643471717834,
            -0.11496059596538544,
            -0.022492138668894768,
            -0.06537401676177979,
            -0.08064070343971252,
            -0.07825228571891785,
            0.04389781877398491,
            0.03393247351050377,
            0.026612848043441772,
            -0.07901772111654282,
            0.014374800026416779,
            -0.007556788623332977,
            0.04305529594421387,
            0.09425711631774902,
            0.10415085405111313,
            0.015039369463920593,
            0.001810978865250945,
            0.004480480682104826,
            -0.07956071197986603,
            -0.008632048964500427,
            0.006788322702050209,
            0.04060826823115349,
            -0.026805657893419266,
            -0.3484921455383301,
            -0.3345254063606262,
            -0.41574081778526306,
            -0.4694384038448334,
            -0.4544396698474884,
            -0.42517757415771484,
            -0.35869669914245605,
            -0.2669793367385864,
            -0.15448246896266937,
            -0.1264065057039261,
            -0.0979371890425682,
            -0.1068490743637085,
            0.04174107685685158,
            0.04103076457977295,
            0.04537782818078995,
            0.007133588194847107,
            -0.0222318135201931,
            0.0552867129445076,
            -0.15523867309093475,
            -0.02641196735203266,
            -0.0910453125834465,
            -0.07709583640098572,
            0.13921721279621124,
            0.35790449380874634,
            0.25701338052749634,
            0.20880404114723206,
            0.2156081348657608,
            0.1954222470521927,
            0.20588557422161102,
            0.057307951152324677,
            -0.12759093940258026,
            -0.19970667362213135,
            -0.2951134145259857,
            -0.2937376797199249,
            -0.43939727544784546,
            -0.13031330704689026,
            -0.07662729173898697,
            0.025241443887352943,
            -0.02210976555943489,
            -0.09899064153432846,
            0.06676871329545975,
            0.038482047617435455,
            -0.014661845751106739,
            -0.035916462540626526,
            -0.005090153776109219,
            0.18073828518390656,
            0.052270520478487015,
            0.005007496103644371,
            0.07754845172166824,
            0.10097326338291168,
            0.2279757857322693,
            0.2085403949022293,
            0.22968687117099762,
            0.3919205963611603,
            0.1907927691936493,
            0.42186468839645386,
            0.287884384393692,
            0.3180128037929535,
            0.27270933985710144,
            0.18379218876361847,
            0.16208261251449585,
            0.07325462251901627,
            -0.03865177929401398,
            -0.15261289477348328,
            0.001940833986736834,
            -0.053226761519908905,
            -0.21796120703220367,
            -0.1378457099199295,
            -0.024298330768942833,
            -0.005623279605060816,
            -0.06410568207502365,
            -0.06489519029855728,
            -0.05138016864657402,
            0.18704238533973694,
            0.2452288419008255,
            -0.05739707872271538,
            -0.15235264599323273,
            0.27917271852493286,
            0.2477334439754486,
            0.17628583312034607,
            0.24037136137485504,
            0.2356804460287094,
            0.21353979408740997,
            0.23373517394065857,
            0.32770952582359314,
            0.17206744849681854,
            0.2133818119764328,
            0.22289976477622986,
            0.08029452711343765,
            0.20017313957214355,
            0.020834602415561676,
            0.016931284219026566,
            -0.0019809671211987734,
            -0.34608563780784607,
            -0.30634889006614685,
            -0.4035739302635193,
            -0.0846748873591423,
            -0.03101319819688797,
            0.0756663903594017,
            -0.1168774887919426,
            0.07231045514345169,
            -0.03998173773288727,
            0.2641974985599518,
            0.031242744997143745,
            -0.017997607588768005,
            0.2545959949493408,
            0.16847273707389832,
            0.29443424940109253,
            0.15169236063957214,
            0.09616530686616898,
            0.24695900082588196,
            0.2068200409412384,
            0.1151248961687088,
            0.19212859869003296,
            0.13129743933677673,
            0.05580293759703636,
            0.013316699303686619,
            0.14087148010730743,
            -0.025664636865258217,
            -0.055255625396966934,
            -0.00016231891640927643,
            0.07078874856233597,
            -0.22693321108818054,
            -0.2803143858909607,
            -0.07315241545438766,
            -0.0943620577454567,
            0.022214343771338463,
            0.03033512271940708,
            0.1350012868642807,
            0.10409094393253326,
            0.21568261086940765,
            -0.026000292971730232,
            0.11305861920118332,
            0.12594950199127197,
            0.15176764130592346,
            0.0922502726316452,
            0.09986656159162521,
            0.1201169341802597,
            0.014232895337045193,
            0.043408166617155075,
            0.004296110477298498,
            0.1356157660484314,
            -0.010674209333956242,
            -0.08558426797389984,
            0.15453989803791046,
            0.050480686128139496,
            0.13982807099819183,
            0.0501154363155365,
            0.02967521734535694,
            -0.019031070172786713,
            -0.20292414724826813,
            -0.15244410932064056,
            -0.26636746525764465,
            -0.036600641906261444,
            -0.032301049679517746,
            0.05192731320858002,
            0.07224743068218231,
            0.042973872274160385,
            0.05918176472187042,
            -0.20822706818580627,
            0.1032838523387909,
            0.21568912267684937,
            0.03926685079932213,
            0.12272252142429352,
            -0.008577323518693447,
            0.03840380162000656,
            -0.14105911552906036,
            -0.3223438858985901,
            -0.16060137748718262,
            -0.12462233752012253,
            -0.15587471425533295,
            -0.04226510599255562,
            0.02271389402449131,
            0.05941157042980194,
            0.08951421827077866,
            0.040621351450681686,
            -0.08577155321836472,
            -0.08023998141288757,
            -0.06661836057901382,
            -0.21838174760341644,
            -0.20134729146957397,
            0.02091388590633869,
            -0.0801640972495079,
            -0.06370557844638824,
            -0.11819396167993546,
            0.020173879340291023,
            0.11443187296390533,
            -0.0433085598051548,
            0.029200831428170204,
            0.13882146775722504,
            0.05390259996056557,
            -0.009948528371751308,
            -0.0330437496304512,
            -0.13538135588169098,
            -0.24382972717285156,
            -0.289509654045105,
            -0.33303704857826233,
            -0.3436775207519531,
            -0.17131900787353516,
            -0.051263194531202316,
            0.14058364927768707,
            0.06642468273639679,
            0.07009275257587433,
            0.09027224034070969,
            0.01068936288356781,
            -0.05565321072936058,
            -0.023964907974004745,
            0.013977824710309505,
            -0.045645780861377716,
            0.0017075255746021867,
            -0.14011305570602417,
            -0.05646431818604469,
            0.20414072275161743,
            0.0528595857322216,
            0.0821104645729065,
            -0.13221031427383423,
            -0.09211021661758423,
            -0.06091010943055153,
            -0.04655052348971367,
            -0.09517955034971237,
            -0.16916461288928986,
            -0.29691001772880554,
            -0.2776057720184326,
            -0.38125309348106384,
            -0.5059878826141357,
            -0.3284129500389099,
            -0.20336803793907166,
            -0.038384683430194855,
            0.013437002897262573,
            0.01666920632123947,
            -0.023947233334183693,
            -0.012299325317144394,
            0.0995994508266449,
            -0.011148840188980103,
            -0.011311453767120838,
            -0.12764734029769897,
            -0.09255227446556091,
            -0.019244931638240814,
            -0.20689721405506134,
            -0.09723851829767227,
            0.13681477308273315,
            0.15173357725143433,
            0.04440402612090111,
            -0.19287897646427155,
            -0.14101991057395935,
            -0.10944149643182755,
            -0.12181034684181213,
            0.08861816674470901,
            -0.10707969963550568,
            -0.04246073588728905,
            -0.0783013254404068,
            -0.20110689103603363,
            -0.1402519792318344,
            -0.21333560347557068,
            -0.036216434091329575,
            -0.056453555822372437,
            -0.04576871544122696,
            -0.04353351891040802,
            0.04797877371311188,
            0.08403491973876953,
            0.11768842488527298,
            -0.03648878633975983,
            -0.13116230070590973,
            -0.16661107540130615,
            -0.08204052597284317,
            -0.051176104694604874,
            0.02830110304057598,
            -0.07797006517648697,
            0.0077683147974312305,
            0.272624135017395,
            0.04752941057085991,
            -0.0973474308848381,
            -0.28055837750434875,
            -0.03882799670100212,
            0.0082421088591218,
            0.09991784393787384,
            0.03339044004678726,
            -0.0307463351637125,
            -0.06960457563400269,
            -0.04999726265668869,
            0.07755181193351746,
            -0.12207628786563873,
            -0.06063368543982506,
            -0.11308341473340988,
            -0.13150808215141296,
            0.06885161995887756,
            -0.07581503689289093,
            -0.010717987082898617,
            0.005068642552942038,
            -0.05284152552485466,
            -0.086636982858181,
            0.027835963293910027,
            0.07597532123327255,
            0.15834449231624603,
            0.06366194784641266,
            -0.0501105971634388,
            0.03380684554576874,
            0.02378373220562935,
            0.13186387717723846,
            0.060834042727947235,
            -0.14991846680641174,
            0.06406746804714203,
            0.04070010781288147,
            0.0347372405230999,
            -0.12260396033525467,
            -0.2053072452545166,
            -0.1306522637605667,
            -0.18725764751434326,
            -0.10711890459060669,
            -0.023931441828608513,
            0.04558407515287399,
            -0.15591973066329956,
            0.10659265518188477,
            0.10122418403625488,
            0.030136732384562492,
            -0.050605230033397675,
            0.08095453679561615,
            -0.0015424846205860376,
            -0.10210436582565308,
            0.07086115330457687,
            -0.010322771966457367,
            -0.01718307100236416,
            0.180232435464859,
            0.09752877801656723,
            0.05070159584283829,
            -0.028436634689569473,
            0.02778465300798416,
            0.06939025223255157,
            -0.17101088166236877,
            -0.039097290486097336,
            0.04360194876790047,
            -0.01929594948887825,
            -0.12517595291137695,
            -0.13891370594501495,
            -0.14966697990894318,
            -0.02472899854183197,
            0.03169766440987587,
            -0.06037253141403198,
            -0.03571755066514015,
            -0.0018913091626018286,
            0.07815835624933243,
            0.0867621898651123,
            0.03384208306670189,
            -0.01953956112265587,
            -0.10239384323358536,
            0.0837666466832161,
            0.03670234978199005,
            -0.03442969173192978,
            -0.2004917711019516,
            0.006382934283465147,
            0.005204588174819946,
            -0.06086897850036621,
            0.05654478073120117,
            0.050393763929605484,
            0.14306007325649261,
            0.07142484933137894,
            0.03764547407627106,
            -0.02045186050236225,
            -0.03106127865612507,
            0.04614558070898056,
            -0.07131219655275345,
            -0.3286290466785431,
            -0.19558630883693695,
            0.028169266879558563,
            0.060322560369968414,
            0.06495210528373718,
            0.06409848481416702,
            0.08455847203731537,
            0.03972059115767479,
            -0.11117659509181976,
            -0.05583375692367554,
            -0.04255950450897217,
            -0.14338284730911255,
            -0.12550395727157593,
            -0.041621699929237366,
            0.37208911776542664,
            0.17772328853607178,
            0.038972411304712296,
            -0.1201883852481842,
            0.11473468691110611,
            -0.05271723493933678,
            0.053870826959609985,
            -0.07149678468704224,
            0.08972951024770737,
            0.14171890914440155,
            -0.04519165679812431,
            -0.10914760082960129,
            -0.04430582746863365,
            -0.05532572790980339,
            -0.0373833104968071,
            0.027585670351982117,
            0.14217734336853027,
            0.07316897064447403,
            -0.018655940890312195,
            0.0006458234274759889,
            0.018131954595446587,
            0.10774499922990799,
            -0.02028145268559456,
            0.0560016855597496,
            -0.013131656683981419,
            -0.13279353082180023,
            -0.0022735262755304575,
            0.02142402157187462,
            0.04233779385685921,
            0.025731008499860764,
            0.3167943060398102,
            -0.184113010764122,
            -0.07396027445793152,
            0.12972882390022278,
            -0.027193322777748108,
            -0.11472242325544357,
            0.05339924991130829,
            -0.1554686427116394,
            -0.10785128176212311,
            -0.0223345085978508,
            -0.13007903099060059,
            -0.1374502182006836,
            -0.19941650331020355,
            0.09644191712141037,
            0.2310415804386139,
            0.03952830284833908,
            -0.04591495171189308,
            -0.06762932240962982,
            -0.07278148084878922,
            0.0060506765730679035,
            0.01797386072576046,
            0.11839224398136139,
            0.03168767690658569,
            -0.04629149287939072,
            0.04179850593209267,
            -0.1535177081823349,
            -0.03886014595627785,
            -0.038074564188718796,
            0.024003157392144203,
            -0.11049506068229675,
            0.03592820465564728,
            0.04735591635107994,
            -0.01049778237938881,
            -0.07241987437009811,
            -0.019479146227240562,
            -0.1994263380765915,
            -0.25047367811203003,
            -0.15010017156600952,
            0.07380662858486176,
            -0.17306844890117645,
            -0.12380284816026688,
            -0.03291640803217888,
            0.00932458508759737,
            -0.025532756000757217,
            -0.06318454444408417,
            -0.13748158514499664,
            0.04581199958920479,
            -0.10860612243413925,
            -0.18571831285953522,
            0.025710493326187134,
            -0.06004282832145691,
            -0.023756301030516624,
            -0.09563989192247391,
            -0.08550532162189484,
            0.2644049823284149,
            0.1856287121772766,
            0.11531446129083633,
            -0.03939848020672798,
            -0.0009389512706547976,
            0.06829734146595001,
            -0.0403970368206501,
            0.12339534610509872,
            -0.030979303643107414,
            -0.1280064582824707,
            -0.11760660260915756,
            -0.11254704743623734,
            -0.049565788358449936,
            -0.28849849104881287,
            -0.035750117152929306,
            -0.048481184989213943,
            0.057959891855716705,
            -0.0663691982626915,
            -0.11616148799657822,
            -0.14473403990268707,
            0.01101804617792368,
            -0.015657668933272362,
            -0.1066378727555275,
            -0.15222202241420746,
            -0.0767126977443695,
            -0.10995658487081528,
            -0.05039336904883385,
            -0.0601767860352993,
            0.10528559237718582,
            -0.17516909539699554,
            -0.030424432829022408,
            -0.026501771062612534,
            -0.05495086684823036,
            -0.03606727719306946,
            -0.06080862507224083,
            0.0026360342744737864,
            0.010644935071468353,
            -0.08802255988121033,
            -0.1611141860485077,
            -0.06237233802676201,
            -0.17477324604988098,
            -0.11027370393276215,
            -0.02720005065202713,
            -0.056737858802080154,
            -0.005206816829741001,
            -0.011920221149921417,
            0.04638947919011116,
            -0.02278144657611847,
            -0.01769646257162094,
            0.09255408495664597,
            -0.05341774970293045,
            -0.08263365924358368,
            0.07837698608636856,
            -0.26225942373275757,
            -0.019057318568229675,
            -0.11224120855331421,
            0.18273955583572388,
            -0.10771824419498444,
            -0.18339712917804718,
            0.0737423300743103,
            0.07391902059316635,
            -0.05877998098731041,
            -0.09137054532766342,
            0.0346611887216568,
            0.07223932445049286,
            -0.062182389199733734,
            0.10994724929332733,
            -0.011398096568882465,
            -0.0449485145509243,
            -0.20969021320343018,
            -0.1020546555519104,
            0.03615506365895271,
            0.04917776584625244,
            0.07719795405864716,
            0.043738704174757004,
            0.1513727754354477,
            0.12627600133419037,
            0.10050321370363235,
            0.06202002614736557,
            0.17773042619228363,
            0.10750052332878113,
            0.04037242382764816,
            0.22326438128948212,
            0.09704611450433731,
            0.06225936859846115,
            -0.025857193395495415,
            -0.21210093796253204,
            0.002438962459564209,
            -0.04536248743534088,
            0.03821965306997299,
            -0.145506352186203,
            0.01018508616834879,
            -0.06271751970052719,
            -0.15853430330753326,
            -0.15378722548484802,
            -0.36156490445137024,
            -0.0034079060424119234,
            0.08899582922458649,
            0.06485559046268463,
            -0.033011987805366516,
            -0.012226958759129047,
            0.21157138049602509,
            0.2169361710548401,
            0.2037690132856369,
            0.08508441597223282,
            -0.012900515459477901,
            0.1742466241121292,
            0.2721869647502899,
            0.02099025994539261,
            0.20862658321857452,
            0.17369139194488525,
            0.0144808953627944,
            0.05545429140329361,
            -0.1512984186410904,
            -0.12735949456691742,
            0.04441601783037186,
            0.02722974121570587,
            -0.0026744455099105835,
            -0.12101095914840698,
            0.0327957458794117,
            -0.009067104198038578,
            -0.20049315690994263,
            -0.13632497191429138,
            -0.25584664940834045,
            0.04886797443032265,
            0.16900402307510376,
            0.29508689045906067,
            0.2872743308544159,
            0.19913628697395325,
            0.010829451493918896,
            -0.08299899846315384,
            0.06821200996637344,
            -0.08417864888906479,
            -0.010793732479214668,
            0.2051214873790741,
            0.2767276465892792,
            0.06487230211496353,
            0.029854319989681244,
            0.15395274758338928,
            -0.06694943457841873,
            0.043069157749414444,
            -0.06174752861261368,
            0.007072989828884602,
            0.02016834169626236,
            0.06164541095495224,
            0.05036752671003342,
            0.05499603599309921,
            0.09626510739326477,
            -0.263406902551651,
            -0.19994814693927765,
            -0.3437778353691101,
            -0.12821966409683228,
            0.35240623354911804,
            0.17245185375213623,
            0.13824696838855743,
            0.13057172298431396,
            0.08964286744594574,
            0.16264353692531586,
            0.1493908166885376,
            -0.03613179549574852,
            0.14768202602863312,
            0.051043976098299026,
            0.33863359689712524,
            0.43028524518013,
            0.2691378891468048,
            0.22516661882400513,
            0.16190510988235474,
            0.21821057796478271,
            0.01177346333861351,
            0.05038946121931076,
            0.0359274297952652,
            -0.0706062763929367,
            -0.06297186762094498,
            0.06588564068078995,
            -0.05839696526527405,
            -0.042751044034957886,
            0.09965747594833374,
            0.057604603469371796,
            0.06419353187084198,
            0.11336975544691086,
            0.09967213869094849,
            0.004218638874590397,
            0.1633744090795517,
            0.015162158757448196,
            0.04991795867681503,
            -0.009891853667795658,
            0.13589142262935638,
            0.20169290900230408,
            0.17550061643123627,
            0.2749713361263275,
            0.05244096741080284,
            0.24601812660694122,
            0.14579105377197266,
            0.17059266567230225,
            0.03760411590337753,
            0.034953296184539795,
            -0.03832748532295227,
            0.03851574659347534,
            -0.01490926742553711,
            0.0104001984000206
          ],
          "bias": -0.05929676815867424,
          "activation": "relu"
        },
        {
          "weights": [
            -0.07913178205490112,
            0.06200247257947922,
            0.026904620230197906,
            -0.0133475661277771,
            0.03218958526849747,
            0.05983921140432358,
            0.015394642949104309,
            0.040679678320884705,
            0.0029410868883132935,
            -0.040209606289863586,
            -0.016753196716308594,
            0.0454530343413353,
            -0.05177334323525429,
            -0.030160728842020035,
            0.011171492747962475,
            -0.032674163579940796,
            0.03346162289381027,
            -0.06623414158821106,
            -0.02504122257232666,
            0.00985725224018097,
            0.025037087500095367,
            -0.00484900176525116,
            -0.03310276195406914,
            0.06104614585638046,
            0.040551140904426575,
            0.025198310613632202,
            -0.009851701557636261,
            0.04382789880037308,
            -0.03226311132311821,
            -0.04258156195282936,
            0.05320858210325241,
            0.03983854502439499,
            0.011150367558002472,
            -0.0726347342133522,
            -0.02466025948524475,
            -0.057884521782398224,
            0.017961980774998665,
            -0.04570984095335007,
            -0.024343350902199745,
            0.042385734617710114,
            0.05264221504330635,
            0.0342814102768898,
            -0.11007657647132874,
            0.01395330298691988,
            0.03498828038573265,
            0.061372920870780945,
            0.05666448920965195,
            -0.07362570613622665,
            -0.028516318649053574,
            0.02959933876991272,
            -0.06796199828386307,
            0.05341232568025589,
            0.03855186700820923,
            -0.059016719460487366,
            0.027315616607666016,
            -0.04555950686335564,
            0.01718687266111374,
            -0.017100661993026733,
            0.026222653687000275,
            -0.06806869059801102,
            0.003100857138633728,
            0.059631090611219406,
            0.05097038298845291,
            0.03383783996105194,
            0.026135951280593872,
            0.02952895127236843,
            0.052966173738241196,
            0.12880152463912964,
            0.19744671881198883,
            0.23038288950920105,
            0.25082293152809143,
            0.02174031175673008,
            0.015700262039899826,
            0.04933016374707222,
            -0.029617948457598686,
            -0.22501778602600098,
            -0.12019357830286026,
            0.05188322812318802,
            -0.0694473385810852,
            0.03905199095606804,
            0.010091820731759071,
            -0.0617000050842762,
            0.065920390188694,
            -0.03327672928571701,
            -0.04078362509608269,
            0.07144521921873093,
            0.1180720403790474,
            0.07908593863248825,
            0.023942766711115837,
            0.029879849404096603,
            -0.07525874674320221,
            0.04611358419060707,
            0.03167158365249634,
            0.010629270225763321,
            -0.03442314267158508,
            0.0012736230855807662,
            0.12558774650096893,
            0.3869933784008026,
            0.27385663986206055,
            0.097685806453228,
            0.03756936639547348,
            0.005654408596456051,
            0.022660361602902412,
            -0.010655201971530914,
            0.09821964055299759,
            -0.040607891976833344,
            0.059523116797208786,
            0.1845037341117859,
            0.22502075135707855,
            0.2810192108154297,
            0.1726505309343338,
            0.033951811492443085,
            -0.006257504224777222,
            -0.050549253821372986,
            0.1358022391796112,
            0.03704055771231651,
            -0.1768532395362854,
            -0.14003920555114746,
            0.019540220499038696,
            0.10494924336671829,
            0.14272251725196838,
            0.08033327013254166,
            -0.13221855461597443,
            -0.1786026954650879,
            -0.03703352063894272,
            0.06986931711435318,
            0.08664462715387344,
            0.04284122958779335,
            -0.05087557062506676,
            -0.015942884609103203,
            -0.013621259480714798,
            -0.06675086170434952,
            0.0059958938509225845,
            0.06415963172912598,
            0.10351725667715073,
            0.01828717812895775,
            -0.1215166226029396,
            -0.07691282778978348,
            -0.0417276956140995,
            0.03506538271903992,
            -0.04694915562868118,
            0.04527074843645096,
            0.16304293274879456,
            0.020662358030676842,
            0.1662679761648178,
            -0.3084349036216736,
            -0.2267610877752304,
            -0.09378211945295334,
            0.02304781787097454,
            -0.09862223267555237,
            -0.0760803297162056,
            -0.23991090059280396,
            -0.2941759526729584,
            0.032235126942396164,
            -0.008082736283540726,
            -0.08755305409431458,
            -0.071592316031456,
            -0.03112206421792507,
            0.10829424858093262,
            0.05747494474053383,
            0.08730550110340118,
            0.08566421270370483,
            0.07711003720760345,
            -0.07817631959915161,
            -0.11157447099685669,
            -0.06015004962682724,
            0.03831838071346283,
            0.0013796284329146147,
            -0.0001211315393447876,
            -0.0008328185649588704,
            -0.07376835495233536,
            -0.16550683975219727,
            -0.10915517807006836,
            -0.4341694116592407,
            -0.20712034404277802,
            -0.24949826300144196,
            -0.1951652318239212,
            -0.14656269550323486,
            -0.2004576325416565,
            -0.42571043968200684,
            -0.34533095359802246,
            0.19691820442676544,
            0.2727234363555908,
            0.1808411329984665,
            0.21501688659191132,
            0.2915576994419098,
            0.36120498180389404,
            0.15377193689346313,
            0.129832923412323,
            0.19531886279582977,
            -0.04571531340479851,
            0.05610383674502373,
            -0.2783508002758026,
            0.06542438268661499,
            0.11221791058778763,
            0.11569485813379288,
            0.05502115562558174,
            0.17822304368019104,
            -0.1515393704175949,
            -0.20864252746105194,
            0.1519419103860855,
            0.041462525725364685,
            -0.043582942336797714,
            -0.1650494486093521,
            -0.161464124917984,
            -0.3414234220981598,
            -0.32454296946525574,
            -0.21681255102157593,
            0.11817727237939835,
            0.22978411614894867,
            0.3024647831916809,
            0.3827703893184662,
            0.3143393397331238,
            0.07703812420368195,
            0.2868735194206238,
            0.04323643445968628,
            0.02686905674636364,
            0.004723137244582176,
            -0.009056555107235909,
            0.022965244948863983,
            -0.16835139691829681,
            -0.09265625476837158,
            -0.011812037788331509,
            0.1041199341416359,
            -0.3060563802719116,
            0.1283355951309204,
            -0.012345083989202976,
            0.10496585816144943,
            0.12121974676847458,
            -0.009292603470385075,
            -0.21584217250347137,
            -0.32721197605133057,
            -0.31510141491889954,
            -0.3266596794128418,
            -0.08294149488210678,
            0.10654758661985397,
            0.09163355082273483,
            0.1219974011182785,
            0.13300441205501556,
            0.2050807923078537,
            0.17351262271404266,
            0.030272889882326126,
            0.08424953371286392,
            0.0381801575422287,
            -0.08584190905094147,
            0.03302060067653656,
            0.1987116038799286,
            0.045754510909318924,
            -0.02916981652379036,
            -0.12887592613697052,
            0.027692561969161034,
            0.01342895720154047,
            -0.027987515553832054,
            0.0009400809067301452,
            0.24058924615383148,
            0.2921142280101776,
            0.026571201160550117,
            -0.21346665918827057,
            -0.37416765093803406,
            -0.3274684548377991,
            -0.08664486557245255,
            -0.042966894805431366,
            0.0208902508020401,
            -0.07796667516231537,
            0.030356142669916153,
            0.16126805543899536,
            -0.07464613020420074,
            0.03938381001353264,
            -0.16377824544906616,
            -0.05607476457953453,
            -0.011321332305669785,
            -0.0634499117732048,
            0.060921747237443924,
            -0.02880626544356346,
            0.16326825320720673,
            0.08605417609214783,
            -0.12297120690345764,
            0.16612251102924347,
            0.039838965982198715,
            0.0032238829880952835,
            -0.05258452147245407,
            0.029316436499357224,
            0.19702023267745972,
            0.2808261513710022,
            -0.03683553636074066,
            -0.20979885756969452,
            -0.10700910538434982,
            -0.026113133877515793,
            0.026273561641573906,
            0.056427933275699615,
            -0.08654367178678513,
            -0.09536685794591904,
            -0.0024306196719408035,
            -0.07466912269592285,
            -0.16019307076931,
            -0.12256603688001633,
            -0.13576702773571014,
            -0.22881034016609192,
            0.09793826937675476,
            0.04762678220868111,
            0.16722524166107178,
            0.0967123731970787,
            0.03433973714709282,
            0.2753608822822571,
            -0.015077588148415089,
            0.07912064343690872,
            0.2245195060968399,
            0.0694897249341011,
            -0.07040204852819443,
            -0.1274648755788803,
            0.07578563690185547,
            0.04575365409255028,
            0.0528181828558445,
            -0.03256208077073097,
            -0.11713295429944992,
            -0.03498116880655289,
            -0.016602415591478348,
            -0.057234302163124084,
            -0.00815884955227375,
            -0.08126559108495712,
            -0.1201881691813469,
            -0.14432711899280548,
            -0.23053887486457825,
            -0.09960891306400299,
            -0.03364778310060501,
            -0.12109611928462982,
            0.15483441948890686,
            0.06270495802164078,
            0.2581441402435303,
            0.2256864607334137,
            0.23060640692710876,
            0.23181504011154175,
            -0.00033345978590659797,
            0.20560836791992188,
            0.3540806174278259,
            0.02922132797539234,
            0.009265942499041557,
            0.18432632088661194,
            0.12331315129995346,
            -0.11361750215291977,
            0.07219132035970688,
            -0.1301760971546173,
            0.06882572174072266,
            -0.026615062728524208,
            -0.04836856573820114,
            -0.03784196823835373,
            -0.23101456463336945,
            -0.2340925931930542,
            -0.4284060001373291,
            -0.41631707549095154,
            0.003925349097698927,
            0.12198580801486969,
            -0.010119427926838398,
            0.07485892623662949,
            0.17674556374549866,
            0.23165814578533173,
            0.15054789185523987,
            0.2396283596754074,
            0.08035793900489807,
            0.09002448618412018,
            -0.01396019384264946,
            0.12626425921916962,
            0.023732168599963188,
            0.06672964990139008,
            -0.025452347472310066,
            -0.1351577490568161,
            -0.07831626385450363,
            0.04169730097055435,
            -0.17904552817344666,
            -0.09652556478977203,
            -0.006425794679671526,
            -0.12649071216583252,
            -0.08824703097343445,
            -0.056802473962306976,
            -0.11659236997365952,
            -0.21656207740306854,
            -0.32816845178604126,
            -0.15634223818778992,
            0.21258686482906342,
            0.0783434584736824,
            0.10986010730266571,
            0.04531247168779373,
            0.09622079133987427,
            -0.03999520465731621,
            -0.025262879207730293,
            -0.036419034004211426,
            -0.010355900041759014,
            -0.14978379011154175,
            -0.2711322009563446,
            0.026368677616119385,
            0.1094733327627182,
            -0.005226635839790106,
            -0.0189929511398077,
            -0.09095389395952225,
            0.011042919009923935,
            0.011213117279112339,
            -0.1445235311985016,
            -0.2513265609741211,
            -0.10712667554616928,
            -0.11290273815393448,
            -0.16396521031856537,
            -0.12314078211784363,
            -0.08723723143339157,
            -0.03605980798602104,
            -0.09989163279533386,
            0.05463996157050133,
            0.06634677946567535,
            0.07477426528930664,
            -0.06686288863420486,
            0.016591500490903854,
            -0.03134811297059059,
            -0.28338518738746643,
            -0.12843823432922363,
            -0.04736630991101265,
            -0.13073012232780457,
            -0.17528533935546875,
            -0.04833460599184036,
            0.08083967119455338,
            -0.03556830435991287,
            -0.07339776307344437,
            -0.0066957734525203705,
            0.014688830822706223,
            -0.12503202259540558,
            -0.06478510051965714,
            -0.07715792953968048,
            -0.0206400528550148,
            -0.07081324607133865,
            0.016795387491583824,
            -0.08830385655164719,
            -0.09300876408815384,
            -0.01911679096519947,
            0.042820170521736145,
            0.013581102713942528,
            0.12525054812431335,
            0.04642174392938614,
            0.07624482363462448,
            -0.06914031505584717,
            -0.18827231228351593,
            -0.14805491268634796,
            -0.22193004190921783,
            -0.307834267616272,
            -0.1151866614818573,
            -0.10838032513856888,
            -0.1385747790336609,
            -0.0896797850728035,
            -0.1207839623093605,
            0.14693467319011688,
            0.06008341163396835,
            -0.008833751082420349,
            0.11746294796466827,
            0.21455293893814087,
            -0.04195542633533478,
            0.07230886071920395,
            -0.043053802102804184,
            -0.13921763002872467,
            -0.042296554893255234,
            0.03176823630928993,
            0.04808175191283226,
            0.09373336285352707,
            0.225906103849411,
            0.14327888190746307,
            0.1275549978017807,
            -0.004010143224149942,
            -0.1281384974718094,
            -0.11573049426078796,
            -0.3076300323009491,
            -0.18780003488063812,
            -0.26528239250183105,
            -0.46582990884780884,
            -0.24634766578674316,
            -0.12445608526468277,
            -0.08077383041381836,
            -0.2819019556045532,
            0.05044543743133545,
            0.05399663746356964,
            0.029456177726387978,
            0.0005005896091461182,
            -0.009678135626018047,
            -0.0598926916718483,
            0.17348116636276245,
            0.1593763381242752,
            0.004401351325213909,
            -0.053310610353946686,
            0.07473987340927124,
            0.20844361186027527,
            0.05325642600655556,
            0.09944986552000046,
            0.089879110455513,
            0.26436203718185425,
            0.15783095359802246,
            -0.08074811846017838,
            0.042239848524332047,
            -0.09505012631416321,
            -0.1937723457813263,
            -0.2746073603630066,
            -0.2231132835149765,
            -0.5707915425300598,
            -0.3070315420627594,
            -0.31609389185905457,
            -0.21692883968353271,
            -0.2550467252731323,
            0.165548637509346,
            -0.021462762728333473,
            -0.07569755613803864,
            0.050142981112003326,
            0.03667524829506874,
            -0.01900806836783886,
            0.005941601935774088,
            0.13797138631343842,
            -0.05868057161569595,
            0.08378225564956665,
            0.14387866854667664,
            0.14492841064929962,
            0.029941454529762268,
            0.1304779350757599,
            0.0423591211438179,
            0.10912120342254639,
            0.022920163348317146,
            0.010595612227916718,
            0.009474783204495907,
            -0.0592394657433033,
            -0.3306201100349426,
            -0.16079135239124298,
            -0.31748151779174805,
            -0.3387472331523895,
            -0.07724766433238983,
            -0.1296844482421875,
            -0.24462269246578217,
            -0.002257164102047682,
            0.12609052658081055,
            -0.053284116089344025,
            -0.2420279085636139,
            0.043779388070106506,
            -0.09409485012292862,
            0.026717381551861763,
            0.0312667116522789,
            0.04541374742984772,
            0.13540492951869965,
            0.10690506547689438,
            0.12254404276609421,
            0.03540367633104324,
            -0.1414187103509903,
            -0.07800211012363434,
            -0.16045673191547394,
            -0.10640471428632736,
            -0.013064511120319366,
            0.0818527340888977,
            0.10653302818536758,
            -0.0524415448307991,
            -0.23844237625598907,
            -0.06701990962028503,
            -0.033296849578619,
            -0.16050101816654205,
            -0.1327122002840042,
            -0.1779666692018509,
            -0.2891209125518799,
            0.13667050004005432,
            -0.0361754409968853,
            -0.032662443816661835,
            -0.26308533549308777,
            -0.05651763081550598,
            0.0007548537105321884,
            0.008445953018963337,
            0.39102405309677124,
            0.3599328100681305,
            0.12978729605674744,
            0.0693870410323143,
            0.1573384702205658,
            0.059145841747522354,
            -0.11756955832242966,
            -0.09796782582998276,
            -0.15394997596740723,
            -0.1369546502828598,
            -0.1330101042985916,
            0.010739372111856937,
            0.1658429354429245,
            0.05524584278464317,
            0.10310449451208115,
            0.0007449379190802574,
            -0.06501898914575577,
            -0.14259545505046844,
            -0.25585228204727173,
            -0.34542331099510193,
            -0.09129808843135834,
            -0.014319310896098614,
            0.10001574456691742,
            -0.06915153563022614,
            -0.056855298578739166,
            -0.08616123348474503,
            -0.05745699629187584,
            0.0477290004491806,
            0.07767282426357269,
            0.256949245929718,
            -0.07141044735908508,
            -0.12361176311969757,
            -0.1460992395877838,
            -0.1886623352766037,
            -0.19897769391536713,
            -0.019230207428336143,
            -0.09408444166183472,
            -0.10977933555841446,
            0.10036356747150421,
            0.03896910697221756,
            0.08370472490787506,
            0.1128261610865593,
            0.12171068787574768,
            0.10766598582267761,
            0.14642608165740967,
            -0.29488733410835266,
            -0.18324360251426697,
            -0.31654050946235657,
            -0.16260826587677002,
            -0.15456059575080872,
            -0.021754125133156776,
            -0.13913126289844513,
            -0.07061169296503067,
            -0.07987149804830551,
            -0.045984163880348206,
            0.05734601244330406,
            -0.07173135876655579,
            -0.08753941208124161,
            -0.23798197507858276,
            -0.256426066160202,
            -0.17313294112682343,
            -0.13068614900112152,
            -0.15411008894443512,
            -0.0841713398694992,
            -0.12457270920276642,
            -0.08638875931501389,
            -0.05880951136350632,
            0.1444629281759262,
            0.10899815708398819,
            -0.05559006333351135,
            0.1397506445646286,
            0.035457074642181396,
            0.0749240517616272,
            -0.16259922087192535,
            -0.21350951492786407,
            -0.07009376585483551,
            -0.019211823120713234,
            0.050802674144506454,
            -0.001580814365297556,
            -0.2391906976699829,
            -0.0665230005979538,
            0.02401992678642273,
            0.034346193075180054,
            0.07935494929552078,
            0.2003437876701355,
            -0.07004570960998535,
            -0.07801642268896103,
            -0.07491958141326904,
            -0.06341265887022018,
            -0.07280784100294113,
            -0.12136606127023697,
            -0.04068849980831146,
            -0.10354151576757431,
            -0.1515955775976181,
            0.07832278311252594,
            0.07336131483316422,
            0.021763088181614876,
            0.21533265709877014,
            0.1698167622089386,
            0.014027563855051994,
            0.10415108501911163,
            -0.17261852324008942,
            -0.15706995129585266,
            -0.03286493942141533,
            0.1427506059408188,
            0.1235068067908287,
            -0.008274597115814686,
            -0.1357903629541397,
            -0.002340666949748993,
            0.027646228671073914,
            -0.02542334794998169,
            -0.018372491002082825,
            0.13536646962165833,
            0.19194771349430084,
            0.09045521169900894,
            0.1432017683982849,
            -0.027091365307569504,
            0.05963258445262909,
            0.0911584347486496,
            0.031995102763175964,
            0.04116731882095337,
            0.16730543971061707,
            0.07066193968057632,
            0.016082393005490303,
            0.09649602323770523,
            0.04726250842213631,
            0.08050131797790527,
            0.11279788613319397,
            0.042424265295267105,
            0.11058109253644943,
            -0.057580284774303436,
            0.05556020140647888,
            -0.1265200525522232,
            -0.08109208941459656,
            -0.10494368523359299,
            -0.03224082663655281,
            -0.027227148413658142,
            -0.07373175770044327,
            -0.036135487258434296,
            0.14176762104034424,
            -0.1217360645532608,
            -0.07503319531679153,
            -0.024026986211538315,
            0.20217667520046234,
            0.20409312844276428,
            0.15280833840370178,
            0.17077703773975372,
            0.14458109438419342,
            0.07361621409654617,
            0.34206533432006836,
            0.15985800325870514,
            -0.09946521371603012,
            0.08800462633371353,
            0.09544537961483002,
            0.16852782666683197,
            0.22443556785583496,
            0.3822530508041382,
            0.34618502855300903,
            0.2561737298965454,
            0.18384717404842377,
            0.19320110976696014,
            0.1275019496679306,
            -0.08396590501070023,
            -0.08456176519393921,
            0.013104327023029327,
            -0.034540776163339615,
            -0.021225716918706894,
            0.028698347508907318,
            0.21720725297927856,
            -0.10938455164432526,
            0.0035127282608300447,
            -0.07484770566225052,
            0.11398586630821228,
            0.30073660612106323,
            0.19941529631614685,
            0.24417732656002045,
            0.2658217251300812,
            0.2850032448768616,
            0.3075614869594574,
            0.2508932054042816,
            0.05154246464371681,
            0.22574278712272644,
            0.15319612622261047,
            0.02237386256456375,
            0.08178213983774185,
            0.10920414328575134,
            0.08592219650745392,
            0.07263263314962387,
            0.05474098399281502,
            0.07445105165243149,
            0.049815524369478226,
            -0.02883516624569893,
            0.01876664161682129,
            0.07358948141336441,
            0.058347366750240326,
            0.07707204669713974,
            0.04423192888498306,
            -0.06415347009897232,
            -0.020644724369049072,
            -0.09519690275192261,
            -0.001121082459576428,
            -0.04987010359764099,
            0.07475091516971588,
            0.028861546888947487,
            0.235513836145401,
            0.2875638008117676,
            0.19401700794696808,
            0.22429387271404266,
            0.1728857010602951,
            0.284060001373291,
            0.3069629967212677,
            0.30763500928878784,
            0.14010211825370789,
            0.08491113781929016,
            -0.06723000854253769,
            0.00010924041271209717,
            0.08001459389925003,
            -0.0036329329013824463,
            0.079035185277462,
            -0.07325644046068192,
            -0.029546216130256653
          ],
          "bias": -0.04190220683813095,
          "activation": "relu"
        },
        {
          "weights": [
            0.0391952320933342,
            -0.0756755843758583,
            -0.07585639506578445,
            0.033207185566425323,
            -0.059607796370983124,
            0.05168154090642929,
            -0.013039618730545044,
            -0.0059885308146476746,
            0.0631406381726265,
            -0.01430974155664444,
            -0.0546814426779747,
            -0.044842228293418884,
            -0.07729508727788925,
            0.06076527386903763,
            0.04661988466978073,
            -0.028162404894828796,
            -0.001764059066772461,
            -0.020076192915439606,
            -0.07703771442174911,
            0.07324721664190292,
            0.04085463285446167,
            -0.08043564856052399,
            -0.0776745080947876,
            0.037622950971126556,
            0.049197323620319366,
            -0.043040189892053604,
            0.0504213348031044,
            -0.07141309231519699,
            -0.029223904013633728,
            -0.0687379464507103,
            -0.003329142928123474,
            -0.03163871541619301,
            -0.005592747591435909,
            -0.013106688857078552,
            -0.09172656387090683,
            -0.04742492362856865,
            0.10338255017995834,
            -0.0052045430056750774,
            0.04662443324923515,
            0.039077527821063995,
            -0.08960939943790436,
            0.18808287382125854,
            0.04753972962498665,
            0.014565951190888882,
            0.06559747457504272,
            0.13379283249378204,
            -0.013638428412377834,
            -0.027640707790851593,
            -0.02830907143652439,
            -0.055344682186841965,
            -0.08955815434455872,
            -0.044677894562482834,
            -0.07736002653837204,
            -0.06401748955249786,
            0.010662324726581573,
            -0.021660849452018738,
            0.015361860394477844,
            -0.06794445961713791,
            -0.06494636833667755,
            0.043644629418849945,
            0.06463608145713806,
            -0.0038959754165261984,
            -0.04641582816839218,
            0.012316577136516571,
            0.084313303232193,
            0.10029802471399307,
            0.06533504277467728,
            -0.06075099855661392,
            0.1780354231595993,
            0.2173120528459549,
            0.2574557363986969,
            0.1187831461429596,
            -0.07381550222635269,
            -0.03476734831929207,
            -0.12829527258872986,
            -0.1333923488855362,
            -0.08329933881759644,
            0.0051866560243070126,
            -0.10337658226490021,
            0.050141654908657074,
            0.14181113243103027,
            -0.059484269469976425,
            -0.024685610085725784,
            -0.04774274304509163,
            -0.009172022342681885,
            0.030213408172130585,
            -0.018208296969532967,
            0.10369347780942917,
            0.07339225709438324,
            -0.13537491858005524,
            -0.04988730698823929,
            -0.15756498277187347,
            -0.15742790699005127,
            -0.026188760995864868,
            0.03367238491773605,
            0.0946008563041687,
            0.022631196305155754,
            0.08053207397460938,
            0.15731772780418396,
            0.186140239238739,
            0.10923592001199722,
            0.07139304280281067,
            -0.09012023359537125,
            0.09211612492799759,
            -0.059180039912462234,
            -0.2657298147678375,
            -0.033140879124403,
            0.19394798576831818,
            0.12079889327287674,
            0.07700235396623611,
            0.07241817563772202,
            -0.07326219975948334,
            -0.05320470780134201,
            -0.03110463172197342,
            0.03181060776114464,
            -0.0695517361164093,
            -0.0825895369052887,
            -0.1677275449037552,
            0.03279556334018707,
            0.03724007308483124,
            0.09850374609231949,
            0.13898998498916626,
            0.06462372094392776,
            0.14669841527938843,
            0.13242018222808838,
            0.05299615487456322,
            0.02963370643556118,
            0.016560548916459084,
            0.18220479786396027,
            0.14474746584892273,
            0.003455167170614004,
            0.09580465406179428,
            -0.056445736438035965,
            -0.18634620308876038,
            -0.1853710114955902,
            -0.15030927956104279,
            -0.24709349870681763,
            -0.33259230852127075,
            -0.05836869776248932,
            -0.11741653829813004,
            0.004939407110214233,
            0.07515115290880203,
            0.028720231726765633,
            0.16154983639717102,
            -0.12425874918699265,
            -0.1575457900762558,
            0.06304944306612015,
            0.18518689274787903,
            0.10071814060211182,
            0.13741350173950195,
            0.08560048788785934,
            0.1355450600385666,
            0.017207598313689232,
            -0.0015110713429749012,
            -0.03250937908887863,
            -0.029828889295458794,
            -0.00531767075881362,
            -0.07249383628368378,
            -0.12365733087062836,
            0.037684231996536255,
            -0.11368682235479355,
            -0.15696804225444794,
            -0.2584710419178009,
            -0.13819484412670135,
            -0.2131422758102417,
            -0.2774217426776886,
            -0.03648732602596283,
            -0.09919092804193497,
            -0.06504402309656143,
            -0.07628858834505081,
            0.014934996142983437,
            0.023992430418729782,
            -0.1520242542028427,
            -0.12074469774961472,
            0.0024084378965198994,
            0.02385082095861435,
            -0.0606379471719265,
            -0.05497051402926445,
            0.09177903085947037,
            0.04487241432070732,
            0.08839258551597595,
            0.11800309270620346,
            0.10043810307979584,
            -0.012199420481920242,
            0.11481177061796188,
            0.1262066811323166,
            0.028253091499209404,
            0.016887180507183075,
            0.1425568014383316,
            0.09665539115667343,
            -0.05282067134976387,
            -0.19336864352226257,
            -0.0564291775226593,
            -0.3380749225616455,
            0.0074707320891320705,
            0.032692793756723404,
            0.025110997259616852,
            0.009444750845432281,
            -0.03029182180762291,
            -0.13803255558013916,
            -0.16150793433189392,
            -0.1670967936515808,
            -0.1726716309785843,
            -0.04426158219575882,
            -0.09907422214746475,
            -0.050695959478616714,
            0.0315832756459713,
            0.13658277690410614,
            0.04501127079129219,
            0.18226860463619232,
            0.1862010955810547,
            0.051209285855293274,
            0.22979307174682617,
            0.04712175205349922,
            0.04204912483692169,
            0.05269103869795799,
            0.15151655673980713,
            0.09789972007274628,
            0.16524605453014374,
            -0.09876079112291336,
            -0.14166533946990967,
            -0.3114130198955536,
            -0.09206506609916687,
            0.0650985911488533,
            0.03510301560163498,
            0.016126535832881927,
            -0.0059199947863817215,
            -0.09745456278324127,
            -0.0596172995865345,
            -0.08982106298208237,
            0.06960583478212357,
            0.1337445229291916,
            0.11039086431264877,
            0.1407964676618576,
            0.11679413169622421,
            0.21903939545154572,
            0.1688465178012848,
            -0.17326053977012634,
            -0.1435626894235611,
            0.01383769791573286,
            0.15946438908576965,
            0.0768786147236824,
            0.0819743201136589,
            0.1632104367017746,
            0.05995284393429756,
            0.023653550073504448,
            0.18430225551128387,
            -0.14736704528331757,
            -0.22145798802375793,
            -0.20911791920661926,
            -0.1710783988237381,
            -0.068870909512043,
            -0.07120344787836075,
            -0.05072997882962227,
            0.17484919726848602,
            -0.20601336658000946,
            -0.18989159166812897,
            0.014554861932992935,
            0.11633864790201187,
            0.24715107679367065,
            0.1792484074831009,
            0.1582685112953186,
            0.014087260700762272,
            0.0745682567358017,
            0.07165738940238953,
            -0.23546534776687622,
            -0.13134358823299408,
            -0.0409383587539196,
            0.03494742885231972,
            -0.1263083815574646,
            -0.10814689099788666,
            -0.12208566069602966,
            -0.04376420006155968,
            0.11124338954687119,
            0.07378479093313217,
            -0.0363897867500782,
            -0.19049137830734253,
            0.07098308205604553,
            0.07989336550235748,
            0.17301636934280396,
            -0.024057794362306595,
            -0.07320329546928406,
            0.046414781361818314,
            -0.05752521753311157,
            -0.18251413106918335,
            -0.06501965969800949,
            0.0008565050084143877,
            0.16053883731365204,
            0.08240922540426254,
            -0.0702212005853653,
            -0.06576070934534073,
            -0.09618666768074036,
            -0.13614125549793243,
            -0.17444024980068207,
            -0.12834575772285461,
            0.04842293635010719,
            0.11855937540531158,
            -0.044515542685985565,
            -0.12421872466802597,
            -0.21179507672786713,
            -0.1593591719865799,
            0.16036595404148102,
            0.21926741302013397,
            0.14379461109638214,
            -0.047294411808252335,
            0.07820232212543488,
            0.01667235977947712,
            0.18570978939533234,
            -0.061368800699710846,
            -0.10950207710266113,
            0.0365549772977829,
            -0.12981800734996796,
            -0.06670358777046204,
            -0.06954172998666763,
            -0.05837508291006088,
            -0.14589710533618927,
            -0.1338367760181427,
            -0.14155562222003937,
            -0.023084251210093498,
            -0.15546390414237976,
            -0.16760912537574768,
            -0.2584860324859619,
            -0.13015933334827423,
            0.15334607660770416,
            -0.045293524861335754,
            -0.12307960540056229,
            -0.21259723603725433,
            -0.28340306878089905,
            -0.20805709064006805,
            0.04333823546767235,
            0.17247866094112396,
            0.12049835175275803,
            0.046219583600759506,
            0.08771443367004395,
            -0.06354748457670212,
            -0.055331066250801086,
            -0.052155278623104095,
            -0.05140063911676407,
            -0.07243460416793823,
            -0.025175437331199646,
            -0.06787247210741043,
            -0.18842801451683044,
            -0.08088842034339905,
            -0.27494144439697266,
            -0.12084494531154633,
            0.0396244190633297,
            -0.1751190721988678,
            -0.32486283779144287,
            -0.2372131198644638,
            -0.19291740655899048,
            -0.03286849707365036,
            -0.0047399625182151794,
            -0.09183403104543686,
            -0.10618001967668533,
            -0.12181030958890915,
            -0.26193493604660034,
            -0.05105233192443848,
            -0.012052498757839203,
            -0.034199684858322144,
            0.05447518825531006,
            0.08772411942481995,
            -0.0018814591458067298,
            -0.03709021583199501,
            0.026489125564694405,
            0.03391585871577263,
            -0.030879493802785873,
            0.04526543617248535,
            -0.09495696425437927,
            -0.1537458598613739,
            -0.16361454129219055,
            -0.25409945845603943,
            -0.20834317803382874,
            -0.09900834411382675,
            -0.2269372195005417,
            -0.32962527871131897,
            -0.27322646975517273,
            -0.20865504443645477,
            -0.07556010782718658,
            0.02038930356502533,
            -0.07096050679683685,
            0.010005557909607887,
            -0.2279435694217682,
            -0.2606518268585205,
            -0.18057949841022491,
            -0.05289415642619133,
            0.10873296111822128,
            -0.13382382690906525,
            -0.04117746278643608,
            0.02830781415104866,
            0.1850547194480896,
            0.07113595306873322,
            0.07621431350708008,
            0.07292809337377548,
            0.05843924731016159,
            0.038446441292762756,
            -0.0029630467761307955,
            -0.16125811636447906,
            -0.13409434258937836,
            -0.19674625992774963,
            -0.1750631034374237,
            -0.211311936378479,
            -0.20881761610507965,
            -0.289463073015213,
            -0.12204043567180634,
            -0.09077802300453186,
            -0.06522306054830551,
            -0.060816649347543716,
            -0.030751561746001244,
            -0.05151740834116936,
            -0.278854638338089,
            -0.3364734649658203,
            -0.2875150442123413,
            0.006205019075423479,
            0.03653806075453758,
            -0.04575478285551071,
            -0.047347161918878555,
            0.06469198316335678,
            -0.03804532438516617,
            0.11285125464200974,
            0.15433643758296967,
            -0.08088265359401703,
            0.08054626733064651,
            -0.005915622226893902,
            -0.1747218519449234,
            -0.18997932970523834,
            -0.1765570044517517,
            -0.1331522911787033,
            -0.09445598721504211,
            -0.1007293239235878,
            -0.184403657913208,
            0.004313275683671236,
            -0.02816924639046192,
            -0.07633240520954132,
            -0.002258199965581298,
            -0.020245980471372604,
            -0.030301734805107117,
            -0.16083969175815582,
            -0.36457616090774536,
            -0.5973030924797058,
            -0.32646602392196655,
            0.031759973615407944,
            0.0589568093419075,
            -0.24677766859531403,
            -0.07082749903202057,
            -0.04034123569726944,
            -0.03536062687635422,
            0.054122235625982285,
            0.1412208080291748,
            0.0050543323159217834,
            -0.03719443455338478,
            -0.06359249353408813,
            -0.16121593117713928,
            -0.22941672801971436,
            -0.13959825038909912,
            -0.07593069970607758,
            0.055616237223148346,
            -0.03359384462237358,
            0.025625845417380333,
            0.06278034299612045,
            -0.00983248557895422,
            0.07156616449356079,
            0.22936074435710907,
            -0.05351181700825691,
            -0.13248759508132935,
            -0.27642711997032166,
            -0.7044421434402466,
            -0.4968293011188507,
            -0.1813807636499405,
            -0.06775128841400146,
            -0.015489059500396252,
            -0.23510511219501495,
            -0.025899440050125122,
            -0.11466572433710098,
            0.1942051351070404,
            0.17759715020656586,
            0.12634548544883728,
            -0.02426919713616371,
            -0.02583591267466545,
            -0.027364477515220642,
            -0.2092297226190567,
            -0.22918792068958282,
            -0.21823833882808685,
            -0.03843926265835762,
            0.16586482524871826,
            0.018463879823684692,
            -0.041949786245822906,
            0.08662471920251846,
            0.11519428342580795,
            0.1881881058216095,
            0.11869534850120544,
            -0.12458554655313492,
            -0.4143335521221161,
            -0.6273750066757202,
            -0.5141680240631104,
            -0.414325088262558,
            -0.07114853709936142,
            -0.02187317982316017,
            -0.03601488098502159,
            -0.01243643183261156,
            -0.04136880859732628,
            0.07704773545265198,
            0.5214823484420776,
            0.07824103534221649,
            0.24054691195487976,
            0.007372775115072727,
            -0.014806016348302364,
            -0.05583685636520386,
            -0.14865748584270477,
            -0.29372742772102356,
            -0.2926485240459442,
            -0.15571951866149902,
            0.15918485820293427,
            -0.02175835706293583,
            0.13360042870044708,
            0.07624653726816177,
            0.15585055947303772,
            0.15278266370296478,
            -0.014150573872029781,
            -0.3301244080066681,
            -0.5817344188690186,
            -0.34801214933395386,
            -0.1814662665128708,
            -0.03734514117240906,
            0.09982163459062576,
            0.17895245552062988,
            0.2074366956949234,
            0.294050008058548,
            0.036899518221616745,
            0.10174039751291275,
            0.356530100107193,
            0.13648444414138794,
            0.21522784233093262,
            -0.045049767941236496,
            0.026232026517391205,
            0.14463362097740173,
            -0.010992246679961681,
            -0.11897505074739456,
            -0.21700605750083923,
            -0.12334398180246353,
            -0.014837668277323246,
            -0.016548292711377144,
            0.11104017496109009,
            0.11076044291257858,
            0.32598134875297546,
            0.22567309439182281,
            -0.05942254140973091,
            -0.28340664505958557,
            -0.3744190037250519,
            0.04952219873666763,
            0.20837455987930298,
            0.16026033461093903,
            0.10536210238933563,
            0.15649943053722382,
            0.2030554711818695,
            0.18619850277900696,
            0.049157917499542236,
            0.017722072079777718,
            0.22314484417438507,
            -0.0063897548243403435,
            0.13495132327079773,
            0.010888084769248962,
            0.07928580790758133,
            0.11529835313558578,
            0.2649553418159485,
            -0.08973844349384308,
            -0.01496500801295042,
            -0.1105530709028244,
            -0.05982509255409241,
            0.06345832347869873,
            0.16326293349266052,
            0.0698799416422844,
            0.21838103234767914,
            0.25155892968177795,
            -0.06606152653694153,
            -0.1705704927444458,
            -0.08878457546234131,
            0.1446622610092163,
            0.24028745293617249,
            0.04390467703342438,
            0.009701701812446117,
            0.041541434824466705,
            0.11546703428030014,
            0.13833419978618622,
            0.17541497945785522,
            0.06038264185190201,
            0.04951345920562744,
            0.012527755461633205,
            -0.06719724088907242,
            -0.023146046325564384,
            -0.0011405982077121735,
            -0.05610757693648338,
            0.05590368062257767,
            0.05503473058342934,
            0.23701602220535278,
            0.015931060537695885,
            0.09003729373216629,
            0.1333436369895935,
            0.1174846738576889,
            0.116905577480793,
            -0.016448816284537315,
            0.0862746313214302,
            0.008262316696345806,
            -0.010744170285761356,
            -0.02531546540558338,
            0.0009874941315501928,
            0.03718943148851395,
            -0.08449999988079071,
            0.09033092856407166,
            0.08376818895339966,
            0.15496915578842163,
            0.15399393439292908,
            0.28384602069854736,
            0.17453916370868683,
            0.17855161428451538,
            0.19497163593769073,
            -0.019416281953454018,
            0.06368598341941833,
            0.014109596610069275,
            0.011941861361265182,
            0.016380352899432182,
            0.22020071744918823,
            0.4078662395477295,
            0.05923967435956001,
            0.07820906490087509,
            0.1771634817123413,
            0.09646741300821304,
            -0.0902838483452797,
            -0.06601135432720184,
            -0.0465349517762661,
            -0.0004924067761749029,
            0.06912168115377426,
            -0.1299697309732437,
            -0.011349220760166645,
            0.004034101031720638,
            0.12106544524431229,
            0.10104158520698547,
            0.10056732594966888,
            0.035342611372470856,
            0.11638139188289642,
            0.04195714741945267,
            0.0640019103884697,
            0.07303231954574585,
            0.11042651534080505,
            0.05441643297672272,
            0.003214240074157715,
            -0.021473459899425507,
            0.04143799468874931,
            -0.06179460510611534,
            0.26673629879951477,
            0.32806268334388733,
            0.1417366862297058,
            -0.07539248466491699,
            0.0393846295773983,
            -0.014986516907811165,
            0.009416842833161354,
            -0.020751286298036575,
            -0.03783194720745087,
            -0.017226791009306908,
            -0.064983069896698,
            -0.05370550975203514,
            0.008976704441010952,
            -0.1012059897184372,
            -0.06356684118509293,
            -0.06873606145381927,
            -0.051884349435567856,
            -0.12525753676891327,
            -0.0328693687915802,
            0.01378568634390831,
            -0.007031671702861786,
            0.0923771783709526,
            0.08782728016376495,
            -0.03697144612669945,
            0.07759370654821396,
            0.06358090788125992,
            -0.14756454527378082,
            -0.12146606296300888,
            0.27807238698005676,
            0.22483378648757935,
            0.02105419524013996,
            0.01877451501786709,
            -0.03583323955535889,
            -0.04589588940143585,
            -0.15647469460964203,
            0.018806971609592438,
            -0.018718814477324486,
            -0.054181795567274094,
            -0.10628702491521835,
            0.0163560938090086,
            -0.06892987340688705,
            -0.08464447408914566,
            0.11599303036928177,
            0.06282660365104675,
            -0.13594825565814972,
            -0.0906267836689949,
            -0.12331956624984741,
            0.08186658471822739,
            0.20554368197917938,
            0.20775528252124786,
            0.038262978196144104,
            -0.004539161920547485,
            0.046638064086437225,
            0.016901984810829163,
            -0.06940964609384537,
            0.21847586333751678,
            0.32563334703445435,
            0.276419997215271,
            0.3530949056148529,
            0.3067076504230499,
            0.21291396021842957,
            0.2094743698835373,
            0.2795267403125763,
            0.1707107275724411,
            0.16209881007671356,
            -0.06894916296005249,
            0.0261335801333189,
            0.06787669658660889,
            -0.17334166169166565,
            -0.19054332375526428,
            -0.10463616251945496,
            -0.056327760219573975,
            -0.07989908754825592,
            0.013340708799660206,
            0.012902338057756424,
            -0.04021292179822922,
            0.15450963377952576,
            0.0478605180978775,
            0.16150803864002228,
            -0.03291834890842438,
            0.07781513780355453,
            0.0019157454371452332,
            0.04134323447942734,
            0.012513890862464905,
            0.20256352424621582,
            0.3374103009700775,
            0.38033992052078247,
            0.1962328404188156,
            0.03304721787571907,
            -0.11571963131427765,
            -0.004541117697954178,
            0.02335173450410366,
            0.05176075920462608,
            -0.004553472623229027,
            0.05827098339796066,
            -0.0644245445728302,
            -0.1554342806339264,
            -0.11008655279874802,
            -0.06634408980607986,
            -0.030417313799262047,
            -0.0823066383600235,
            -0.004626108333468437,
            -0.07381671667098999,
            -0.0896286591887474,
            -0.049777403473854065,
            -0.0628771260380745,
            0.009077280759811401,
            -0.029989562928676605,
            0.050850190222263336,
            0.013700298964977264,
            -0.022840872406959534,
            0.01848457008600235,
            0.06957411766052246,
            0.02627231553196907,
            0.04075596481561661,
            -0.04763161763548851,
            -0.030785955488681793,
            0.007333099842071533,
            -0.003989218268543482,
            0.12716665863990784,
            0.0776120200753212,
            0.13824978470802307,
            -0.010430579073727131,
            -0.03064236231148243,
            0.04607553035020828,
            0.010121078230440617,
            0.038290493190288544,
            -0.07072979211807251,
            -0.00538822915405035,
            -0.06805451214313507,
            -0.005259998142719269,
            0.022843286395072937,
            -0.03510918468236923,
            0.041515134274959564,
            -0.005862712860107422,
            0.000841289758682251
          ],
          "bias": -0.04757118970155716,
          "activation": "relu"
        },
        {
          "weights": [
            -0.0026967674493789673,
            0.05311314016580582,
            -0.055146701633930206,
            0.02434498816728592,
            -0.04517364874482155,
            -0.014273039996623993,
            -0.05029062181711197,
            -0.0325566865503788,
            0.060457922518253326,
            -0.0025250986218452454,
            0.011939488351345062,
            0.06429670006036758,
            -0.06595934182405472,
            -0.07042747735977173,
            0.024592146277427673,
            -0.06567221134901047,
            -0.04340241476893425,
            -0.004873134195804596,
            0.008160069584846497,
            0.02127038687467575,
            0.04268169403076172,
            0.0534631684422493,
            -0.05658465623855591,
            -0.0727938860654831,
            -0.03674083575606346,
            -0.04450937733054161,
            -0.0014540627598762512,
            -0.03863523527979851,
            -0.04898037388920784,
            -0.07921108603477478,
            0.009016156196594238,
            0.06112077087163925,
            0.012825876474380493,
            -0.05211741477251053,
            -0.005481071770191193,
            0.015999840572476387,
            -0.045046743005514145,
            -0.0799306109547615,
            -0.07843228429555893,
            -0.08471549302339554,
            0.03070513904094696,
            0.001764616696164012,
            -0.07641513645648956,
            0.018276559188961983,
            0.027452509850263596,
            -0.031748585402965546,
            -0.09536668658256531,
            -0.014515292830765247,
            0.050863102078437805,
            -0.06776833534240723,
            0.0035661798901855946,
            0.005560447461903095,
            -0.039749063551425934,
            0.04595421999692917,
            0.06594251841306686,
            -0.019005604088306427,
            0.058941490948200226,
            -0.003913417458534241,
            -0.029342737048864365,
            -0.015923604369163513,
            -0.002636681078001857,
            -0.0037870595697313547,
            -0.034621961414813995,
            -0.05217953026294708,
            0.029630005359649658,
            -0.09141499549150467,
            0.042932022362947464,
            -0.08206255733966827,
            -0.07158468663692474,
            -0.12941701710224152,
            -0.10445338487625122,
            -0.05779397115111351,
            -0.09958397597074509,
            -0.300554096698761,
            -0.14586561918258667,
            -0.1828593760728836,
            0.02168993093073368,
            -0.07607091963291168,
            -0.028849195688962936,
            -0.06444019079208374,
            -0.09899627417325974,
            -0.021782565861940384,
            -0.03321138396859169,
            0.054890431463718414,
            0.01436971127986908,
            -0.07636065781116486,
            0.15185202658176422,
            -0.03834940493106842,
            -0.06476029753684998,
            -0.1936606764793396,
            -0.11981711536645889,
            0.07094920426607132,
            -0.06594549864530563,
            -0.03818612918257713,
            -0.08940105140209198,
            -0.22297273576259613,
            -0.18904590606689453,
            -0.12800033390522003,
            -0.1409895271062851,
            -0.131683349609375,
            -0.006680152844637632,
            0.015112933702766895,
            0.2787902355194092,
            0.08699917048215866,
            0.006138095166534185,
            0.016085606068372726,
            0.12780557572841644,
            0.27832114696502686,
            0.039842989295721054,
            0.10741835087537766,
            -0.07764585316181183,
            0.02393963187932968,
            -0.022507984191179276,
            0.03685171902179718,
            0.027372146025300026,
            0.1479927897453308,
            0.06717976927757263,
            -0.28211718797683716,
            -0.2168952226638794,
            -0.23726920783519745,
            -0.09861328452825546,
            -0.2705964148044586,
            -0.01911374181509018,
            0.005652544554322958,
            0.0064399451948702335,
            0.03150051459670067,
            -0.007022968493402004,
            0.010163558647036552,
            0.06822199374437332,
            0.14195281267166138,
            0.04930099844932556,
            0.10534962266683578,
            -0.061998046934604645,
            0.03613407537341118,
            0.12062334269285202,
            0.12423702329397202,
            0.14044354856014252,
            -0.03304382041096687,
            0.06455390155315399,
            -0.07267139106988907,
            0.001975618302822113,
            -0.04362952336668968,
            0.11025591194629669,
            -0.038991402834653854,
            0.0898284912109375,
            0.19804033637046814,
            0.1407494693994522,
            0.054944563657045364,
            -0.040865134447813034,
            0.010858376510441303,
            0.02862284518778324,
            0.030944671481847763,
            0.09055088460445404,
            0.14512109756469727,
            0.15620216727256775,
            0.11135230213403702,
            -0.08947251737117767,
            0.008382586762309074,
            -0.017595261335372925,
            -0.0550064779818058,
            -0.24113178253173828,
            -0.12377313524484634,
            -0.02967885136604309,
            -0.10678189247846603,
            -0.052734505385160446,
            0.2057744860649109,
            0.02277013473212719,
            -0.035681843757629395,
            0.03377799689769745,
            -0.028265681117773056,
            0.004812117200344801,
            0.19341742992401123,
            0.08105231821537018,
            0.14536690711975098,
            0.062164414674043655,
            0.17065346240997314,
            -0.02401595562696457,
            -0.05747370421886444,
            -0.025940587744116783,
            0.023669540882110596,
            0.04839387163519859,
            0.11193675547838211,
            0.007660913746803999,
            0.10996682941913605,
            -0.046272750943899155,
            -0.059269871562719345,
            -0.05814509838819504,
            -0.024380676448345184,
            0.00922414567321539,
            -0.026699205860495567,
            -0.008623718284070492,
            0.17541083693504333,
            -0.021052269265055656,
            0.17363181710243225,
            -0.06900469958782196,
            0.01777571067214012,
            0.07506775856018066,
            -0.14691659808158875,
            -0.012481752783060074,
            0.08601275086402893,
            0.1115897074341774,
            0.012062311172485352,
            0.023342778906226158,
            -0.04069091007113457,
            -0.2041553407907486,
            -0.16781415045261383,
            0.04985113441944122,
            -0.051091570407152176,
            0.03394048288464546,
            0.2005525380373001,
            0.1570722609758377,
            0.16494017839431763,
            -0.05027838423848152,
            0.01317722536623478,
            -0.009974419139325619,
            0.026270627975463867,
            0.024154765531420708,
            -0.017028244212269783,
            0.10916592925786972,
            0.23019267618656158,
            -0.020751390606164932,
            0.009184852242469788,
            0.04633209854364395,
            -0.06736361235380173,
            -0.08521623909473419,
            -0.1076912060379982,
            -0.053839441388845444,
            0.03322235122323036,
            0.04342978820204735,
            0.15149155259132385,
            0.12152105569839478,
            -0.13974732160568237,
            -0.08350721746683121,
            -0.1265970915555954,
            -0.16229499876499176,
            0.006251476239413023,
            0.0918540358543396,
            0.14874804019927979,
            0.09085603058338165,
            0.15210096538066864,
            0.03603532910346985,
            -0.0057099382393062115,
            0.061530377715826035,
            0.03997384384274483,
            0.07552606612443924,
            -0.01739804446697235,
            0.12625688314437866,
            0.02157512493431568,
            0.00461155129596591,
            0.11879097670316696,
            0.08989908546209335,
            0.17350581288337708,
            -0.05582667514681816,
            0.12017173320055008,
