{
  "layers": [
    {
      "type": "input",
      "nodes": 8,
      "values": [
        -0.6494824659724308,
        0.4259361081350742,
        0.13743186715117123,
        -0.09505122201110544,
        -0.10197210084999006,
        0.04709579862656363,
        0.9776384319087613,
        -0.8237131974596306
      ]
    },
    {
      "type": "hidden",
      "nodes": 12,
      "neurons": [
        {
          "weights": [
            -0.25151216983795166,
            0.3459058105945587,
            -0.08463459461927414,
            0.5438131093978882,
            0.05380254611372948,
            0.7273863554000854,
            0.45476171374320984,
            0.2680336833000183
          ],
          "bias": 0.21091142296791077,
          "activation": "relu"
        },
        {
          "weights": [
            0.10143497586250305,
            0.32712239027023315,
            -0.36547181010246277,
            0.33840638399124146,
            0.0480336956679821,
            -2.0599312782287598,
            0.44737258553504944,
            -0.2017575353384018
          ],
          "bias": 0.3019710183143616,
          "activation": "relu"
        },
        {
          "weights": [
            0.07449120283126831,
            -0.15308530628681183,
            0.39601731300354004,
            0.28736260533332825,
            0.020488955080509186,
            0.16664384305477142,
            0.04897412657737732,
            0.48080164194107056
          ],
          "bias": 0.45068231225013733,
          "activation": "relu"
        },
        {
          "weights": [
            0.026967110112309456,
            0.42239341139793396,
            -0.6865620613098145,
            0.5999098420143127,
            0.34925377368927,
            0.17198853194713593,
            -0.5486811995506287,
            -0.3919987976551056
          ],
          "bias": 0.21731974184513092,
          "activation": "relu"
        },
        {
          "weights": [
            -0.31812652945518494,
            0.11363271623849869,
            0.1436089426279068,
            -0.182120218873024,
            0.27707523107528687,
            0.4591571092605591,
            0.41849157214164734,
            0.38168445229530334
          ],
          "bias": 0.5196697115898132,
          "activation": "relu"
        },
        {
          "weights": [
            0.5135137438774109,
            -0.21820113062858582,
            -0.37915509939193726,
            -0.1282283216714859,
            -0.3506472408771515,
            0.15327756106853485,
            -0.20003311336040497,
            0.3490428328514099
          ],
          "bias": 0.06476914137601852,
          "activation": "relu"
        },
        {
          "weights": [
            0.6863865852355957,
            0.30040669441223145,
            0.03650422394275665,
            -0.032178059220314026,
            -0.21581809222698212,
            0.07409051060676575,
            0.23296545445919037,
            -0.189657062292099
          ],
          "bias": 0.39380523562431335,
          "activation": "relu"
        },
        {
          "weights": [
            -0.3844534158706665,
            0.0793975442647934,
            0.4093877673149109,
            -0.2242061197757721,
            0.19355644285678864,
            0.08015632629394531,
            0.027762990444898605,
            0.760850191116333
          ],
          "bias": 0.00751007255166769,
          "activation": "relu"
        },
        {
          "weights": [
            0.1717689484357834,
            0.06562034040689468,
            0.4108114242553711,
            -0.28379225730895996,
            0.020719723775982857,
            -2.87668776512146,
            -0.17463764548301697,
            -0.19759827852249146
          ],
          "bias": 0.23067648708820343,
          "activation": "relu"
        },
        {
          "weights": [
            0.4379992187023163,
            0.1212940439581871,
            -0.049480851739645004,
            0.20796550810337067,
            -0.0005004988051950932,
            0.08381655067205429,
            -0.7305517196655273,
            -0.706953763961792
          ],
          "bias": 0.12241055816411972,
          "activation": "relu"
        },
        {
          "weights": [
            -0.03499898314476013,
            0.005930991843342781,
            -0.09847167134284973,
            0.049485787749290466,
            0.1409580260515213,
            -1.6416385173797607,
            -0.5080636739730835,
            0.022007694467902184
          ],
          "bias": 0.3600854277610779,
          "activation": "relu"
        },
        {
          "weights": [
            0.07293350249528885,
            0.04968107119202614,
            -0.3052818775177002,
            0.18134705722332,
            0.2781513035297394,
            0.4455374479293823,
            -0.1897929161787033,
            -0.26793864369392395
          ],
          "bias": -0.046978749334812164,
          "activation": "relu"
        }
      ]
    },
    {
      "type": "hidden",
      "nodes": 6,
      "neurons": [
        {
          "weights": [
            -0.013149644248187542,
            -0.23374846577644348,
            -0.22009773552417755,
            0.7013111114501953,
            -0.6162826418876648,
            -0.12672728300094604,
            0.11593393236398697,
            -0.16348503530025482,
            0.038539204746484756,
            0.5806604623794556,
            0.3325689435005188,
            0.473707914352417
          ],
          "bias": 0.41955649852752686,
          "activation": "relu"
        },
        {
          "weights": [
            -0.20118147134780884,
            0.3430371582508087,
            0.476937860250473,
            -0.25770238041877747,
            0.14261069893836975,
            0.01628468930721283,
            0.32043367624282837,
            0.00083162885857746,
            0.7912173271179199,
            -0.09037590026855469,
            0.7181574106216431,
            0.19973094761371613
          ],
          "bias": 0.3478311002254486,
          "activation": "relu"
        },
        {
          "weights": [
            -0.6262996196746826,
            0.18309710919857025,
            0.27681806683540344,
            0.5307132005691528,
            -0.10811885446310043,
            0.02429993450641632,
            -0.22656044363975525,
            -0.5112387537956238,
            0.45939069986343384,
            0.4881189167499542,
            -0.03353843837976456,
            -0.4040360152721405
          ],
          "bias": 0.32858186960220337,
          "activation": "relu"
        },
        {
          "weights": [
            -0.16907231509685516,
            0.013749256730079651,
            0.3116317689418793,
            0.21350271999835968,
            0.24771685898303986,
            0.4806263744831085,
            0.5157493948936462,
            0.4365374445915222,
            -0.4175366759300232,
            -0.2990586459636688,
            -0.34001684188842773,
            -0.7181611657142639
          ],
          "bias": -0.14180944859981537,
          "activation": "relu"
        },
        {
          "weights": [
            -0.36804553866386414,
            -0.17506808042526245,
            -0.2873106896877289,
            0.25759732723236084,
            0.2890109121799469,
            0.07756157219409943,
            -0.03497319668531418,
            0.316988468170166,
            0.019684456288814545,
            0.4318093955516815,
            0.0055715832859277725,
            0.38482430577278137
          ],
          "bias": -0.24935849010944366,
          "activation": "relu"
        },
        {
          "weights": [
            0.24074424803256989,
            0.44102656841278076,
            0.31276607513427734,
            -0.5961132049560547,
            -0.1489155888557434,
            -0.16463717818260193,
            -0.05638091266155243,
            0.014912874437868595,
            -0.23992154002189636,
            0.16254682838916779,
            0.05908181890845299,
            0.3530704379081726
          ],
          "bias": -0.24735873937606812,
          "activation": "relu"
        }
      ]
    },
    {
      "type": "output",
      "nodes": 1,
      "neurons": [
        {
          "weights": [
            0.8996981382369995,
            0.7147640585899353,
            1.0207695960998535,
            -0.49592718482017517,
            -0.7697986364364624,
            -0.3218042552471161
          ],
          "bias": 0.2882155776023865,
          "activation": "linear"
        }
      ]
    }
  ]
}