{
  "layers": [
    {
      "type": "input",
      "nodes": 784,
      "values": [
        0.0,
        0.0,
        0.0,
        0.0,
        0.0,
        0.0,
        0.0,
        0.0,
        0.0,
        0.0,
        0.0,
        0.0,
        0.0,
        0.0,
        0.0,
        0.0,
        0.0,
        0.0,
        0.0,
        0.0,
        0.0,
        0.0,
        0.0,
        0.0,
        0.0,
        0.0,
        0.0,
        0.0,
        0.0,
        0.0,
        0.0,
        0.0,
        0.0,
        0.0,
        0.0,
        0.0,
        0.0,
        0.0,
        0.0,
        0.0,
        0.0,
        0.0,
        0.0,
        0.0,
        0.0,
        0.0,
        0.0,
        0.0,
        0.0,
        0.0,
        0.0,
        0.0,
        0.0,
        0.0,
        0.0,
        0.0,
        0.0,
        0.0,
        0.0,
        0.0,
        0.0,
        0.0,
        0.0,
        0.0,
        0.0,
        0.0,
        0.0,
        0.0,
        0.0,
        0.0,
        0.0,
        0.0,
        0.0,
        0.0,
        0.0,
        0.0,
        0.0,
        0.0,
        0.0,
        0.0,
        0.0,
        0.0,
        0.0,
        0.0,
        0.0,
        0.0,
        0.0,
        0.0,
        0.0,
        0.0,
        0.0,
        0.0,
        0.0,
        0.0,
        0.0,
        0.0,
        0.0,
        0.0,
        0.0,
        0.0,
        0.0,
        0.0,
        0.0,
        0.0,
        0.0,
        0.0,
        0.0,
        0.0,
        0.0,
        0.0,
        0.0,
        0.0,
        0.0,
        0.0,
        0.0,
        0.0,
        0.0,
        0.0,
        0.0,
        0.0,
        0.0,
        0.0,
        0.0,
        0.0,
        0.0,
        0.0,
        0.0,
        0.0,
        0.0,
        0.0,
        0.0,
        0.0,
        0.0,
        0.0,
        0.0,
        0.0,
        0.0,
        0.0,
        0.0,
        0.0,
        0.0,
        0.0,
        0.0,
        0.0,
        0.0,
        0.0,
        0.0,
        0.0,
        0.0,
        0.0,
        0.0,
        0.0,
        0.0,
        0.0,
        0.0,
        0.0,
        0.0,
        0.0,
        0.0,
        0.0,
        0.0,
        0.0,
        0.0,
        0.0,
        0.0,
        0.0,
        0.0,
        0.0,
        0.0,
        0.0,
        0.0,
        0.0,
        0.0,
        0.0,
        0.0,
        0.0,
        0.0,
        0.0,
        0.0,
        0.0,
        0.0,
        0.0,
        0.0,
        0.0,
        0.0,
        0.0,
        0.0,
        0.0,
        0.0,
        0.0,
        0.0,
        0.0,
        0.0,
        0.0,
        0.0,
        0.0,
        0.0,
        0.0,
        0.0,
        0.0,
        0.0,
        0.0,
        0.32941176470588235,
        0.7254901960784313,
        0.6235294117647059,
        0.592156862745098,
        0.23529411764705882,
        0.1411764705882353,
        0.0,
        0.0,
        0.0,
        0.0,
        0.0,
        0.0,
        0.0,
        0.0,
        0.0,
        0.0,
        0.0,
        0.0,
        0.0,
        0.0,
        0.0,
        0.0,
        0.0,
        0.0,
        0.0,
        0.0,
        0.0,
        0.0,
        0.8705882352941177,
        0.996078431372549,
        0.996078431372549,
        0.996078431372549,
        0.996078431372549,
        0.9450980392156862,
        0.7764705882352941,
        0.7764705882352941,
        0.7764705882352941,
        0.7764705882352941,
        0.7764705882352941,
        0.7764705882352941,
        0.7764705882352941,
        0.7764705882352941,
        0.6666666666666666,
        0.20392156862745098,
        0.0,
        0.0,
        0.0,
        0.0,
        0.0,
        0.0,
        0.0,
        0.0,
        0.0,
        0.0,
        0.0,
        0.0,
        0.2627450980392157,
        0.4470588235294118,
        0.2823529411764706,
        0.4470588235294118,
        0.6392156862745098,
        0.8901960784313725,
        0.996078431372549,
        0.8823529411764706,
        0.996078431372549,
        0.996078431372549,
        0.996078431372549,
        0.9803921568627451,
        0.8980392156862745,
        0.996078431372549,
        0.996078431372549,
        0.5490196078431373,
        0.0,
        0.0,
        0.0,
        0.0,
        0.0,
        0.0,
        0.0,
        0.0,
        0.0,
        0.0,
        0.0,
        0.0,
        0.0,
        0.0,
        0.0,
        0.0,
        0.0,
        0.06666666666666667,
        0.25882352941176473,
        0.054901960784313725,
        0.2627450980392157,
        0.2627450980392157,
        0.2627450980392157,
        0.23137254901960785,
        0.08235294117647059,
        0.9254901960784314,
        0.996078431372549,
        0.41568627450980394,
        0.0,
        0.0,
        0.0,
        0.0,
        0.0,
        0.0,
        0.0,
        0.0,
        0.0,
        0.0,
        0.0,
        0.0,
        0.0,
        0.0,
        0.0,
        0.0,
        0.0,
        0.0,
        0.0,
        0.0,
        0.0,
        0.0,
        0.0,
        0.0,
        0.3254901960784314,
        0.9921568627450981,
        0.8196078431372549,
        0.07058823529411765,
        0.0,
        0.0,
        0.0,
        0.0,
        0.0,
        0.0,
        0.0,
        0.0,
        0.0,
        0.0,
        0.0,
        0.0,
        0.0,
        0.0,
        0.0,
        0.0,
        0.0,
        0.0,
        0.0,
        0.0,
        0.0,
        0.0,
        0.0,
        0.08627450980392157,
        0.9137254901960784,
        1.0,
        0.3254901960784314,
        0.0,
        0.0,
        0.0,
        0.0,
        0.0,
        0.0,
        0.0,
        0.0,
        0.0,
        0.0,
        0.0,
        0.0,
        0.0,
        0.0,
        0.0,
        0.0,
        0.0,
        0.0,
        0.0,
        0.0,
        0.0,
        0.0,
        0.0,
        0.0,
        0.5058823529411764,
        0.996078431372549,
        0.9333333333333333,
        0.17254901960784313,
        0.0,
        0.0,
        0.0,
        0.0,
        0.0,
        0.0,
        0.0,
        0.0,
        0.0,
        0.0,
        0.0,
        0.0,
        0.0,
        0.0,
        0.0,
        0.0,
        0.0,
        0.0,
        0.0,
        0.0,
        0.0,
        0.0,
        0.0,
        0.23137254901960785,
        0.9764705882352941,
        0.996078431372549,
        0.24313725490196078,
        0.0,
        0.0,
        0.0,
        0.0,
        0.0,
        0.0,
        0.0,
        0.0,
        0.0,
        0.0,
        0.0,
        0.0,
        0.0,
        0.0,
        0.0,
        0.0,
        0.0,
        0.0,
        0.0,
        0.0,
        0.0,
        0.0,
        0.0,
        0.0,
        0.5215686274509804,
        0.996078431372549,
        0.7333333333333333,
        0.0196078431372549,
        0.0,
        0.0,
        0.0,
        0.0,
        0.0,
        0.0,
        0.0,
        0.0,
        0.0,
        0.0,
        0.0,
        0.0,
        0.0,
        0.0,
        0.0,
        0.0,
        0.0,
        0.0,
        0.0,
        0.0,
        0.0,
        0.0,
        0.0,
        0.03529411764705882,
        0.803921568627451,
        0.9725490196078431,
        0.22745098039215686,
        0.0,
        0.0,
        0.0,
        0.0,
        0.0,
        0.0,
        0.0,
        0.0,
        0.0,
        0.0,
        0.0,
        0.0,
        0.0,
        0.0,
        0.0,
        0.0,
        0.0,
        0.0,
        0.0,
        0.0,
        0.0,
        0.0,
        0.0,
        0.0,
        0.49411764705882355,
        0.996078431372549,
        0.7137254901960784,
        0.0,
        0.0,
        0.0,
        0.0,
        0.0,
        0.0,
        0.0,
        0.0,
        0.0,
        0.0,
        0.0,
        0.0,
        0.0,
        0.0,
        0.0,
        0.0,
        0.0,
        0.0,
        0.0,
        0.0,
        0.0,
        0.0,
        0.0,
        0.0,
        0.29411764705882354,
        0.984313725490196,
        0.9411764705882353,
        0.2235294117647059,
        0.0,
        0.0,
        0.0,
        0.0,
        0.0,
        0.0,
        0.0,
        0.0,
        0.0,
        0.0,
        0.0,
        0.0,
        0.0,
        0.0,
        0.0,
        0.0,
        0.0,
        0.0,
        0.0,
        0.0,
        0.0,
        0.0,
        0.0,
        0.07450980392156863,
        0.8666666666666667,
        0.996078431372549,
        0.6509803921568628,
        0.0,
        0.0,
        0.0,
        0.0,
        0.0,
        0.0,
        0.0,
        0.0,
        0.0,
        0.0,
        0.0,
        0.0,
        0.0,
        0.0,
        0.0,
        0.0,
        0.0,
        0.0,
        0.0,
        0.0,
        0.0,
        0.0,
        0.0,
        0.011764705882352941,
        0.796078431372549,
        0.996078431372549,
        0.8588235294117647,
        0.13725490196078433,
        0.0,
        0.0,
        0.0,
        0.0,
        0.0,
        0.0,
        0.0,
        0.0,
        0.0,
        0.0,
        0.0,
        0.0,
        0.0,
        0.0,
        0.0,
        0.0,
        0.0,
        0.0,
        0.0,
        0.0,
        0.0,
        0.0,
        0.0,
        0.14901960784313725,
        0.996078431372549,
        0.996078431372549,
        0.30196078431372547,
        0.0,
        0.0,
        0.0,
        0.0,
        0.0,
        0.0,
        0.0,
        0.0,
        0.0,
        0.0,
        0.0,
        0.0,
        0.0,
        0.0,
        0.0,
        0.0,
        0.0,
        0.0,
        0.0,
        0.0,
        0.0,
        0.0,
        0.0,
        0.12156862745098039,
        0.8784313725490196,
        0.996078431372549,
        0.45098039215686275,
        0.00392156862745098,
        0.0,
        0.0,
        0.0,
        0.0,
        0.0,
        0.0,
        0.0,
        0.0,
        0.0,
        0.0,
        0.0,
        0.0,
        0.0,
        0.0,
        0.0,
        0.0,
        0.0,
        0.0,
        0.0,
        0.0,
        0.0,
        0.0,
        0.0,
        0.5215686274509804,
        0.996078431372549,
        0.996078431372549,
        0.20392156862745098,
        0.0,
        0.0,
        0.0,
        0.0,
        0.0,
        0.0,
        0.0,
        0.0,
        0.0,
        0.0,
        0.0,
        0.0,
        0.0,
        0.0,
        0.0,
        0.0,
        0.0,
        0.0,
        0.0,
        0.0,
        0.0,
        0.0,
        0.0,
        0.23921568627450981,
        0.9490196078431372,
        0.996078431372549,
        0.996078431372549,
        0.20392156862745098,
        0.0,
        0.0,
        0.0,
        0.0,
        0.0,
        0.0,
        0.0,
        0.0,
        0.0,
        0.0,
        0.0,
        0.0,
        0.0,
        0.0,
        0.0,
        0.0,
        0.0,
        0.0,
        0.0,
        0.0,
        0.0,
        0.0,
        0.0,
        0.4745098039215686,
        0.996078431372549,
        0.996078431372549,
        0.8588235294117647,
        0.1568627450980392,
        0.0,
        0.0,
        0.0,
        0.0,
        0.0,
        0.0,
        0.0,
        0.0,
        0.0,
        0.0,
        0.0,
        0.0,
        0.0,
        0.0,
        0.0,
        0.0,
        0.0,
        0.0,
        0.0,
        0.0,
        0.0,
        0.0,
        0.0,
        0.4745098039215686,
        0.996078431372549,
        0.8117647058823529,
        0.07058823529411765,
        0.0,
        0.0,
        0.0,
        0.0,
        0.0,
        0.0,
        0.0,
        0.0,
        0.0,
        0.0,
        0.0,
        0.0,
        0.0,
        0.0,
        0.0,
        0.0,
        0.0,
        0.0,
        0.0,
        0.0,
        0.0,
        0.0,
        0.0,
        0.0,
        0.0,
        0.0,
        0.0,
        0.0,
        0.0,
        0.0,
        0.0,
        0.0,
        0.0,
        0.0,
        0.0,
        0.0,
        0.0,
        0.0,
        0.0,
        0.0,
        0.0,
        0.0
      ]
    },
    {
      "type": "hidden",
      "nodes": 64,
      "neurons": [
        {
          "weights": [
            -0.014503911137580872,
            -0.033505313098430634,
            0.06506664305925369,
            0.07869692891836166,
            -0.010247208178043365,
            0.019981756806373596,
            -0.04655696079134941,
            0.08130661398172379,
            -0.01742693781852722,
            0.05077918618917465,
            0.02191876620054245,
            0.011281013488769531,
            -0.01941131241619587,
            -0.15231966972351074,
            -0.15669499337673187,
            0.027328811585903168,
            0.0549287423491478,
            0.04190363734960556,
            -0.06829008460044861,
            0.029669858515262604,
            -0.05463436245918274,
            0.013141654431819916,
            0.0561104491353035,
            -0.035173267126083374,
            0.04371926933526993,
            -0.04431810602545738,
            -0.050909169018268585,
            -0.0642000287771225,
            0.0022331401705741882,
            -0.02484702318906784,
            -0.017842531204223633,
            -0.015269443392753601,
            0.03237377107143402,
            -0.08749011158943176,
            -0.12777668237686157,
            -0.2667441964149475,
            -0.25449568033218384,
            -0.13312222063541412,
            -0.11688901484012604,
            -0.04348423331975937,
            -0.03327155113220215,
            0.0008621475426480174,
            0.14339403808116913,
            -0.4863279461860657,
            -0.4069417715072632,
            -0.1914941519498825,
            -0.08107997477054596,
            -0.10702314227819443,
            -0.2032012790441513,
            -0.0688219964504242,
            0.004978183191269636,
            -0.11566592007875443,
            0.028694674372673035,
            0.03836045414209366,
            0.0835995003581047,
            0.03475204110145569,
            -0.07621411979198456,
            -0.0651940405368805,
            0.010853595100343227,
            -0.20559895038604736,
            -0.165091410279274,
            -0.11172229796648026,
            -0.1839156597852707,
            -0.3390299677848816,
            -0.1849668025970459,
            0.010714918375015259,
            -0.1492232382297516,
            -0.2916621267795563,
            -0.06866785138845444,
            0.06123654171824455,
            0.10128167271614075,
            -0.08157576620578766,
            -0.1958141028881073,
            -0.06433362513780594,
            0.03431529551744461,
            0.030144458636641502,
            -0.06280268728733063,
            -0.07116959989070892,
            0.0035680087748914957,
            -0.24825672805309296,
            -0.0895191952586174,
            0.06475730985403061,
            -0.0722346305847168,
            0.06045285612344742,
            0.054874323308467865,
            -0.04719630628824234,
            0.06014304235577583,
            -0.22763580083847046,
            -0.19347378611564636,
            0.01913411356508732,
            -0.2257818728685379,
            -0.20242203772068024,
            -0.010989277623593807,
            -0.03447861596941948,
            0.06276228278875351,
            0.06389659643173218,
            0.02625781111419201,
            -0.040105629712343216,
            0.014442449435591698,
            0.1868959665298462,
            0.10387203842401505,
            0.10240152478218079,
            -0.16868357360363007,
            -0.22872699797153473,
            -0.07904977351427078,
            0.014552895911037922,
            -0.13784737884998322,
            -0.27580276131629944,
            -0.18740978837013245,
            0.05868589133024216,
            -0.05890986695885658,
            -0.03299363702535629,
            -0.0326390266418457,
            -0.006178013980388641,
            -0.06782197207212448,
            -0.15733930468559265,
            -0.10428105294704437,
            -0.2100466787815094,
            -0.09461290389299393,
            -0.03131357207894325,
            -0.05143488943576813,
            0.11256906390190125,
            -0.08633969724178314,
            -0.07009400427341461,
            0.019142689183354378,
            0.08757029473781586,
            -0.05614808201789856,
            -0.016016557812690735,
            -0.03815365955233574,
            0.08282122761011124,
            0.0452846996486187,
            -0.04701264947652817,
            0.11947460472583771,
            -0.029338842257857323,
            0.021960560232400894,
            -0.20789603888988495,
            -0.06013626977801323,
            0.17726056277751923,
            -0.17700885236263275,
            -0.057880889624357224,
            0.0783570185303688,
            -0.012223489582538605,
            -0.09145046770572662,
            -0.1095500960946083,
            -0.21987545490264893,
            -0.08330779522657394,
            -0.016811110079288483,
            0.09358321130275726,
            0.10550300031900406,
            0.10898201912641525,
            -0.02760002203285694,
            -0.12927532196044922,
            -0.2314234972000122,
            -0.05792564898729324,
            -0.03849443420767784,
            -0.14382173120975494,
            -0.16064196825027466,
            -0.10388310998678207,
            0.11217790096998215,
            0.15797026455402374,
            -0.10918474942445755,
            -0.17817121744155884,
            -0.045394618064165115,
            -0.03569291904568672,
            -0.05800038203597069,
            0.018091050907969475,
            -0.2825481593608856,
            -0.047679439187049866,
            -0.020520426332950592,
            -0.010435015894472599,
            -0.035893943160772324,
            -0.011360996402800083,
            -0.05203964188694954,
            -0.044299542903900146,
            -0.04531959444284439,
            0.02700718492269516,
            0.05219876766204834,
            0.1677912473678589,
            -0.030473867431282997,
            -0.04227837175130844,
            -0.027408219873905182,
            -0.09692824631929398,
            -0.012126189656555653,
            -0.1560307741165161,
            -0.22105790674686432,
            -0.14568446576595306,
            -0.013255447149276733,
            -0.021217400208115578,
            0.05530638247728348,
            -0.0390317440032959,
            0.046769868582487106,
            0.11073166877031326,
            -0.07245848327875137,
            -0.23003806173801422,
            -0.47911202907562256,
            -0.3742547333240509,
            0.013789125718176365,
            0.01588272862136364,
            0.1387706696987152,
            0.07188647985458374,
            -0.07835336029529572,
            -0.020823312923312187,
            -0.015446200966835022,
            -0.24662505090236664,
            0.007238159887492657,
            -0.004012422636151314,
            0.003036757931113243,
            -0.0015782630071043968,
            0.02614244818687439,
            0.08467918634414673,
            -0.09232376515865326,
            -0.033382661640644073,
            -0.2167375236749649,
            -0.03004327416419983,
            -0.16963179409503937,
            -0.00984227005392313,
            0.01066973339766264,
            0.25259488821029663,
            0.13964876532554626,
            0.22571952641010284,
            0.1901302933692932,
            0.17871414124965668,
            -0.1902909129858017,
            -0.3109806478023529,
            0.05080500617623329,
            0.231741800904274,
            0.2798445522785187,
            0.215809628367424,
            0.09694528579711914,
            0.06146850809454918,
            0.005284189712256193,
            -0.1047787293791771,
            -0.05223032459616661,
            -0.05887730047106743,
            0.06496774405241013,
            -0.011599482968449593,
            -0.055806633085012436,
            -0.07184430956840515,
            -0.058381762355566025,
            -0.00437508150935173,
            -0.04558063670992851,
            -0.017746422439813614,
            0.027925271540880203,
            0.07232266664505005,
            0.1614428609609604,
            0.1340722143650055,
            0.021409083157777786,
            0.04439101368188858,
            0.06533321738243103,
            0.10131531953811646,
            -0.041045669466257095,
            -0.058016154915094376,
            -0.07964995503425598,
            -0.006323778070509434,
            0.17280669510364532,
            0.2196815460920334,
            0.07292536646127701,
            0.3120397627353668,
            0.15033581852912903,
            -0.029846109449863434,
            -0.03941761329770088,
            0.06941264122724533,
            0.003744850866496563,
            -0.18099632859230042,
            -0.1411629319190979,
            -0.07525164633989334,
            -0.11104398220777512,
            -0.1310780942440033,
            -0.2894701063632965,
            -0.3253612816333771,
            -0.03812023997306824,
            0.20590278506278992,
            0.19742745161056519,
            0.16304834187030792,
            -0.027483733370900154,
            -0.11819707602262497,
            -0.058225587010383606,
            -0.07907956838607788,
            -0.24119724333286285,
            -0.09610433876514435,
            -0.017461253330111504,
            -0.006758031435310841,
            0.09488271921873093,
            0.259593665599823,
            0.05173388496041298,
            0.19490599632263184,
            -0.016123339533805847,
            0.06118249148130417,
            0.09511387348175049,
            -0.1066155955195427,
            -0.23525939881801605,
            -0.027047235518693924,
            -0.17593039572238922,
            0.07322998344898224,
            -0.056423649191856384,
            -0.377454549074173,
            -0.435592919588089,
            -0.14829373359680176,
            0.17521139979362488,
            0.24009767174720764,
            0.1866483837366104,
            0.03053654544055462,
            0.16365323960781097,
            0.05562794953584671,
            -0.1792030781507492,
            0.029269041493535042,
            -0.385263592004776,
            -0.1736120581626892,
            -0.03930547088384628,
            0.06988950073719025,
            -0.10577631741762161,
            0.007398978341370821,
            -0.10376443713903427,
            0.062428489327430725,
            0.11319874972105026,
            0.03792261332273483,
            0.08534406125545502,
            0.060541633516550064,
            -0.05727630853652954,
            0.07658729702234268,
            0.16125155985355377,
            0.24767397344112396,
            -0.018279511481523514,
            -0.3768004775047302,
            -0.5356659293174744,
            -0.20464883744716644,
            0.25188320875167847,
            0.30369696021080017,
            0.1123809888958931,
            0.03689275681972504,
            0.07771653681993484,
            0.0595080591738224,
            -0.13271738588809967,
            0.05479287728667259,
            -0.19012992084026337,
            0.004385747015476227,
            0.024992719292640686,
            0.2651097774505615,
            -0.14426521956920624,
            -0.21395552158355713,
            -0.06649471819400787,
            0.013794269412755966,
            0.10347090661525726,
            0.10330405831336975,
            -0.11586780846118927,
            -0.04599631950259209,
            0.007705466356128454,
            0.1578243374824524,
            0.304828017950058,
            0.11887107789516449,
            -0.2469366192817688,
            -0.6663968563079834,
            -0.7367236614227295,
            -0.14966276288032532,
            0.22727607190608978,
            0.28827959299087524,
            0.060928743332624435,
            0.05787523463368416,
            0.04097606614232063,
            0.028705818578600883,
            0.06548664718866348,
            0.031859252601861954,
            -0.21678057312965393,
            0.09476391226053238,
            -0.04075619578361511,
            0.10929296910762787,
            -0.031014690175652504,
            -0.14086927473545074,
            0.02146134525537491,
            0.016249975189566612,
            0.07099533081054688,
            0.06925229728221893,
            -0.0015466827899217606,
            -0.04120400920510292,
            -0.01625441387295723,
            0.06446589529514313,
            0.07015139609575272,
            -0.06983965635299683,
            -0.26094019412994385,
            -0.639481246471405,
            -0.6975943446159363,
            -0.001406894763931632,
            0.19185757637023926,
            0.11641377955675125,
            -0.010869119316339493,
            -0.06791286170482635,
            0.09467294812202454,
            -0.014902337454259396,
            -0.045081790536642075,
            0.06964701414108276,
            -0.113465316593647,
            0.060162000358104706,
            -0.09621220827102661,
            0.09309346973896027,
            -0.06950537860393524,
            -0.04884731397032738,
            -0.1608864665031433,
            0.07788439840078354,
            0.13105764985084534,
            0.17550499737262726,
            0.06572464853525162,
            0.03492945060133934,
            -0.0040445574559271336,
            0.058724258095026016,
            -0.01874103769659996,
            -0.1253158450126648,
            -0.32595446705818176,
            -0.539246678352356,
            -0.2055104523897171,
            0.09827016294002533,
            0.17197319865226746,
            0.16012047231197357,
            0.04898732900619507,
            0.036996036767959595,
            -0.027422089129686356,
            -0.2339351326227188,
            0.03010321594774723,
            0.13977980613708496,
            -0.004487414378672838,
            -0.01322824414819479,
            -0.013274053111672401,
            0.022703511640429497,
            0.10442851483821869,
            -0.05025969818234444,
            -0.09947169572114944,
            0.0710710734128952,
            0.05891808867454529,
            0.11461032181978226,
            0.0950760617852211,
            0.09315460920333862,
            0.08732613921165466,
            0.17943623661994934,
            0.01610110141336918,
            -0.16591648757457733,
            -0.4601323902606964,
            -0.4120340943336487,
            -0.21971125900745392,
            0.1077733188867569,
            0.16238324344158173,
            0.32907241582870483,
            0.07361239194869995,
            -0.03206601366400719,
            0.050723377615213394,
            -0.09474868327379227,
            0.03508429229259491,
            -0.11550750583410263,
            -0.004211470019072294,
            -0.04968629777431488,
            0.1488320529460907,
            -0.07565300166606903,
            0.21431384980678558,
            -0.06991208344697952,
            0.010148437693715096,
            -0.06532344222068787,
            0.06818452477455139,
            0.09832382947206497,
            0.003822882194072008,
            0.016399236395955086,
            0.06566595286130905,
            0.12106554955244064,
            -0.21972869336605072,
            -0.4250313341617584,
            -0.38089919090270996,
            -0.08486612141132355,
            -0.02336614578962326,
            0.19853870570659637,
            0.3485378623008728,
            0.30403876304626465,
            0.018560761585831642,
            0.17260907590389252,
            -0.01861860416829586,
            -0.2050124853849411,
            0.04207482933998108,
            -0.2024882733821869,
            -0.18616221845149994,
            0.09223486483097076,
            0.021572642028331757,
            -0.08803093433380127,
            0.34968191385269165,
            -0.17068897187709808,
            0.062313757836818695,
            -0.05059273913502693,
            0.01420585997402668,
            0.15088655054569244,
            -0.08152294158935547,
            0.01905444823205471,
            0.031068796291947365,
            0.022483009845018387,
            -0.13405252993106842,
            -0.135898619890213,
            -0.009305527433753014,
            0.05810517072677612,
            0.2018405944108963,
            0.25528210401535034,
            0.41638997197151184,
            0.14191466569900513,
            0.016286613419651985,
            0.09296737611293793,
            0.07456006854772568,
            -0.057245053350925446,
            0.051031745970249176,
            0.18005910515785217,
            0.28804153203964233,
            0.22223304212093353,
            0.15326933562755585,
            -0.06262277066707611,
            0.14905774593353271,
            -0.28106945753097534,
            -0.09578243643045425,
            -0.05688800290226936,
            -0.05343510955572128,
            0.16054114699363708,
            0.045299965888261795,
            0.05242489278316498,
            0.01189398393034935,
            0.18025797605514526,
            -0.07987210154533386,
            -0.15099318325519562,
            0.04959465190768242,
            0.0804675817489624,
            0.20719993114471436,
            0.20621493458747864,
            0.2685073912143707,
            0.1063462346792221,
            0.004042393993586302,
            0.19063621759414673,
            0.040317945182323456,
            0.0651225745677948,
            0.1700877994298935,
            0.017911190167069435,
            0.14734068512916565,
            0.2660503387451172,
            0.08184396475553513,
            0.08540915697813034,
            0.0010041218483820558,
            -0.26475799083709717,
            -0.1909758597612381,
            -0.003575508249923587,
            0.03388794884085655,
            0.04971884936094284,
            0.16940118372440338,
            -0.07819091528654099,
            0.1044398695230484,
            -0.006351052317768335,
            0.0031678846571594477,
            -0.057859256863594055,
            0.1913972645998001,
            0.20924721658229828,
            0.03272458538413048,
            0.07811563462018967,
            0.15104976296424866,
            0.13660869002342224,
            0.09004340320825577,
            0.22249092161655426,
            0.004425941035151482,
            0.022546978667378426,
            0.10927829146385193,
            0.14300814270973206,
            0.28059908747673035,
            0.1846972107887268,
            0.03999100625514984,
            0.12778832018375397,
            0.23149466514587402,
            -0.04311719164252281,
            0.01865224353969097,
            0.049314700067043304,
            0.12310927361249924,
            0.13991619646549225,
            -0.0613524466753006,
            -0.22199136018753052,
            -0.06557974219322205,
            0.11059301346540451,
            0.12070371210575104,
            0.05522312968969345,
            0.021701132878661156,
            -0.005505151115357876,
            -0.07574021816253662,
            0.02895199880003929,
            0.1983257532119751,
            0.19683410227298737,
            0.13949155807495117,
            0.13764840364456177,
            -0.06076893210411072,
            0.12144099920988083,
            0.30371034145355225,
            0.18967019021511078,
            0.3042709529399872,
            0.08410549908876419,
            -0.07537286728620529,
            0.11370719224214554,
            0.32345113158226013,
            0.36530551314353943,
            0.22406016290187836,
            0.059462420642375946,
            0.12194844335317612,
            -0.1497538834810257,
            -0.15771552920341492,
            -0.19448897242546082,
            -0.07566496729850769,
            -0.008538370952010155,
            0.09544134885072708,
            0.02540295384824276,
            -0.02182449959218502,
            -0.11290109157562256,
            0.019790858030319214,
            0.01044248417019844,
            -0.03535705432295799,
            0.12646660208702087,
            0.08330391347408295,
            -0.007389932405203581,
            0.05928262695670128,
            0.2851831912994385,
            0.35834836959838867,
            0.09672660380601883,
            0.0375506766140461,
            -0.020390553399920464,
            0.06189214438199997,
            0.04695046320557594,
            0.18712452054023743,
            -0.04544568061828613,
            0.0907287672162056,
            0.001339815091341734,
            0.18756574392318726,
            -0.058992765843868256,
            -0.04533029720187187,
            -0.13824278116226196,
            -0.07513527572154999,
            0.04232915863394737,
            0.048293765634298325,
            0.0025791674852371216,
            -0.026033027097582817,
            0.01934453286230564,
            0.07733170688152313,
            0.10575829446315765,
            -0.0981103926897049,
            0.06303834915161133,
            0.07533854246139526,
            0.004385263193398714,
            0.15593387186527252,
            0.32757988572120667,
            0.44722050428390503,
            -0.08095225691795349,
            -0.06532908231019974,
            -0.04117660969495773,
            -0.08155416697263718,
            -0.06026522070169449,
            0.0815049335360527,
            -0.4082466661930084,
            -0.08862099051475525,
            0.009134666994214058,
            0.17807157337665558,
            0.1296340674161911,
            0.14418596029281616,
            -0.04564028978347778,
            -0.0029543766286224127,
            0.07846790552139282,
            0.08848033845424652,
            -0.05197086185216904,
            0.0944090187549591,
            -0.015937533229589462,
            0.011120542883872986,
            -0.05474307760596275,
            -0.09054673463106155,
            0.013072880916297436,
            -0.0777115523815155,
            -0.08531446754932404,
            -0.11563289165496826,
            0.20954462885856628,
            0.27120280265808105,
            -0.07951939105987549,
            -0.14734405279159546,
            -0.008829817175865173,
            -0.04383394494652748,
            0.07273415476083755,
            0.1499931961297989,
            -0.2183750867843628,
            0.1240021288394928,
            0.0149021465331316,
            -0.08504150807857513,
            0.0683179423213005,
            -0.07084568589925766,
            0.3291536569595337,
            0.27721214294433594,
            0.348150372505188,
            0.1448429822921753,
            -0.12180231511592865,
            -0.09070716053247452,
            0.14432558417320251,
            0.024433057755231857,
            -0.1987312138080597,
            -0.2212965339422226,
            -0.2682781219482422,
            -0.13220487534999847,
            -0.1009877473115921,
            -0.07584915310144424,
            0.12868952751159668,
            -0.02897028997540474,
            0.15974199771881104,
            -0.07180096954107285,
            0.07116618007421494,
            -0.02996329963207245,
            0.018558546900749207,
            -0.030519524589180946,
            0.035587113350629807,
            0.10810352861881256,
            -0.25809088349342346,
            -0.31167659163475037,
            -0.24203237891197205,
            0.003614415181800723,
            -0.007355597335845232,
            0.2814888656139374,
            0.17094378173351288,
            -0.29013657569885254,
            -0.4066745936870575,
            -0.11757821589708328,
            0.03504155948758125,
            0.1309581995010376,
            0.007328219711780548,
            0.06318631023168564,
            -0.17573992908000946,
            -0.2769246995449066,
            -0.04763384908437729,
            -0.2585052251815796,
            -0.1611367017030716,
            -0.36450907588005066,
            -0.018704278394579887,
            -0.07305028289556503,
            -0.07771600782871246,
            -0.02626626193523407,
            -0.009620293974876404,
            0.03274919092655182,
            -0.021810833364725113,
            0.07862745225429535,
            -0.2070825695991516,
            -0.0879572182893753,
            -0.05968591943383217,
            -0.12353385239839554,
            -0.31958314776420593,
            -0.09574612230062485,
            -0.18957877159118652,
            -0.08527586609125137,
            -0.24024493992328644,
            -0.023896753787994385,
            -0.07092823088169098,
            -0.07793010771274567,
            -0.03278728947043419,
            -0.09940068423748016,
            -0.2751137614250183,
            -0.19869869947433472,
            0.015984319150447845,
            -0.053263284265995026,
            -0.025726983323693275,
            0.024314016103744507,
            0.03666955232620239,
            -0.05810055136680603,
            -0.0003530234098434448,
            -0.011564627289772034,
            -0.0135468989610672,
            0.016299396753311157,
            0.01769944280385971,
            0.06959501653909683,
            0.0783960148692131,
            0.01387028582394123,
            -0.08688674867153168,
            -0.0754520520567894,
            -0.1054542139172554,
            -0.03951970860362053,
            0.05929345637559891,
            0.0289581511169672,
            -0.05934951826930046,
            -0.11559240520000458,
            0.09134621173143387,
            -0.15222184360027313,
            -0.11775050312280655,
            0.16837981343269348,
            0.18055033683776855,
            -0.016506407409906387,
            -0.060936473309993744,
            -0.01953776367008686,
            -0.22976502776145935,
            0.005900874733924866,
            -0.01852850615978241,
            0.03734461963176727,
            -0.03562961518764496
          ],
          "bias": 0.11864615976810455,
          "activation": "relu"
        },
        {
          "weights": [
            -0.004617191851139069,
            0.0067796409130096436,
            -0.03817643225193024,
            -0.0022280439734458923,
            0.05408913642168045,
            0.011283621191978455,
            -0.06610190868377686,
            -0.016857683658599854,
            0.053023599088191986,
            -0.0643184557557106,
            -0.07702800631523132,
            -0.06651966273784637,
            -0.005519629921764135,
            0.13002464175224304,
            0.14531156420707703,
            -0.01148298941552639,
            -0.033201564103364944,
            -0.07293887436389923,
            0.06911342591047287,
            -0.05374818295240402,
            0.07027290016412735,
            0.012390561401844025,
            0.06504461914300919,
            -0.036411531269550323,
            -0.05135205760598183,
            0.04804336279630661,
            -0.017619282007217407,
            -0.02520965412259102,
            0.027302630245685577,
            -0.07440606504678726,
            -0.07193721830844879,
            -0.07117177546024323,
            0.0260136891156435,
            -0.1115325540304184,
            0.007628901861608028,
            -0.0856071412563324,
            0.08385223895311356,
            0.0834844708442688,
            0.01643684320151806,
            0.0511554591357708,
            0.028074635192751884,
            -0.10600747913122177,
            -0.24482905864715576,
            -0.1267586052417755,
            0.21049492061138153,
            0.3066895306110382,
            -0.04607425630092621,
            -0.09172452986240387,
            -0.19740480184555054,
            -0.14588123559951782,
            -0.10260206460952759,
            -0.08526328206062317,
            -0.07302689552307129,
            -0.029726814478635788,
            -0.04594336450099945,
            -0.04988130182027817,
            -0.05910760164260864,
            0.010229639708995819,
            -0.03669261559844017,
            0.10058814287185669,
            0.06483901292085648,
            -0.10212633013725281,
            -0.23975376784801483,
            -0.16407470405101776,
            0.05318739637732506,
            0.24292223155498505,
            0.1351209282875061,
            -0.14644856750965118,
            0.149018794298172,
            -0.2497943788766861,
            -0.11600818485021591,
            -0.13533242046833038,
            -0.3119995892047882,
            -0.25811514258384705,
            -0.33617138862609863,
            -0.3130738139152527,
            -0.3341996371746063,
            -0.2188490778207779,
            -0.1724381148815155,
            0.07123523950576782,
            0.1257602423429489,
            0.048955876380205154,
            -0.03960547596216202,
            -0.06964905560016632,
            0.060480035841464996,
            -0.02111152559518814,
            -0.018822254613041878,
            0.10692927986383438,
            0.11007507890462875,
            0.10137088596820831,
            0.12852905690670013,
            -0.21748778223991394,
            -0.1042599007487297,
            0.23529094457626343,
            0.014624756760895252,
            0.10839640349149704,
            -0.08444225788116455,
            -0.12693852186203003,
            -0.2803412079811096,
            -0.1776108294725418,
            -0.2524785101413727,
            -0.2866857051849365,
            -0.4819551110267639,
            -0.35140350461006165,
            -0.42472487688064575,
            -0.3582037389278412,
            -0.17339877784252167,
            -0.12295515835285187,
            0.004510368220508099,
            0.03589954227209091,
            0.10104315727949142,
            0.03488544374704361,
            -0.0016448944807052612,
            -0.09396661072969437,
            -0.13539764285087585,
            -0.18917590379714966,
            -0.2655448317527771,
            -0.12198559194803238,
            -0.015679311007261276,
            0.017345858737826347,
            0.09571775048971176,
            0.250952810049057,
            0.15181052684783936,
            0.0006551198312081397,
            -0.04548558220267296,
            -0.034988317638635635,
            -0.0855429470539093,
            -0.09311998635530472,
            -0.026802221313118935,
            -0.07506820559501648,
            -0.09082016348838806,
            -0.257926881313324,
            -0.3538159430027008,
            -0.5290029644966125,
            -0.3528154492378235,
            -0.2810123860836029,
            -0.2692277431488037,
            0.052352216094732285,
            0.0450119823217392,
            -0.014979659579694271,
            -0.055398888885974884,
            -0.07281599938869476,
            -0.1560945063829422,
            -0.03505128622055054,
            -0.2168828248977661,
            -0.37462371587753296,
            0.02030540630221367,
            0.1434803605079651,
            0.10378575325012207,
            -0.023446831852197647,
            0.12025625258684158,
            0.07257265597581863,
            0.11840582638978958,
            0.1324676275253296,
            0.22333504259586334,
            0.1344388723373413,
            0.12102865427732468,
            0.03241471201181412,
            0.004603737499564886,
            -0.14703252911567688,
            -0.09499520808458328,
            -0.15456624329090118,
            -0.396414190530777,
            -0.4198474884033203,
            -0.11202901601791382,
            0.13355734944343567,
            0.09672261029481888,
            -0.024574173614382744,
            0.008541449904441833,
            0.020112866535782814,
            -0.00077031459659338,
            -0.31751418113708496,
            -0.33299779891967773,
            -0.2627876400947571,
            -0.09080607444047928,
            -0.006776593159884214,
            0.1388501673936844,
            0.12854667007923126,
            0.07844451814889908,
            -0.003543780418112874,
            0.07919836789369583,
            0.11341288685798645,
            0.05013051629066467,
            0.15645237267017365,
            0.0806475430727005,
            -0.056242190301418304,
            -0.057388629764318466,
            -0.2115202695131302,
            -0.19883738458156586,
            -0.0342220664024353,
            -0.37463968992233276,
            -0.2543904781341553,
            -0.33565211296081543,
            -0.08077532798051834,
            0.05764427036046982,
            0.07789330929517746,
            -0.08473163098096848,
            0.17176291346549988,
            0.134563148021698,
            -0.10679156333208084,
            0.012176726944744587,
            -0.10517138242721558,
            -0.08755417913198471,
            -0.04574093967676163,
            0.13483573496341705,
            0.12337116152048111,
            0.015111890621483326,
            -0.012692962773144245,
            -0.031275950372219086,
            0.014664572663605213,
            -0.022537345066666603,
            -0.024315450340509415,
            0.08315649628639221,
            -0.04685778543353081,
            0.05078625679016113,
            -0.036494046449661255,
            -0.2364770621061325,
            -0.00868728943169117,
            -0.05434420332312584,
            -0.2723306119441986,
            -0.08631749451160431,
            0.0037948291283100843,
            -0.006201614160090685,
            0.08461334556341171,
            0.26258543133735657,
            0.204200878739357,
            0.06808719038963318,
            -0.05115007609128952,
            0.016396719962358475,
            -0.0053186118602752686,
            0.027903880923986435,
            -0.09325017780065536,
            0.09605251252651215,
            0.1751834601163864,
            0.1748046576976776,
            -0.0605294369161129,
            -0.03931797295808792,
            0.1236429363489151,
            -0.001837537158280611,
            0.018442027270793915,
            0.033713433891534805,
            0.0403251089155674,
            0.06866173446178436,
            0.17280147969722748,
            0.0383465439081192,
            -0.07829435169696808,
            0.028975214809179306,
            0.04598432034254074,
            -0.3261268138885498,
            -0.2920827865600586,
            -0.03133850917220116,
            -0.13365621864795685,
            0.10444760322570801,
            -0.1456713229417801,
            -0.03240720555186272,
            0.03993058204650879,
            -0.09411296993494034,
            0.03880820423364639,
            -0.0871465876698494,
            -0.05146750062704086,
            0.00791533850133419,
            0.04018133506178856,
            0.2738724648952484,
            0.024507056921720505,
            0.07653199136257172,
            0.1216667890548706,
            0.01653202623128891,
            -0.0257955901324749,
            0.05680639669299126,
            0.02205083519220352,
            0.029525283724069595,
            0.0018285479163751006,
            0.08540208637714386,
            0.18705859780311584,
            0.07034554332494736,
            0.08273925632238388,
            -0.40331408381462097,
            -0.2703869044780731,
            0.000674701645039022,
            0.15326149761676788,
            0.07968567311763763,
            -0.16182580590248108,
            0.0420890673995018,
            -0.06494765728712082,
            -0.12588170170783997,
            0.07300536334514618,
            0.0913226529955864,
            0.05232638120651245,
            0.00621437793597579,
            0.11809004843235016,
            0.160344198346138,
            -0.004226687829941511,
            -0.11059499531984329,
            -0.03918325901031494,
            -0.0428776852786541,
            -0.11067266017198563,
            0.17230509221553802,
            0.15912996232509613,
            0.025057971477508545,
            0.06404198706150055,
            0.14969778060913086,
            0.20271839201450348,
            0.10684750229120255,
            0.05758817866444588,
            -0.24309881031513214,
            -0.1988423466682434,
            -0.05669790506362915,
            0.05508055165410042,
            -0.10666465759277344,
            0.336388498544693,
            -0.18485787510871887,
            -0.00804340373724699,
            0.032738279551267624,
            0.1021452471613884,
            0.09049026668071747,
            0.024910127744078636,
            0.05528432875871658,
            0.003913854248821735,
            0.004956673830747604,
            0.07186044007539749,
            -0.19613461196422577,
            -0.2491862177848816,
            -0.12712547183036804,
            -0.09014451503753662,
            -0.015339657664299011,
            0.0870726928114891,
            -0.034576550126075745,
            0.18648092448711395,
            0.2802743911743164,
            0.16748759150505066,
            0.04703519120812416,
            -0.11168072372674942,
            -0.19997991621494293,
            -0.06344197690486908,
            -0.22115877270698547,
            -0.059592295438051224,
            -0.04510563239455223,
            5.71329946978949e-05,
            -0.27855998277664185,
            -0.1396007537841797,
            -0.029911892488598824,
            -0.08116785436868668,
            0.06467285007238388,
            0.00785667635500431,
            0.08507795631885529,
            0.10230198502540588,
            -0.034721069037914276,
            -0.08934806287288666,
            -0.16225282847881317,
            -0.11600233614444733,
            -0.22733429074287415,
            -0.159279003739357,
            0.018632667139172554,
            0.19884099066257477,
            0.08373276144266129,
            0.2264576107263565,
            0.009991603903472424,
            -0.03980010747909546,
            -0.051082536578178406,
            -0.17393575608730316,
            0.03991128131747246,
            0.1519639641046524,
            -0.09077046811580658,
            0.10412511974573135,
            -0.12252327799797058,
            0.07464592903852463,
            -0.16524288058280945,
            -0.14270249009132385,
            -0.1033354103565216,
            0.05690127983689308,
            0.01172595378011465,
            -0.09684380888938904,
            0.04163492098450661,
            0.059771254658699036,
            -0.10270542651414871,
            -0.1546320915222168,
            -0.02004843018949032,
            -0.05165553465485573,
            -0.10005683451890945,
            -0.07966939359903336,
            -0.06091513857245445,
            0.02771361730992794,
            0.11120054870843887,
            0.07646306604146957,
            -0.14076931774616241,
            -0.09659743309020996,
            0.10403838753700256,
            -0.06757267564535141,
            -0.13560618460178375,
            0.041125036776065826,
            0.14961028099060059,
            0.29913097620010376,
            -0.0511091947555542,
            -0.13365232944488525,
            -0.0540553480386734,
            -0.04147150740027428,
            -0.07994747906923294,
            -0.13697455823421478,
            0.08327870815992355,
            -0.11817710101604462,
            -0.036493103951215744,
            -0.1502874195575714,
            -0.15745510160923004,
            -0.04037977382540703,
            0.061120714992284775,
            0.132205531001091,
            -0.03417745232582092,
            -0.038390014320611954,
            -0.1659037470817566,
            -0.066971056163311,
            0.2020258903503418,
            -0.06959569454193115,
            -0.12515246868133545,
            -0.1230483278632164,
            -0.18831074237823486,
            -0.0120267728343606,
            0.11969587951898575,
            0.287047415971756,
            0.3404962122440338,
            0.3590746819972992,
            -0.06143546849489212,
            -0.2010038197040558,
            -0.1238863617181778,
            0.03515195474028587,
            -0.0944691002368927,
            -0.0390440933406353,
            0.014161761850118637,
            -0.040269799530506134,
            -0.1686195284128189,
            -0.18526755273342133,
            -0.14260628819465637,
            -0.05071331188082695,
            0.023034509271383286,
            0.025832053273916245,
            0.14315544068813324,
            0.1204027533531189,
            0.11356454342603683,
            0.03148450702428818,
            -0.0037093989085406065,
            -0.0714702382683754,
            -0.05125167593359947,
            -0.08070793002843857,
            -0.07936184853315353,
            0.06117837876081467,
            0.345988392829895,
            0.22656138241291046,
            0.12233147025108337,
            0.31842368841171265,
            0.0341687947511673,
            -0.0307222418487072,
            -0.044649638235569,
            -0.00463680038228631,
            0.10925516486167908,
            -0.03352506086230278,
            0.037790194153785706,
            0.14340409636497498,
            -0.15505754947662354,
            -0.08848820626735687,
            -0.019062181934714317,
            0.19313503801822662,
            -0.04086316376924515,
            0.012834468856453896,
            0.19583941996097565,
            0.08777566999197006,
            0.26178136467933655,
            0.07953100651502609,
            -0.0536746047437191,
            -0.05611801892518997,
            -0.012847080826759338,
            0.09814111143350601,
            -0.024365613237023354,
            0.0939323753118515,
            0.13411402702331543,
            0.30129972100257874,
            0.24931566417217255,
            0.3134090304374695,
            0.03316757082939148,
            -0.1560274213552475,
            -0.013998635113239288,
            0.17850063741207123,
            0.2627752125263214,
            -0.08362508565187454,
            0.0816870704293251,
            0.029662594199180603,
            -0.04956657811999321,
            -0.04187273234128952,
            0.14236362278461456,
            0.23923997581005096,
            0.1645239144563675,
            0.10691697895526886,
            0.04430658370256424,
            0.01118693221360445,
            0.057975877076387405,
            -0.06757628172636032,
            -0.007909558713436127,
            -0.09940186887979507,
            0.04170763120055199,
            -0.017514023929834366,
            -0.0674956887960434,
            0.03168601915240288,
            0.10710948705673218,
            0.23882025480270386,
            -0.03288041800260544,
            0.2774486243724823,
            0.09188245981931686,
            -0.1007516011595726,
            -0.1018146201968193,
            0.007220647297799587,
            0.24606266617774963,
            0.019291767850518227,
            0.07725529372692108,
            -0.006779428105801344,
            -0.24288354814052582,
            -0.08452644944190979,
            0.12794896960258484,
            0.3788689076900482,
            0.36057132482528687,
            0.07839436829090118,
            -0.07795809954404831,
            0.08977995812892914,
            -0.09389018267393112,
            0.036587994545698166,
            -0.01527502853423357,
            0.11250469088554382,
            -0.08042557537555695,
            -0.0602620504796505,
            0.00942989718168974,
            0.1140744760632515,
            0.1392531841993332,
            0.14994168281555176,
            0.11503833532333374,
            0.007557970937341452,
            -0.01037582103163004,
            0.061533186584711075,
            -0.021779661998152733,
            -0.041303496807813644,
            0.06455805897712708,
            -0.10969376564025879,
            -0.09636466950178146,
            -0.29170480370521545,
            -0.32029983401298523,
            -0.0816013291478157,
            0.3008842170238495,
            0.27842625975608826,
            0.2854086458683014,
            0.13820795714855194,
            -0.05243675783276558,
            0.0772334560751915,
            0.06491551548242569,
            -0.0036155988927930593,
            0.01076845359057188,
            -0.016564015299081802,
            0.003028254956007004,
            -0.14050742983818054,
            0.049846574664115906,
            0.039959073066711426,
            0.02165267989039421,
            -0.06656456738710403,
            0.34775644540786743,
            -0.10295877605676651,
            0.03241030126810074,
            0.16817595064640045,
            0.17302124202251434,
            0.16136062145233154,
            0.0032750102691352367,
            -0.04281732812523842,
            -0.29515114426612854,
            -0.2034931480884552,
            -0.13098397850990295,
            -0.1956610232591629,
            0.14063797891139984,
            0.2563403844833374,
            0.14853312075138092,
            0.028797756880521774,
            -0.12512801587581635,
            0.03749174624681473,
            -0.007693186402320862,
            -0.02962103672325611,
            -0.08068665117025375,
            -0.033416856080293655,
            0.14541777968406677,
            -0.060520634055137634,
            0.009494686499238014,
            -0.02370581030845642,
            -0.053786758333444595,
            0.07952415943145752,
            0.28364652395248413,
            -0.12113993614912033,
            -0.03830869123339653,
            0.14769847691059113,
            0.052674535661935806,
            0.10234726965427399,
            0.0037031504325568676,
            -0.11807511001825333,
            -0.06551448255777359,
            -0.16638733446598053,
            -0.202066570520401,
            0.081902876496315,
            0.003223409643396735,
            0.003484030021354556,
            -0.03751136735081673,
            -0.11734365671873093,
            -0.06311460584402084,
            -0.05777212232351303,
            -0.10489638894796371,
            0.0006729802116751671,
            -0.03011232800781727,
            -0.0022972826845943928,
            -0.080436110496521,
            -0.014941907487809658,
            0.1691742092370987,
            0.22042012214660645,
            -0.10546152293682098,
            -0.12019103020429611,
            0.40765008330345154,
            -0.04565281420946121,
            -0.11979664862155914,
            -0.051149118691682816,
            0.13455061614513397,
            0.03506454825401306,
            -0.012928142212331295,
            -0.15035772323608398,
            0.008597946725785732,
            0.007523462641984224,
            -0.13826970756053925,
            0.07083381712436676,
            -0.02976260520517826,
            -0.03140674903988838,
            -0.06955257058143616,
            -0.143645778298378,
            -0.16264384984970093,
            -0.03849845007061958,
            -0.001787270768545568,
            -0.03562062606215477,
            -0.052227143198251724,
            0.025929806753993034,
            -0.040182556957006454,
            0.20064190030097961,
            0.26207345724105835,
            0.10661228001117706,
            -0.32177507877349854,
            -0.28334805369377136,
            0.08142155408859253,
            -0.01901884377002716,
            0.04664935916662216,
            -0.019720345735549927,
            -0.06341817229986191,
            -0.1279674470424652,
            -0.2730182707309723,
            -0.3454514741897583,
            -0.10570511966943741,
            0.040783580392599106,
            -0.12414966523647308,
            -0.028709352016448975,
            -0.05801205709576607,
            -0.002498064422979951,
            0.04485702142119408,
            0.04297437146306038,
            0.008969577960669994,
            -0.0011733827413991094,
            0.08173296600580215,
            0.14188429713249207,
            0.12385861575603485,
            0.07753261923789978,
            0.07146481424570084,
            0.1950169950723648,
            0.22550667822360992,
            0.17189157009124756,
            -0.1837179958820343,
            -0.16825200617313385,
            -0.20376847684383392,
            -0.06846512109041214,
            -0.028455641120672226,
            0.06699817627668381,
            0.019267944619059563,
            -0.1612483263015747,
            -0.31559842824935913,
            -0.4089186489582062,
            -0.1887415498495102,
            -0.2872154712677002,
            -0.4042302370071411,
            -0.42592304944992065,
            -0.41039910912513733,
            -0.27561259269714355,
            -0.1292407363653183,
            0.08376486599445343,
            0.058071382343769073,
            0.22425229847431183,
            0.1218055933713913,
            -0.05855896696448326,
            0.12185902148485184,
            -0.04495396465063095,
            -0.06839108467102051,
            -0.05949091538786888,
            -0.1383173167705536,
            -0.15557534992694855,
            0.10557762533426285,
            0.2401932030916214,
            0.04469289258122444,
            -0.04866616055369377,
            0.019879378378391266,
            -0.014744468033313751,
            -0.040245622396469116,
            -0.06454181671142578,
            -0.27307048439979553,
            -0.20827040076255798,
            0.182966411113739,
            -0.0012637925101444125,
            -0.408198744058609,
            -0.4588123857975006,
            0.07451044768095016,
            -0.029399404302239418,
            -0.14018578827381134,
            -0.17384986579418182,
            0.0619368702173233,
            0.16898174583911896,
            -0.11495434492826462,
            0.012682940810918808,
            -0.0659722313284874,
            -0.2608583867549896,
            -0.22138647735118866,
            -0.34632253646850586,
            -0.5596875548362732,
            -0.43471860885620117,
            -0.3429339528083801,
            -0.02037792280316353,
            0.18133820593357086,
            -0.0236220583319664,
            0.013417884707450867,
            -0.05503261089324951,
            -0.034489940851926804,
            -0.08412060141563416,
            -0.30758383870124817,
            -0.25696584582328796,
            -0.13649000227451324,
            0.1380852609872818,
            -0.012721295468509197,
            -0.15233740210533142,
            -0.10988827049732208,
            -0.04441744461655617,
            -0.13534396886825562,
            -0.11037660390138626,
            0.018859850242733955,
            -0.1833365112543106,
            -0.241294726729393,
            -0.22139541804790497,
            0.06653662770986557,
            -0.12232650816440582,
            -0.25891587138175964,
            -0.4831385910511017,
            -0.40889185667037964,
            -0.19640040397644043,
            -0.017844844609498978,
            -0.057261642068624496,
            0.02434772253036499,
            -0.06206120550632477,
            -0.08127275854349136,
            -0.07579317688941956,
            0.07802141457796097,
            -0.006068110466003418,
            0.0445064976811409,
            0.03510703891515732,
            0.007135647814720869,
            -0.05940466374158859,
            -0.05527752637863159,
            -0.006088163238018751,
            -0.086693674325943,
            -0.11660969257354736,
            0.029083333909511566,
            -0.019018201157450676,
            -0.19917741417884827,
            0.024964846670627594,
            -0.007580224424600601,
            0.03211107477545738,
            -0.02978838048875332,
            -0.10326725989580154,
            -0.019874978810548782,
            -0.07996413111686707,
            -0.06954972445964813,
            -0.15477721393108368,
            -0.06943663209676743,
            0.041154928505420685,
            -0.029001232236623764,
            -0.05864379554986954
          ],
          "bias": -0.006934305187314749,
          "activation": "relu"
        },
        {
          "weights": [
            0.07633436471223831,
            -0.07631750404834747,
            0.01880008727312088,
            0.005319833755493164,
            0.06253664940595627,
            -0.07558657228946686,
            -0.01394583284854889,
            -0.02091490477323532,
            0.013361215591430664,
            0.0648321732878685,
            -0.06997750699520111,
            -0.023168258368968964,
            -0.06410498917102814,
            -0.05892297625541687,
            0.046396948397159576,
            -0.06656910479068756,
            -0.0689639002084732,
            0.023317985236644745,
            0.07507533580064774,
            0.0010803714394569397,
            0.005849376320838928,
            0.01662302017211914,
            -0.0008529722690582275,
            0.06228327006101608,
            -0.08325286954641342,
            0.056569330394268036,
            0.0270882248878479,
            -0.006075374782085419,
            -0.0740925669670105,
            -0.00441383570432663,
            0.009885139763355255,
            0.028401672840118408,
            0.06605128198862076,
            -0.06753303110599518,
            -0.0687851533293724,
            0.002929382026195526,
            -0.019278012216091156,
            -0.005167052149772644,
            -0.09775479882955551,
            -0.09991921484470367,
            -0.15075543522834778,
            -0.2001781314611435,
            0.05620202049612999,
            0.24381734430789948,
            0.061344366520643234,
            0.09614963829517365,
            -0.14882144331932068,
            0.010921856388449669,
            -0.07964116334915161,
            -0.06610795855522156,
            -0.05176428705453873,
            -0.03830115124583244,
            0.07528749853372574,
            -0.03602457419037819,
            0.08209576457738876,
            -0.03121369332075119,
            0.0028280243277549744,
            0.04574332386255264,
            -0.03551492094993591,
            0.16697268187999725,
            0.11020652949810028,
            -0.0566912516951561,
            0.08140593767166138,
            -0.03811488300561905,
            -0.032455556094646454,
            -0.16663862764835358,
            -0.1580575853586197,
            -0.12360858917236328,
            -0.40658995509147644,
            -0.3782939910888672,
            -0.3059222996234894,
            -0.20421944558620453,
            -0.20863953232765198,
            -0.3007585108280182,
            -0.173565074801445,
            -0.2764614224433899,
            -0.25593340396881104,
            -0.20331230759620667,
            -0.123041532933712,
            0.024458393454551697,
            -0.0641922652721405,
            0.007757230661809444,
            0.034529246389865875,
            -0.061681248247623444,
            -0.04658189043402672,
            -0.06140846759080887,
            0.18648704886436462,
            0.23456618189811707,
            0.11339601874351501,
            -0.08487476408481598,
            -0.024203423410654068,
            0.16544586420059204,
            0.028679126873612404,
            -0.24627180397510529,
            -0.22169877588748932,
            0.10167276859283447,
            0.09429292380809784,
            -0.17950531840324402,
            -0.4286864101886749,
            -0.11337190121412277,
            -0.08670913428068161,
            -0.05919453129172325,
            -0.11423875391483307,
            -0.42595618963241577,
            -0.15773750841617584,
            -0.047385405749082565,
            -0.05224265158176422,
            -0.23789842426776886,
            -0.23081155121326447,
            -0.025586839765310287,
            0.10079325735569,
            7.100403308868408e-06,
            -0.018825799226760864,
            0.0689709410071373,
            0.1041908711194992,
            0.1325879544019699,
            0.07556001842021942,
            -0.012166698463261127,
            0.0038999856915324926,
            -0.10328750312328339,
            -0.08768577873706818,
            -0.30489227175712585,
            -0.35084420442581177,
            -0.034611914306879044,
            -0.042047396302223206,
            0.08062466979026794,
            0.023401452228426933,
            -0.017252933233976364,
            -0.10325179994106293,
            -0.04818910360336304,
            -0.2903372645378113,
            -0.4702240228652954,
            -0.39419806003570557,
            -0.34268227219581604,
            -0.30042752623558044,
            -0.14541782438755035,
            -0.006121983285993338,
            0.025514286011457443,
            -0.00864549819380045,
            0.06322009116411209,
            0.050764478743076324,
            -0.06781454384326935,
            0.11450986564159393,
            0.11022289842367172,
            0.039217110723257065,
            0.10243629664182663,
            0.04272303357720375,
            -0.039328377693891525,
            -0.28554943203926086,
            -0.3250364065170288,
            -0.48071959614753723,
            -0.21982361376285553,
            -0.24679620563983917,
            -0.09513804316520691,
            0.050456006079912186,
            0.019135452806949615,
            -0.13895754516124725,
            -0.2850744128227234,
            -0.455762654542923,
            -0.5273284912109375,
            -0.2637387812137604,
            -0.1613493412733078,
            -0.17900574207305908,
            -0.21253502368927002,
            -0.13300365209579468,
            -0.17467954754829407,
            -0.0941026583313942,
            -0.03374931961297989,
            -0.07808451354503632,
            -0.10721241682767868,
            -0.14106298983097076,
            0.007825663313269615,
            0.24928586184978485,
            -0.12940025329589844,
            -0.21896938979625702,
            -0.37545067071914673,
            -0.2793367803096771,
            -0.21889273822307587,
            -0.3527351915836334,
            -0.1861315220594406,
            -0.111183300614357,
            0.0056541310623288155,
            0.06191951408982277,
            -0.10514869540929794,
            -0.1459413319826126,
            -0.08502675592899323,
            -0.1480674296617508,
            -0.2560567259788513,
            -0.2439415007829666,
            -0.029141321778297424,
            0.14041537046432495,
            0.19219988584518433,
            0.22900539636611938,
            -0.009200988337397575,
            -0.0033264560624957085,
            -0.12474632263183594,
            0.008491724729537964,
            -0.19681228697299957,
            -0.04504157975316048,
            0.016057027503848076,
            0.09966739267110825,
            -0.16594134271144867,
            -0.23341529071331024,
            -0.25617554783821106,
            -0.13597175478935242,
            -0.4798889458179474,
            -0.30265524983406067,
            -0.1933702975511551,
            -0.07761569321155548,
            0.06550315767526627,
            0.05234146863222122,
            0.05699367821216583,
            0.010671643540263176,
            -0.14606675505638123,
            -0.11857189983129501,
            -0.217281773686409,
            -0.17140968143939972,
            0.06065164878964424,
            0.1149962916970253,
            0.2140774130821228,
            0.10572826862335205,
            0.027463320642709732,
            0.12990349531173706,
            -0.041591010987758636,
            0.10892783850431442,
            -0.1017114445567131,
            0.15308141708374023,
            0.14454452693462372,
            0.12279568612575531,
            0.018851859495043755,
            -0.0861130952835083,
            -0.2307896763086319,
            -0.23326238989830017,
            -0.3399668335914612,
            -0.22299818694591522,
            -0.07345189154148102,
            0.02272399514913559,
            -0.15903328359127045,
            -0.09630535542964935,
            -0.08705699443817139,
            0.12420512735843658,
            0.221246600151062,
            0.2544536888599396,
            0.14319062232971191,
            0.0655846893787384,
            0.061734795570373535,
            0.006615866906940937,
            0.18140862882137299,
            0.27493488788604736,
            0.20376530289649963,
            -0.054876942187547684,
            0.1667860895395279,
            0.0032822107896208763,
            0.20675650238990784,
            0.10618123412132263,
            -0.027908312156796455,
            -0.16508841514587402,
            -0.12740349769592285,
            -0.14072944223880768,
            -0.1925445795059204,
            -0.08630092442035675,
            -0.09039071202278137,
            -0.045600175857543945,
            0.1388622522354126,
            -0.006003132555633783,
            0.06372195482254028,
            0.08492226898670197,
            0.11181776225566864,
            0.29977908730506897,
            0.28371182084083557,
            0.2868838310241699,
            0.14683017134666443,
            0.020646370947360992,
            0.011030706577003002,
            0.16226951777935028,
            0.12998592853546143,
            0.2949814796447754,
            0.1430976837873459,
            -0.08440468460321426,
            -0.0666571632027626,
            -0.06954292953014374,
            0.1439289152622223,
            -0.0523323118686676,
            0.0017686426872387528,
            -0.19001883268356323,
            -0.3567582070827484,
            -0.17635533213615417,
            -0.038895219564437866,
            0.018013687804341316,
            0.04354609176516533,
            0.13545922935009003,
            0.15069933235645294,
            0.07734007388353348,
            0.17632465064525604,
            0.28906840085983276,
            0.3138342797756195,
            0.3885055482387543,
            0.3051157593727112,
            0.15464019775390625,
            0.1689426749944687,
            0.12054181843996048,
            0.011147869750857353,
            0.14935189485549927,
            0.041446492075920105,
            0.48297229409217834,
            0.4763254225254059,
            0.06577742844820023,
            -0.15423700213432312,
            -0.03454464673995972,
            0.2156727910041809,
            0.15031853318214417,
            0.16005441546440125,
            -0.018610822036862373,
            -0.32465818524360657,
            -0.292494535446167,
            0.0927882269024849,
            0.05582689493894577,
            0.0065971980802714825,
            -0.06893656402826309,
            0.15691620111465454,
            0.1606079339981079,
            0.3430621027946472,
            0.2699935734272003,
            0.1978132426738739,
            0.16616128385066986,
            0.03697585687041283,
            -0.004650950897485018,
            0.0015367846935987473,
            0.0470569021999836,
            -0.0278489887714386,
            0.1744835078716278,
            0.4894484281539917,
            0.2943810224533081,
            0.38983941078186035,
            0.09476684778928757,
            0.3069521188735962,
            -0.0011380903888493776,
            -0.2135424017906189,
            0.10481695830821991,
            0.08737011253833771,
            0.08008497208356857,
            -0.3526109755039215,
            -0.22805437445640564,
            0.11989584565162659,
            -0.03466734290122986,
            0.16543665528297424,
            0.10677117854356766,
            0.22906850278377533,
            0.2328205555677414,
            0.21359674632549286,
            0.26413559913635254,
            0.07550039887428284,
            -0.08251594007015228,
            -0.012005209922790527,
            -0.07915546000003815,
            -0.25110092759132385,
            -0.33861297369003296,
            -0.330466628074646,
            0.108924500644207,
            0.046257384121418,
            0.04859570413827896,
            0.31589511036872864,
            0.22684773802757263,
            0.04449797421693802,
            0.03905347362160683,
            0.007479675114154816,
            -0.03213183581829071,
            0.06558464467525482,
            -0.04918118566274643,
            -0.12019728124141693,
            0.04681498557329178,
            0.21034134924411774,
            0.06800998002290726,
            0.13347536325454712,
            0.1387426108121872,
            0.14713001251220703,
            0.06129061058163643,
            -0.008783028461039066,
            -0.004321611952036619,
            -0.14381133019924164,
            -0.13930802047252655,
            -0.09164757281541824,
            -0.2921273410320282,
            -0.20169830322265625,
            -0.3353857696056366,
            -0.11523006111383438,
            -0.0906260758638382,
            -0.09175161272287369,
            0.04944586008787155,
            0.07986687123775482,
            4.5329099521040916e-05,
            -0.2296045869588852,
            0.07035379856824875,
            -0.01886545494198799,
            0.11997724324464798,
            0.12128497660160065,
            0.23781947791576385,
            0.2211361974477768,
            -0.005588867701590061,
            -0.028420258313417435,
            -0.0088626304641366,
            0.24180790781974792,
            0.11735977977514267,
            0.01756385900080204,
            0.020872173830866814,
            -0.10237004607915878,
            -0.16594922542572021,
            -0.16032709181308746,
            -0.11728185415267944,
            -0.1692730188369751,
            -0.09532985091209412,
            -0.2434478998184204,
            -0.11913692951202393,
            -0.15344107151031494,
            0.017072981223464012,
            -0.07831303775310516,
            0.10195400565862656,
            -0.2325078547000885,
            -0.3776592016220093,
            -0.109856516122818,
            -0.15291158854961395,
            0.07820548862218857,
            0.21473178267478943,
            -0.025994354858994484,
            0.27870267629623413,
            0.30347922444343567,
            0.09254870563745499,
            0.010399538092315197,
            0.0523676760494709,
            0.22618281841278076,
            0.10633870214223862,
            0.05044221505522728,
            -0.00014157913392409682,
            -0.19325309991836548,
            -0.21668179333209991,
            -0.15064294636249542,
            -0.1244303286075592,
            -0.13163061439990997,
            0.007332908920943737,
            -0.23199616372585297,
            -0.15091697871685028,
            -0.22632187604904175,
            -0.23837853968143463,
            -0.05521653592586517,
            -0.00411829212680459,
            -0.16845646500587463,
            -0.32315510511398315,
            -0.2551037073135376,
            -0.1574125736951828,
            0.01771312765777111,
            0.15904240310192108,
            0.07854852080345154,
            0.08240026980638504,
            0.15913176536560059,
            -0.07579033821821213,
            -0.14460530877113342,
            0.04092478007078171,
            -0.030996499583125114,
            -0.07429870963096619,
            0.038308531045913696,
            -0.0008507218444719911,
            -0.2748398780822754,
            -0.18238568305969238,
            -0.10022008419036865,
            -0.02990058995783329,
            -0.1058644950389862,
            -0.06661147624254227,
            -0.10163570940494537,
            -0.027277687564492226,
            -0.26341187953948975,
            -0.41193997859954834,
            -0.27832430601119995,
            -0.19507496058940887,
            -0.00537556828930974,
            -0.30011647939682007,
            0.07757316529750824,
            0.03244736045598984,
            0.05172166973352432,
            -0.24266289174556732,
            0.06022721901535988,
            -0.17806383967399597,
            0.028362706303596497,
            0.023630764335393906,
            -0.15578268468379974,
            -0.07382359355688095,
            0.08247407525777817,
            -0.04777386412024498,
            -0.10028941929340363,
            -0.09737934917211533,
            -0.11325123906135559,
            -0.031040236353874207,
            0.05154358595609665,
            -0.11775081604719162,
            -0.03498455137014389,
            -0.04836244136095047,
            -0.06924629956483841,
            0.003480349201709032,
            -0.20382685959339142,
            -0.17161642014980316,
            -0.008242971263825893,
            -0.0337727852165699,
            0.030903015285730362,
            -0.06910034269094467,
            0.13716384768486023,
            0.11574894934892654,
            0.024327097460627556,
            -0.1351960003376007,
            -0.12195888161659241,
            -0.14054426550865173,
            0.09807685017585754,
            0.04508209228515625,
            -0.026059618219733238,
            0.013501405715942383,
            -0.07879909127950668,
            -0.04724089801311493,
            -0.0019799622241407633,
            0.0678492859005928,
            0.06188599765300751,
            0.025266580283641815,
            0.007690371945500374,
            -0.0715315192937851,
            0.036886826157569885,
            -0.16152213513851166,
            -0.08043576031923294,
            -0.05519254505634308,
            -0.22525277733802795,
            -0.028177887201309204,
            -0.15266947448253632,
            -0.13896378874778748,
            0.0038793031126260757,
            0.15025551617145538,
            0.2733819782733917,
            0.018271928653120995,
            0.16590186953544617,
            0.08209918439388275,
            -0.3818599283695221,
            -0.07443351298570633,
            -0.08604606986045837,
            -0.0049552712589502335,
            0.10839150846004486,
            -0.006136820185929537,
            0.046884793788194656,
            -0.009882398881018162,
            0.003982861526310444,
            0.04573969170451164,
            -0.015080651268362999,
            0.06314802914857864,
            -0.037064578384160995,
            0.012814789079129696,
            -0.09650669991970062,
            0.022395877167582512,
            0.07230660319328308,
            -0.18319547176361084,
            -0.1579369604587555,
            -0.13689851760864258,
            -0.13664044439792633,
            -0.006915286183357239,
            0.13265295326709747,
            0.050443243235349655,
            0.22490453720092773,
            0.05838470906019211,
            0.149322509765625,
            -0.07510004192590714,
            -0.35534828901290894,
            -0.26294422149658203,
            0.13572442531585693,
            0.14495433866977692,
            0.03716964274644852,
            0.0036718056071549654,
            0.10662956535816193,
            0.12385497987270355,
            0.0030900179408490658,
            -0.06115918233990669,
            0.06031862646341324,
            -0.02013169415295124,
            -0.05941653251647949,
            -0.04592111334204674,
            0.05115066468715668,
            -0.05919293314218521,
            0.15019327402114868,
            -0.1168326884508133,
            -0.09461706131696701,
            -0.02000432461500168,
            0.004320621490478516,
            0.024502381682395935,
            0.1760234534740448,
            0.11508704721927643,
            0.13929122686386108,
            0.1020415648818016,
            -0.005524128209799528,
            -0.12277054786682129,
            -0.17824244499206543,
            -0.34946712851524353,
            0.07690470665693283,
            -0.056555815041065216,
            0.07349301129579544,
            -0.18095147609710693,
            -0.13239078223705292,
            -0.08609370142221451,
            -0.03271637484431267,
            -0.07410621643066406,
            0.07959376275539398,
            -0.09978194534778595,
            0.05535665154457092,
            -0.2530987560749054,
            0.024781255051493645,
            0.13679957389831543,
            0.0008041491382755339,
            -0.15463387966156006,
            -0.22181260585784912,
            -0.15378068387508392,
            0.05369580164551735,
            0.1649986058473587,
            0.2399904876947403,
            0.006013593636453152,
            0.061967633664608,
            -0.05956214293837547,
            -0.035217877477407455,
            -0.1277383416891098,
            -0.09504766017198563,
            -0.23018288612365723,
            -0.16200125217437744,
            -0.0434531606733799,
            0.03913778439164162,
            -0.05483446270227432,
            -0.1532817780971527,
            -0.13401617109775543,
            -0.12309224158525467,
            0.049843680113554,
            -0.029090285301208496,
            0.047529444098472595,
            0.029119214043021202,
            -0.2461494356393814,
            -0.0494261272251606,
            0.04934362694621086,
            -0.2099122554063797,
            -0.28083884716033936,
            -0.0304002333432436,
            -0.10556972771883011,
            0.16779214143753052,
            0.3229357600212097,
            0.23258498311042786,
            0.24647030234336853,
            -0.05427148938179016,
            -0.024057909846305847,
            0.00037335604429244995,
            -0.07499749213457108,
            -0.1601812094449997,
            -0.18531003594398499,
            -0.10345249623060226,
            -0.2522099018096924,
            0.06527478247880936,
            0.27344661951065063,
            0.1893928349018097,
            0.007709959987550974,
            -0.11996230483055115,
            -0.10559628158807755,
            -0.14656881988048553,
            -0.032095134258270264,
            -0.16821157932281494,
            -0.041953518986701965,
            -0.02361268922686577,
            -0.1832302063703537,
            -0.10678689181804657,
            0.011942189186811447,
            0.0009815485682338476,
            6.388162728399038e-05,
            0.0690162256360054,
            0.07315812259912491,
            -0.01813778094947338,
            0.21710269153118134,
            0.07970557361841202,
            -0.07766689360141754,
            0.07702892273664474,
            -0.035179510712623596,
            0.1035318374633789,
            0.01655452698469162,
            -0.12361624091863632,
            -0.3315647840499878,
            -0.10328174382448196,
            0.07969069480895996,
            0.09867165982723236,
            -0.018569815903902054,
            -0.09981666505336761,
            -0.05822885408997536,
            -0.08270606398582458,
            -0.025371409952640533,
            -0.0603480264544487,
            0.019266439601778984,
            0.08091709017753601,
            -0.07714849710464478,
            -0.1183755099773407,
            0.03176261484622955,
            -0.07971702516078949,
            -0.006208656821399927,
            0.150229349732399,
            0.15892554819583893,
            -0.11528655141592026,
            -0.09679360687732697,
            -0.023450449109077454,
            -0.0757119357585907,
            -0.027124162763357162,
            0.062269680202007294,
            -0.07293617725372314,
            -0.00932279322296381,
            0.007893144153058529,
            -0.0783354640007019,
            -0.0421588309109211,
            -0.09741423279047012,
            -0.22582188248634338,
            -0.229079008102417,
            -0.0839051753282547,
            -0.176166832447052,
            0.02664383500814438,
            0.15592148900032043,
            0.12046799808740616,
            0.12692250311374664,
            0.13852611184120178,
            -0.13928475975990295,
            0.05452040955424309,
            0.14563345909118652,
            0.1771872341632843,
            0.00861242227256298,
            0.2950086295604706,
            -0.022662987932562828,
            -0.04291519150137901,
            -0.005067885387688875,
            0.07613980025053024,
            -0.044935453683137894,
            -0.040932077914476395,
            0.04851474612951279,
            0.1428111046552658,
            0.09958882629871368,
            0.21452702581882477,
            -0.0023998571559786797,
            0.013292244635522366,
            -0.0941225215792656,
            -0.0716252401471138,
            0.0342848114669323,
            0.07016133517026901,
            0.30306094884872437,
            0.0924137756228447,
            0.07916370034217834,
            0.30465319752693176,
            0.22793427109718323,
            0.34871044754981995,
            -0.021325506269931793,
            0.1600341498851776,
            0.13736021518707275,
            0.24528510868549347,
            -0.11098425090312958,
            -0.023108838126063347,
            -0.050241295248270035,
            -0.009027336724102497,
            0.01784101128578186,
            -0.0033875107765197754,
            0.027048476040363312,
            -0.08381345868110657,
            -0.011237576603889465,
            0.0023135393857955933,
            -0.1787763386964798,
            -0.21745285391807556,
            -0.027102474123239517,
            0.16889271140098572,
            0.08233122527599335,
            0.04455128312110901,
            0.21753235161304474,
            0.11559297889471054,
            0.17034877836704254,
            0.009295139461755753,
            0.32937151193618774,
            0.17191188037395477,
            0.08571460843086243,
            0.036445971578359604,
            0.2880503237247467,
            -0.008762813173234463,
            -0.2210085093975067,
            -0.159505233168602,
            -0.15945257246494293,
            -0.005373634863644838,
            0.04154796153306961,
            -0.05367347598075867,
            -0.016779713332653046,
            0.017029814422130585
          ],
          "bias": 0.2512202262878418,
          "activation": "relu"
        },
        {
          "weights": [
            -0.03252479434013367,
            0.018306419253349304,
            0.06701280921697617,
            -0.03865993022918701,
            0.05905606597661972,
            0.042486049234867096,
            0.01933302730321884,
            -0.07397087663412094,
            -0.016167916357517242,
            0.028172604739665985,
            0.06579112261533737,
            0.03473126143217087,
            0.04443419724702835,
            0.044035159051418304,
            0.0809541717171669,
            0.061198391020298004,
            -0.007203236222267151,
            0.011749610304832458,
            -0.00800430029630661,
            0.015412896871566772,
            0.006890140473842621,
            0.04672712832689285,
            0.011309988796710968,
            0.05226900428533554,
            -0.01442158967256546,
            0.03742899000644684,
            0.08160258084535599,
            -0.08296900987625122,
            -0.04649459198117256,
            0.011625148355960846,
            0.027856282889842987,
            -0.045601289719343185,
            -0.05639290809631348,
            0.03421178460121155,
            -0.06842506676912308,
            -0.021903906017541885,
            -0.07146377861499786,
            0.010743505321443081,
            -0.1607808619737625,
            -0.010412847623229027,
            -0.0070428489707410336,
            0.048389796167612076,
            -0.37819600105285645,
            -0.2828063666820526,
            0.07812546193599701,
            0.21010932326316833,
            -0.008157407864928246,
            0.15915802121162415,
            0.1906929612159729,
            0.08736086636781693,
            0.1060413122177124,
            -0.020278289914131165,
            -0.049758344888687134,
            0.05232822149991989,
            0.031881436705589294,
            0.022602573037147522,
            0.036301009356975555,
            -0.0689539760351181,
            -0.013699278235435486,
            0.13207916915416718,
            0.1803468018770218,
            0.022214824333786964,
            -0.012090448290109634,
            -0.06599926203489304,
            0.1009659618139267,
            -0.03655407577753067,
            -0.17808160185813904,
            -0.21821565926074982,
            -0.19914129376411438,
            -0.2752208113670349,
            -0.5073398351669312,
            -0.33168959617614746,
            -0.105375275015831,
            -0.0013010776601731777,
            0.015616402961313725,
            0.087751604616642,
            0.10414858162403107,
            0.1360989809036255,
            0.2780954837799072,
            0.3721367418766022,
            0.07673940062522888,
            -0.03139469027519226,
            -0.06645414233207703,
            -0.012058816850185394,
            0.03600507974624634,
            0.0030510127544403076,
            -0.19909577071666718,
            0.2000584602355957,
            0.3591859042644501,
            0.280160516500473,
            0.03440038859844208,
            0.08590450137853622,
            0.019103793427348137,
            -0.1474287062883377,
            -0.11331400275230408,
            -0.10297907888889313,
            0.04885510727763176,
            -0.2039719671010971,
            0.008314885199069977,
            -0.17630481719970703,
            -0.006499756593257189,
            0.10249354690313339,
            0.0263394545763731,
            -0.006705168168991804,
            0.10124874114990234,
            0.22601823508739471,
            -0.02585332840681076,
            0.024606335908174515,
            0.2106526792049408,
            0.04302634298801422,
            0.2669447958469391,
            -0.000506862998008728,
            -0.07467321306467056,
            0.025881268084049225,
            -0.20006313920021057,
            -0.20729748904705048,
            0.2188820242881775,
            0.3595227897167206,
            0.26677992939949036,
            0.1821761280298233,
            0.09751959890127182,
            -0.08828584104776382,
            -0.05642099678516388,
            -0.2762209177017212,
            -0.188714399933815,
            -0.15754643082618713,
            -0.314087450504303,
            -0.23931454122066498,
            -0.044200409203767776,
            0.06664726138114929,
            0.07821299135684967,
            -0.045864809304475784,
            -0.029522523283958435,
            0.04205002263188362,
            0.013549740426242352,
            0.3139761984348297,
            0.2452383041381836,
            0.14491617679595947,
            0.11730938404798508,
            0.24544267356395721,
            0.0604778453707695,
            -0.0785016119480133,
            -0.20954042673110962,
            0.0759572759270668,
            0.07267802953720093,
            0.17812365293502808,
            0.11974707245826721,
            -0.08275899291038513,
            -0.046169109642505646,
            -0.27781593799591064,
            -0.3107149600982666,
            -0.254364550113678,
            -0.3815799951553345,
            -0.19541770219802856,
            -0.09311238676309586,
            0.07064766436815262,
            -0.0527082197368145,
            0.06872018426656723,
            0.028459366410970688,
            0.01640850119292736,
            0.18140891194343567,
            0.01087133027613163,
            -0.07807762920856476,
            -0.023006504401564598,
            0.2076568454504013,
            0.048712898045778275,
            0.23529906570911407,
            0.18044587969779968,
            0.0561719611287117,
            -0.06995388120412827,
            -0.13015154004096985,
            -0.12445510178804398,
            0.13162469863891602,
            0.07736083120107651,
            0.04478026181459427,
            -0.08924461156129837,
            -0.00013888011744711548,
            -0.34447482228279114,
            -0.4298820197582245,
            -0.3346995711326599,
            -0.16104845702648163,
            0.06154200807213783,
            0.007488389033824205,
            -0.06221519410610199,
            0.07557881623506546,
            -0.07151790708303452,
            -0.00658982852473855,
            0.13915874063968658,
            0.2549382150173187,
            0.052134815603494644,
            -0.035382937639951706,
            0.0031974611338227987,
            0.19870416820049286,
            0.13902072608470917,
            0.18369972705841064,
            0.21107886731624603,
            -0.04446524754166603,
            -0.054388098418712616,
            -0.007901311852037907,
            0.08012831956148148,
            -0.049186281859874725,
            -0.002617746824398637,
            -0.0029573398642241955,
            -0.10673025995492935,
            -0.03551972657442093,
            -0.14851559698581696,
            -0.18549056351184845,
            0.046866822987794876,
            0.08461894094944,
            0.12417139858007431,
            0.01270347274839878,
            0.056517452001571655,
            0.03609386458992958,
            0.04645700380206108,
            0.08431541919708252,
            -0.15262828767299652,
            -0.0020274969283491373,
            -0.014280177652835846,
            -0.028140535578131676,
            0.0925958976149559,
            -0.08949612826108932,
            0.10038603842258453,
            0.23013241589069366,
            0.3055213987827301,
            0.25938108563423157,
            -0.01338209304958582,
            0.1501011997461319,
            0.20148205757141113,
            0.01614995300769806,
            0.17252644896507263,
            0.10775133967399597,
            -0.3126741051673889,
            -0.11738591641187668,
            -0.1054382473230362,
            -0.16958293318748474,
            -0.4403362572193146,
            -0.027697402983903885,
            -0.037361789494752884,
            0.04899091646075249,
            -0.07761300355195999,
            0.09614328294992447,
            0.014238606207072735,
            -0.011838570237159729,
            0.005857433658093214,
            0.09923732280731201,
            0.019942954182624817,
            -0.01928882487118244,
            0.10088775306940079,
            0.16740202903747559,
            0.16580675542354584,
            0.08320686221122742,
            0.20207667350769043,
            -0.018540022894740105,
            -0.002272186568006873,
            0.0019206597935408354,
