{
  "layers": [
    {
      "type": "input",
      "nodes": 8,
      "values": [
        -0.7086590500625468,
        0.11043501942181633,
        -0.1658153692815682,
        0.2234720294671601,
        0.12185076669984043,
        -0.0360297543667028,
        -0.23549053855629248,
        0.06097471781170406
      ]
    },
    {
      "type": "hidden",
      "nodes": 32,
      "neurons": [
        {
          "weights": [
            0.009352751076221466,
            -0.08810611814260483,
            -0.06749576330184937,
            0.07390479743480682,
            -0.022428514435887337,
            -0.6064391732215881,
            -0.5330501198768616,
            -0.5036318898200989
          ],
          "bias": -0.02169419825077057,
          "activation": "relu"
        },
        {
          "weights": [
            0.10611607879400253,
            0.24492421746253967,
            -0.03830970823764801,
            -0.07609155774116516,
            -0.12003421038389206,
            -0.006537536159157753,
            -0.7042526006698608,
            0.19373784959316254
          ],
          "bias": -0.3985760807991028,
          "activation": "relu"
        },
        {
          "weights": [
            0.17514252662658691,
            0.08269665390253067,
            0.30772092938423157,
            -0.20425759255886078,
            0.062417611479759216,
            -0.21282507479190826,
            -0.5873567461967468,
            -0.49310994148254395
          ],
          "bias": 0.1338232010602951,
          "activation": "relu"
        },
        {
          "weights": [
            -0.03735905513167381,
            0.028148958459496498,
            0.10071492195129395,
            0.0008604814065620303,
            0.020595919340848923,
            0.13427357375621796,
            -0.303921639919281,
            -0.7082739472389221
          ],
          "bias": 0.5187784433364868,
          "activation": "relu"
        },
        {
          "weights": [
            0.09367361664772034,
            0.07292582839727402,
            -0.036507248878479004,
            0.10695891827344894,
            0.007596381939947605,
            0.06935029476881027,
            -1.2997320890426636,
            0.43634262681007385
          ],
          "bias": -0.24349482357501984,
          "activation": "relu"
        },
        {
          "weights": [
            -0.1447390913963318,
            0.03603215515613556,
            0.3351175785064697,
            -0.2541266083717346,
            0.1526821255683899,
            -0.04107537493109703,
            0.15862807631492615,
            -0.4544060230255127
          ],
          "bias": -0.19026461243629456,
          "activation": "relu"
        },
        {
          "weights": [
            0.11894884705543518,
            -0.32828712463378906,
            -0.3016352355480194,
            0.43905478715896606,
            -0.12108971178531647,
            -0.01700575090944767,
            0.337403267621994,
            0.1481112837791443
          ],
          "bias": -0.11499731242656708,
          "activation": "relu"
        },
        {
          "weights": [
            -0.1681310534477234,
            -0.13085266947746277,
            -0.01890532486140728,
            0.22691407799720764,
            -0.4946427047252655,
            0.08901119977235794,
            -0.06838387250900269,
            -0.36948591470718384
          ],
          "bias": -0.4047197997570038,
          "activation": "relu"
        },
        {
          "weights": [
            -0.06275969743728638,
            -0.03220526501536369,
            0.18444254994392395,
            -0.03872950002551079,
            -0.03600114583969116,
            -2.7376322746276855,
            0.032149359583854675,
            -0.035834819078445435
          ],
          "bias": -0.04883888363838196,
          "activation": "relu"
        },
        {
          "weights": [
            0.033681102097034454,
            -0.07143959403038025,
            0.032803378999233246,
            -0.11931407451629639,
            0.08356428891420364,
            -0.8102297782897949,
            0.6034008264541626,
            0.26954731345176697
          ],
          "bias": 0.16394758224487305,
          "activation": "relu"
        },
        {
          "weights": [
            0.2085401713848114,
            0.14568383991718292,
            -0.06187354028224945,
            0.08322163671255112,
            0.26563090085983276,
            -2.8977506160736084,
            0.0669117346405983,
            0.03463061526417732
          ],
          "bias": -0.04277608171105385,
          "activation": "relu"
        },
        {
          "weights": [
            0.26900190114974976,
            0.09090686589479446,
            0.03051980398595333,
            0.11212338507175446,
            0.06025393307209015,
            -2.5263936519622803,
            -0.1949750930070877,
            -0.1311858743429184
          ],
          "bias": -0.1866718828678131,
          "activation": "relu"
        },
        {
          "weights": [
            -0.13778206706047058,
            -0.5660957098007202,
            -0.31571605801582336,
            -0.002681718673557043,
            -0.35955047607421875,
            0.06854110211133957,
            0.04716463014483452,
            0.022827159613370895
          ],
          "bias": -0.20287254452705383,
          "activation": "relu"
        },
        {
          "weights": [
            0.3974810242652893,
            0.004643382038921118,
            -0.4702232778072357,
            0.39170148968696594,
            0.04445044323801994,
            0.09204330295324326,
            0.24590736627578735,
            0.23561705648899078
          ],
          "bias": 0.29944664239883423,
          "activation": "relu"
        },
        {
          "weights": [
            -0.3753167688846588,
            0.172657772898674,
            0.2143995463848114,
            -0.2977551817893982,
            0.1343585103750229,
            -1.2618677616119385,
            -0.4228556454181671,
            0.09214051067829132
          ],
          "bias": -0.06851261854171753,
          "activation": "relu"
        },
        {
          "weights": [
            0.17589309811592102,
            0.06318018585443497,
            0.21128737926483154,
            -0.19738027453422546,
            -0.0033718291670084,
            0.04430374130606651,
            0.988900899887085,
            -0.4928025007247925
          ],
          "bias": -0.7307282090187073,
          "activation": "relu"
        },
        {
          "weights": [
            0.25164565443992615,
            -0.09699708968400955,
            0.09109103679656982,
            -0.41272374987602234,
            0.07913921773433685,
            -0.0871393010020256,
            0.2302977591753006,
            0.6809626221656799
          ],
          "bias": 0.012395753525197506,
          "activation": "relu"
        },
        {
          "weights": [
            0.2753758430480957,
            0.034366343170404434,
            0.3908097445964813,
            0.016040146350860596,
            -0.04504150524735451,
            0.0520222932100296,
            -0.2752917408943176,
            0.13114935159683228
          ],
          "bias": 0.09008719027042389,
          "activation": "relu"
        },
        {
          "weights": [
            0.1571410894393921,
            -0.09728414565324783,
            0.4741773307323456,
            -0.37825167179107666,
            -0.17942269146442413,
            -1.3313732147216797,
            0.16001074016094208,
            0.13251405954360962
          ],
          "bias": 0.151071235537529,
          "activation": "relu"
        },
        {
          "weights": [
            0.2895320653915405,
            -0.3167971074581146,
            -0.05906481668353081,
            -0.19777175784111023,
            0.14920035004615784,
            -1.2753032445907593,
            -0.3711837828159332,
            0.014080274850130081
          ],
          "bias": -0.3199172914028168,
          "activation": "relu"
        },
        {
          "weights": [
            0.11537156999111176,
            0.12576626241207123,
            -0.302340567111969,
            0.22149501740932465,
            -0.07866834104061127,
            -3.238135814666748,
            -0.04733297973871231,
            0.1535571664571762
          ],
          "bias": -0.17653654515743256,
          "activation": "relu"
        },
        {
          "weights": [
            0.03703273460268974,
            0.35170480608940125,
            -0.2594577372074127,
            0.4481148421764374,
            -0.15635603666305542,
            0.1239917203783989,
            -0.4839273989200592,
            -0.4544779658317566
          ],
          "bias": 0.22905954718589783,
          "activation": "relu"
        },
        {
          "weights": [
            0.35703542828559875,
            0.03774078190326691,
            -0.35655418038368225,
            -0.05478458106517792,
            -0.06948845088481903,
            -2.0597782135009766,
            -0.40205103158950806,
            0.3012075126171112
          ],
          "bias": -0.0863703042268753,
          "activation": "relu"
        },
        {
          "weights": [
            0.28369590640068054,
            0.255729079246521,
            -0.018551230430603027,
            -0.010688026435673237,
            -0.1008339375257492,
            0.046426866203546524,
            -0.07868125289678574,
            -0.14361505210399628
          ],
          "bias": 0.2802300453186035,
          "activation": "relu"
        },
        {
          "weights": [
            0.7643068432807922,
            0.021671434864401817,
            0.4171830415725708,
            0.15640486776828766,
            -0.092119000852108,
            0.11599823087453842,
            0.4008285701274872,
            0.10630834847688675
          ],
          "bias": -0.026877310127019882,
          "activation": "relu"
        },
        {
          "weights": [
            0.2857557535171509,
            0.23472627997398376,
            -0.40483081340789795,
            -0.39963197708129883,
            -0.02060478739440441,
            -0.3247983455657959,
            -0.5522199869155884,
            -0.6018164157867432
          ],
          "bias": -0.05677220970392227,
          "activation": "relu"
        },
        {
          "weights": [
            0.05193757638335228,
            -0.31379926204681396,
            0.02448168769478798,
            -0.23894986510276794,
            -0.07282817363739014,
            -1.2522598505020142,
            -0.22393082082271576,
            -0.16018475592136383
          ],
          "bias": 0.23025278747081757,
          "activation": "relu"
        },
        {
          "weights": [
            0.06415080279111862,
            0.07184720784425735,
            -0.010228358209133148,
            0.029549654573202133,
            -0.0028826063498854637,
            -1.7860625982284546,
            -0.6835723519325256,
            -0.628631055355072
          ],
          "bias": -0.2642707824707031,
          "activation": "relu"
        },
        {
          "weights": [
            0.10915248095989227,
            0.16383863985538483,
            -0.1339099407196045,
            -0.5164222121238708,
            0.06004670634865761,
            -0.8843425512313843,
            0.5365723371505737,
            0.528972864151001
          ],
          "bias": 0.3025035858154297,
          "activation": "relu"
        },
        {
          "weights": [
            0.00626194104552269,
            0.18935805559158325,
            0.0716799721121788,
            0.5881972312927246,
            -0.11698733270168304,
            0.15420544147491455,
            0.3939329981803894,
            0.203294575214386
          ],
          "bias": 0.009710317477583885,
          "activation": "relu"
        },
        {
          "weights": [
            -0.37846046686172485,
            -0.06589726358652115,
            -0.09023851156234741,
            -0.3307812511920929,
            -0.16376367211341858,
            0.10517702251672745,
            1.0385042428970337,
            0.35212475061416626
          ],
          "bias": -0.08018428832292557,
          "activation": "relu"
        },
        {
          "weights": [
            0.2574129104614258,
            -0.02271748147904873,
            -0.35574284195899963,
            0.27272355556488037,
            0.02229003608226776,
            -0.01576407253742218,
            -0.7325113415718079,
            -0.5818539261817932
          ],
          "bias": 0.13116061687469482,
          "activation": "relu"
        }
      ]
    },
    {
      "type": "hidden",
      "nodes": 16,
      "neurons": [
        {
          "weights": [
            0.4363822340965271,
            -0.0037944098003208637,
            0.2646560072898865,
            0.08136695623397827,
            0.40179046988487244,
            0.2258864790201187,
            0.2793218195438385,
            0.05628202483057976,
            0.3841595947742462,
            -0.22699764370918274,
            0.32074907422065735,
            0.2604374289512634,
            -0.2556672692298889,
            -0.19527466595172882,
            -0.01877010427415371,
            -0.062242548912763596,
            -0.23396490514278412,
            0.3389205038547516,
            0.2811501920223236,
            0.2714281678199768,
            0.01397266797721386,
            0.3851131796836853,
            0.22054484486579895,
            0.24451614916324615,
            0.23327818512916565,
            0.25699853897094727,
            0.43386709690093994,
            -0.0333842970430851,
            0.12143707275390625,
            -0.10539130866527557,
            -0.2444441020488739,
            0.4638081192970276
          ],
          "bias": 0.19331419467926025,
          "activation": "relu"
        },
        {
          "weights": [
            -0.5216662883758545,
            -0.1495557278394699,
            0.03780180215835571,
            0.3903352618217468,
            0.07685744017362595,
            -0.3207370638847351,
            0.2688787281513214,
            0.36559635400772095,
            0.353516548871994,
            -0.04109372943639755,
            -0.3302249312400818,
            0.3933269679546356,
            0.11763693392276764,
            -0.22922146320343018,
            0.17534159123897552,
            0.04421566054224968,
            -0.26237162947654724,
            0.16184917092323303,
            -0.12594562768936157,
            0.8965009450912476,
            -0.3309146463871002,
            0.36781883239746094,
            -0.4273450970649719,
            -0.29140305519104004,
            0.08496823906898499,
            0.1809670627117157,
            -0.691810131072998,
            -0.3317849040031433,
            0.3867129683494568,
            0.305012583732605,
            0.009196007624268532,
            -0.9429870843887329
          ],
          "bias": -0.017421983182430267,
          "activation": "relu"
        },
        {
          "weights": [
            0.9803428053855896,
            0.3310631513595581,
            0.11116921156644821,
            -0.3949406147003174,
            -0.13726823031902313,
            -0.32454290986061096,
            0.020096061751246452,
            -0.24161918461322784,
            0.20084035396575928,
            -0.438793808221817,
            0.5352499485015869,
            0.3567622900009155,
            0.23040848970413208,
            0.012622655369341373,
            -0.24176537990570068,
            -0.00846816785633564,
            -0.20928126573562622,
            0.2541116774082184,
            0.26269105076789856,
            -0.008423502556979656,
            0.8674184679985046,
            -0.13684286177158356,
            -0.17358087003231049,
            -0.11892425268888474,
            0.20587068796157837,
            0.01677039824426174,
            -0.40268605947494507,
            0.931867778301239,
            -0.8628846406936646,
            0.27456942200660706,
            0.03087789937853813,
            0.05436175689101219
          ],
          "bias": -0.5793145895004272,
          "activation": "relu"
        },
        {
          "weights": [
            -0.04713721573352814,
            -0.4894188940525055,
            -0.3073667287826538,
            0.23547868430614471,
            -0.11910098046064377,
            -0.5387758016586304,
            -0.2223663330078125,
            -0.5473896861076355,
            0.8644925355911255,
            -0.12634052336215973,
            -0.2694907784461975,
            -0.395247220993042,
            0.2090121954679489,
            -0.18496771156787872,
            0.12857648730278015,
            -0.02033534273505211,
            -0.07396655529737473,
            -0.08713380247354507,
            0.01613652892410755,
            -0.24345384538173676,
            0.48801785707473755,
            0.27300435304641724,
            -0.03932425007224083,
            -0.04131730645895004,
            0.26217415928840637,
            -0.2991392910480499,
            -0.032490696758031845,
            0.479373037815094,
            -0.05943528935313225,
            -0.6319109797477722,
            -0.14950315654277802,
            -1.044231653213501
          ],
          "bias": 0.2933683693408966,
          "activation": "relu"
        },
        {
          "weights": [
            -0.1360374093055725,
            0.47633859515190125,
            -0.23156435787677765,
            -0.2073364108800888,
            0.5783184766769409,
            0.5702372789382935,
            0.36965838074684143,
            0.16716350615024567,
            0.24784795939922333,
            0.035264939069747925,
            0.0967474952340126,
            0.2331673800945282,
            -0.02648909203708172,
            -0.2680704891681671,
            0.3221527636051178,
            0.3233036696910858,
            0.12814931571483612,
            -0.07276122272014618,
            0.1291227638721466,
            0.02782350592315197,
            -0.1417025774717331,
            -0.14110705256462097,
            -0.004208588507026434,
            -0.16326145827770233,
            0.006910485215485096,
            0.012399835512042046,
            -0.06484191864728928,
            -0.07002077251672745,
            -0.3900308609008789,
            0.020445136353373528,
            0.17441298067569733,
            0.2748298645019531
          ],
          "bias": -0.4629453122615814,
          "activation": "relu"
        },
        {
          "weights": [
            0.3600304424762726,
            0.07892288267612457,
            0.4267995059490204,
            -0.10104627907276154,
            0.5140649080276489,
            0.13352441787719727,
            0.2912028133869171,
            0.17828910052776337,
            -0.13094761967658997,
            -0.08464416861534119,
            0.19573800265789032,
            0.25819262862205505,
            0.32349228858947754,
            0.13385482132434845,
            0.25746557116508484,
            0.31318095326423645,
            0.1354367882013321,
            0.11815239489078522,
            -0.14895989000797272,
            0.06854340434074402,
            0.006516852881759405,
            0.167741596698761,
            0.2952040135860443,
            0.004783868324011564,
            0.03736910969018936,
            0.3526376187801361,
            -0.06792236864566803,
            0.4805300533771515,
            -0.44311806559562683,
            0.029723282903432846,
            0.2776123285293579,
            0.21574494242668152
          ],
          "bias": 0.21325340867042542,
          "activation": "relu"
        },
        {
          "weights": [
            0.024030888453125954,
            0.40749475359916687,
            0.3210068941116333,
            0.4578438103199005,
            0.41202059388160706,
            0.1833675056695938,
            -0.5341578125953674,
            0.021319778636097908,
            -0.20058009028434753,
            -0.6461795568466187,
            0.32625776529312134,
            0.3595045208930969,
            0.11490808427333832,
            -0.372834175825119,
            0.08504894375801086,
            0.03100711666047573,
            0.2468450516462326,
            -0.03432805463671684,
            0.1962077021598816,
            -0.3937511146068573,
            0.3803296387195587,
            0.4625801146030426,
            0.3566826283931732,
            -0.34162235260009766,
            -0.3655371069908142,
            0.45533427596092224,
            0.3858296573162079,
            1.1153868436813354,
            -0.6707553267478943,
            -0.7852586507797241,
            -0.49200576543807983,
            -0.07742373645305634
          ],
          "bias": -0.01061228197067976,
          "activation": "relu"
        },
        {
          "weights": [
            -0.17277038097381592,
            -0.1885203868150711,
            -0.07467281073331833,
            -0.12043852359056473,
            0.472926527261734,
            0.07247457653284073,
            -0.16341698169708252,
            0.14877377450466156,
            -0.29280561208724976,
            -0.16196271777153015,
            -0.6184312701225281,
            -0.33559876680374146,
            -0.10843735188245773,
            -0.011704066768288612,
            -0.013806656002998352,
            0.4111936390399933,
            0.1183473989367485,
            0.2653200626373291,
            -0.34418120980262756,
            0.1925935298204422,
            -0.0017690195236355066,
            0.44607535004615784,
            0.2318820208311081,
            0.12987732887268066,
            -0.1624225676059723,
            -0.20882456004619598,
            -0.10435529798269272,
            -1.1187472343444824,
            0.4863629937171936,
            0.1101982593536377,
            0.23477815091609955,
            -0.34552133083343506
          ],
          "bias": -0.15042345225811005,
          "activation": "relu"
        },
        {
          "weights": [
            -0.5180696249008179,
            -0.08061821758747101,
            0.030015308409929276,
            -0.054051004350185394,
            0.09776537120342255,
            -0.3361782729625702,
            -0.09672575443983078,
            0.13686569035053253,
            -0.43516525626182556,
            0.204458549618721,
            -0.20812034606933594,
            0.07280465960502625,
            -0.10078612715005875,
            0.49733665585517883,
            -0.6954144835472107,
            0.2726621925830841,
            -0.4599434435367584,
            0.06975189596414566,
            0.579540491104126,
            0.13190864026546478,
            0.34322062134742737,
            -0.24256856739521027,
            0.4123227894306183,
            0.3274610638618469,
            -0.24006566405296326,
            0.4799919128417969,
            -0.3034898340702057,
            -1.3156559467315674,
            0.11831218004226685,
            -0.03167088329792023,
            -0.2594014108181,
            -0.07468026876449585
          ],
          "bias": -0.08140958845615387,
          "activation": "relu"
        },
        {
          "weights": [
            0.5156038403511047,
            -0.052429746836423874,
            0.5463666915893555,
            0.29683470726013184,
            0.1065191850066185,
            0.21505793929100037,
            -0.2379978746175766,
            -0.18277285993099213,
            0.540495753288269,
            0.2698360085487366,
            0.6342988014221191,
            0.41146230697631836,
            -0.4200470447540283,
            0.17616689205169678,
            -0.15601582825183868,
            0.3523273468017578,
            -0.4481087625026703,
            -0.0394025482237339,
            0.13418686389923096,
            -0.5149316787719727,
            0.3572674095630646,
            0.3034299314022064,
            -0.38151073455810547,
            0.2742137610912323,
            -0.23140032589435577,
            -0.1624891608953476,
            0.0028224438428878784,
            0.38497093319892883,
            -0.3703966736793518,
            -0.23049354553222656,
            0.4045862555503845,
            0.4767836332321167
          ],
          "bias": 0.2763434648513794,
          "activation": "relu"
        },
        {
          "weights": [
            0.3148330748081207,
            0.21436648070812225,
            0.5021041631698608,
            0.40662145614624023,
            -0.05233250558376312,
            -0.1615113765001297,
            -0.4763500988483429,
            0.12184450030326843,
            -0.770465612411499,
            -0.12152493000030518,
            0.2818983495235443,
            -0.4010125994682312,
            0.025022482499480247,
            -0.44007766246795654,
            3.782697604037821e-05,
            -0.8798419237136841,
            0.26800692081451416,
            -0.20410478115081787,
            0.15324687957763672,
            -0.13766634464263916,
            -0.406635582447052,
            0.43621036410331726,
            -0.20825272798538208,
            0.21680781245231628,
            -0.25086715817451477,
            0.5560783743858337,
            0.07722118496894836,
            0.7331043481826782,
            -0.6161221265792847,
            -0.5869532227516174,
            -0.7730326652526855,
            0.7006275653839111
          ],
          "bias": -0.08721929043531418,
          "activation": "relu"
        },
        {
          "weights": [
            0.3805893659591675,
            0.04752975329756737,
            -0.23289045691490173,
            -0.07930559664964676,
            -0.029685864225029945,
            -0.16573357582092285,
            -0.08663826435804367,
            -0.187859445810318,
            0.595617949962616,
            0.07638344168663025,
            -0.1523636281490326,
            0.19390137493610382,
            -0.18230457603931427,
            0.15167996287345886,
            0.42699915170669556,
            0.0027873085346072912,
            0.1546022593975067,
            0.30970993638038635,
            0.19525884091854095,
            0.018371544778347015,
            0.44560033082962036,
            -0.4247477948665619,
            0.31459614634513855,
            0.1805470734834671,
            0.4827618896961212,
            -0.6118478775024414,
            0.3252606689929962,
            -0.08731167763471603,
            0.28171899914741516,
            0.008415734395384789,
            0.3361775279045105,
            0.21885815262794495
          ],
          "bias": 0.23430579900741577,
          "activation": "relu"
        },
        {
          "weights": [
            -0.06865371763706207,
            0.07086548954248428,
            -0.11690166592597961,
            -0.8860371112823486,
            -0.2192186713218689,
            0.0954761803150177,
            0.18676473200321198,
            -0.4162026643753052,
            0.16566817462444305,
            0.6247460842132568,
            -0.2163492739200592,
            -0.3741918206214905,
            0.22389212250709534,
            -0.047280363738536835,
            0.24199755489826202,
            0.05298766493797302,
            0.3106997311115265,
            0.3425031304359436,
            0.0828528106212616,
            -0.30703362822532654,
            0.593429684638977,
            -0.22452624142169952,
            0.4147487282752991,
            -0.00933127012103796,
            -0.25239816308021545,
            0.24693283438682556,
            -0.045467719435691833,
            -1.6977347135543823,
            0.08930608630180359,
            0.0381658636033535,
            -1.3483754396438599,
            0.24662809073925018
          ],
          "bias": -0.20208440721035004,
          "activation": "relu"
        },
        {
          "weights": [
            -0.16435889899730682,
            0.55649334192276,
            -0.018570268526673317,
            -0.6357558965682983,
            0.5038287043571472,
            -0.26287293434143066,
            -0.12427462637424469,
            -1.0381133556365967,
            -0.6699294447898865,
            -0.11956580728292465,
            0.04092917963862419,
            -0.005685559939593077,
            0.39531800150871277,
            -0.22476059198379517,
            0.1433398425579071,
            -0.04064321890473366,
            -0.05540281534194946,
            0.18485620617866516,
            -0.14953014254570007,
            0.257924348115921,
            0.023197604343295097,
            0.18024908006191254,
            0.3140714168548584,
            -0.17394821345806122,
            -0.14391528069972992,
            -0.3692551255226135,
            -0.21941262483596802,
            -1.1073691844940186,
            -0.35300204157829285,
            -0.7003151178359985,
            -1.0267071723937988,
            0.11984222382307053
          ],
          "bias": -0.27632296085357666,
          "activation": "relu"
        },
        {
          "weights": [
            0.19993750751018524,
            0.08075655251741409,
            -0.15412059426307678,
            0.18257947266101837,
            0.35757407546043396,
            0.5040121078491211,
            -0.16228824853897095,
            -0.21420085430145264,
            0.061895497143268585,
            0.3024815022945404,
            0.557319700717926,
            -0.23810647428035736,
            0.035619307309389114,
            0.08388472348451614,
            0.2636914849281311,
            -0.05836022272706032,
            -0.7152048349380493,
            -0.4418424367904663,
            -0.4710453450679779,
            -0.0509592704474926,
            0.12261511385440826,
            -0.1837896853685379,
            0.10910417139530182,
            0.10001348704099655,
            0.17183108627796173,
            -0.21078364551067352,
            0.21186868846416473,
            -1.3656742572784424,
            -0.12069812417030334,
            0.18603190779685974,
            0.40057769417762756,
            -0.2746018171310425
          ],
          "bias": -0.206131711602211,
          "activation": "relu"
        },
        {
          "weights": [
            0.10051699727773666,
            0.08820334821939468,
            -0.052254170179367065,
            -0.46583613753318787,
            -0.5179657340049744,
            -0.3551895022392273,
            -0.25622498989105225,
            -1.0124355554580688,
            0.6461467146873474,
            -0.12509500980377197,
            0.5436307787895203,
            0.13883444666862488,
            0.40039801597595215,
            -0.4372541308403015,
            0.43143174052238464,
            0.41464555263519287,
            -0.0844184085726738,
            -0.10553645342588425,
            0.493976891040802,
            0.17272600531578064,
            1.1835416555404663,
            0.017027951776981354,
            0.7124024033546448,
            -0.440711110830307,
            0.30224889516830444,
            0.12887898087501526,
            -0.2662210762500763,
            0.8663078546524048,
            -0.21450357139110565,
            -0.17866677045822144,
            -0.4770298898220062,
            0.0028493544086813927
          ],
          "bias": -0.5770850777626038,
          "activation": "relu"
        }
      ]
    },
    {
      "type": "output",
      "nodes": 1,
      "neurons": [
        {
          "weights": [
            0.5444415211677551,
            -0.19545303285121918,
            -0.7472543120384216,
            -0.9078847169876099,
            -0.5329392552375793,
            0.478862464427948,
            1.0585094690322876,
            -0.5430958271026611,
            -0.5196055769920349,
            0.6878644227981567,
            -1.3668010234832764,
            0.4654906392097473,
            -0.9005638360977173,
            -0.9591984152793884,
            -0.6649870276451111,
            -1.1610386371612549
          ],
          "bias": 0.21994291245937347,
          "activation": "linear"
        }
      ]
    }
  ]
}