{
  "layers": [
    {
      "type": "input",
      "nodes": 8,
      "values": [
        -0.6494824659724308,
        0.4259361081350742,
        0.13743186715117123,
        -0.09505122201110544,
        -0.10197210084999006,
        0.04709579862656363,
        0.9776384319087613,
        -0.8237131974596306
      ]
    },
    {
      "type": "hidden",
      "nodes": 128,
      "neurons": [
        {
          "weights": [
            0.1235162764787674,
            -0.024346664547920227,
            -0.10047659277915955,
            -0.1271725594997406,
            0.005165779497474432,
            0.0016644319985061884,
            0.04186754301190376,
            -0.25593680143356323
          ],
          "bias": 0.16767162084579468,
          "activation": "relu"
        },
        {
          "weights": [
            -0.07322604209184647,
            0.22821462154388428,
            0.0722496435046196,
            0.15173974633216858,
            -0.03437667712569237,
            -0.04095945879817009,
            0.07015752792358398,
            -0.2292322963476181
          ],
          "bias": 0.028715094551444054,
          "activation": "relu"
        },
        {
          "weights": [
            -0.07632401585578918,
            0.20932486653327942,
            0.055268727242946625,
            0.04183969274163246,
            0.0434732548892498,
            0.13201530277729034,
            0.1364913284778595,
            0.01399422436952591
          ],
          "bias": -0.0015010159695520997,
          "activation": "relu"
        },
        {
          "weights": [
            -0.020470187067985535,
            0.11717931181192398,
            0.15950942039489746,
            -0.27585315704345703,
            -0.04938259348273277,
            -0.2084151953458786,
            0.17431874573230743,
            -0.0023113808128982782
          ],
          "bias": -0.05034669116139412,
          "activation": "relu"
        },
        {
          "weights": [
            -0.11518239974975586,
            -0.05364670604467392,
            -0.006016300991177559,
            -0.1537814438343048,
            -0.0792260691523552,
            0.17806200683116913,
            0.13562840223312378,
            -0.10211244970560074
          ],
          "bias": -0.03499278053641319,
          "activation": "relu"
        },
        {
          "weights": [
            -0.21485069394111633,
            -0.10504573583602905,
            -0.035116035491228104,
            0.006029326003044844,
            -0.16250336170196533,
            0.20404189825057983,
            0.20822560787200928,
            -0.10826963186264038
          ],
          "bias": 0.12087130546569824,
          "activation": "relu"
        },
        {
          "weights": [
            -0.2860657274723053,
            -0.1167764812707901,
            -0.1413196176290512,
            0.10379678755998611,
            0.02627497725188732,
            -0.021228767931461334,
            0.08611197769641876,
            -0.050036098808050156
          ],
          "bias": -0.10741208493709564,
          "activation": "relu"
        },
        {
          "weights": [
            0.017169279977679253,
            0.11911146342754364,
            -0.2591516971588135,
            -0.09496043622493744,
            -0.011647477746009827,
            -0.5275039672851562,
            0.0893620103597641,
            0.034670379012823105
          ],
          "bias": -0.04328509420156479,
          "activation": "relu"
        },
        {
          "weights": [
            -0.07181825488805771,
            -0.18667802214622498,
            0.10284873098134995,
            -0.08107810467481613,
            -0.009615397080779076,
            -0.04754821956157684,
            -0.11976566910743713,
            -0.22135260701179504
          ],
          "bias": 0.0394875705242157,
          "activation": "relu"
        },
        {
          "weights": [
            0.022916357964277267,
            -0.09958004206418991,
            0.14256055653095245,
            -0.16626672446727753,
            -0.10499562323093414,
            0.4883786737918854,
            0.14118310809135437,
            0.1732424944639206
          ],
          "bias": 0.05391555279493332,
          "activation": "relu"
        },
        {
          "weights": [
            0.1533925086259842,
            0.032797519117593765,
            -0.10034402459859848,
            0.17497745156288147,
            0.028478030115365982,
            0.5074707269668579,
            0.14414067566394806,
            0.14157341420650482
          ],
          "bias": 0.06527867913246155,
          "activation": "relu"
        },
        {
          "weights": [
            0.011647568084299564,
            0.0774649828672409,
            0.09585751593112946,
            0.1919591873884201,
            -0.0836431160569191,
            -0.40722760558128357,
            0.09464327991008759,
            -0.0513337142765522
          ],
          "bias": -0.00857455562800169,
          "activation": "relu"
        },
        {
          "weights": [
            -0.03180532902479172,
            0.03223772719502449,
            -0.0744679719209671,
            0.05655666068196297,
            -0.11085107922554016,
            0.555086612701416,
            0.11886708438396454,
            0.12590232491493225
          ],
          "bias": 0.02719012275338173,
          "activation": "relu"
        },
        {
          "weights": [
            0.10101887583732605,
            -0.047456104308366776,
            -0.049384068697690964,
            -0.044845402240753174,
            -0.10300877690315247,
            -0.23832765221595764,
            0.13823606073856354,
            -0.19484886527061462
          ],
          "bias": 0.05324477702379227,
          "activation": "relu"
        },
        {
          "weights": [
            0.1540132611989975,
            0.10299748927354813,
            -0.09500167518854141,
            0.19406117498874664,
            0.17927886545658112,
            -0.10192134231328964,
            0.05518116056919098,
            -0.16929508745670319
          ],
          "bias": 0.07243367284536362,
          "activation": "relu"
        },
        {
          "weights": [
            -0.1701749861240387,
            -0.2080269753932953,
            -0.0498715303838253,
            0.028790239244699478,
            -0.0031314678490161896,
            -0.009496546350419521,
            0.19790087640285492,
            0.00887205544859171
          ],
          "bias": 0.1739729940891266,
          "activation": "relu"
        },
        {
          "weights": [
            0.11795060336589813,
            0.06419645994901657,
            -0.1758316159248352,
            -0.30250874161720276,
            -0.10855204612016678,
            -0.015882793813943863,
            -0.2782108783721924,
            0.06476611644029617
          ],
          "bias": 0.14747506380081177,
          "activation": "relu"
        },
        {
          "weights": [
            -0.09204839915037155,
            -0.3061247169971466,
            0.08106312900781631,
            0.039133470505476,
            0.177270770072937,
            -0.016383862122893333,
            -0.08189910650253296,
            0.22842012345790863
          ],
          "bias": -0.01682460308074951,
          "activation": "relu"
        },
        {
          "weights": [
            -0.1190551370382309,
            -0.042971864342689514,
            -0.17098024487495422,
            -0.15509967505931854,
            -0.02440071292221546,
            0.0008496154332533479,
            -0.23611697554588318,
            -0.028754593804478645
          ],
          "bias": 0.2109251618385315,
          "activation": "relu"
        },
        {
          "weights": [
            0.027154309675097466,
            -0.05255331099033356,
            -0.11767204850912094,
            0.1557084023952484,
            -0.10080242902040482,
            -0.07803468406200409,
            0.24701674282550812,
            -0.21077679097652435
          ],
          "bias": -0.11602626740932465,
          "activation": "relu"
        },
        {
          "weights": [
            0.07701908051967621,
            -0.09111663699150085,
            0.1580861210823059,
            -0.18146614730358124,
            -0.04923868551850319,
            -0.04589558765292168,
            0.17531991004943848,
            0.09010573476552963
          ],
          "bias": 0.03292570635676384,
          "activation": "relu"
        },
        {
          "weights": [
            0.030075903981924057,
            0.12138880044221878,
            -0.0014852123567834496,
            -0.025255650281906128,
            0.010636822320520878,
            -0.37762102484703064,
            -0.16486696898937225,
            0.22070908546447754
          ],
          "bias": 0.05792795866727829,
          "activation": "relu"
        },
        {
          "weights": [
            0.10871002078056335,
            -0.30213236808776855,
            0.12790139019489288,
            -0.09547372907400131,
            0.10936257988214493,
            0.034023918211460114,
            0.09212835878133774,
            -0.16096848249435425
          ],
          "bias": -0.08488666266202927,
          "activation": "relu"
        },
        {
          "weights": [
            0.011109317652881145,
            -0.005345465615391731,
            -0.02758258581161499,
            0.01723691076040268,
            -0.007654527202248573,
            -0.018092947080731392,
            0.2777723968029022,
            0.21187178790569305
          ],
          "bias": 0.035318952053785324,
          "activation": "relu"
        },
        {
          "weights": [
            0.16877593100070953,
            0.2744104266166687,
            0.13916321098804474,
            0.0703086331486702,
            -0.011069434694945812,
            -0.08289379626512527,
            -0.004509206395596266,
            -0.12367045134305954
          ],
          "bias": -0.0583391897380352,
          "activation": "relu"
        },
        {
          "weights": [
            0.20844052731990814,
            0.045338258147239685,
            -0.028314879164099693,
            -0.30291423201560974,
            -0.04110993072390556,
            0.2858099043369293,
            0.14635437726974487,
            0.159217968583107
          ],
          "bias": 0.018416685983538628,
          "activation": "relu"
        },
        {
          "weights": [
            0.18337412178516388,
            -0.05977373197674751,
            -0.21736283600330353,
            -0.10144566744565964,
            -0.11947641521692276,
            0.2578508257865906,
            -0.1753203272819519,
            -0.09194748848676682
          ],
          "bias": 0.052933260798454285,
          "activation": "relu"
        },
        {
          "weights": [
            0.18682053685188293,
            0.12679006159305573,
            0.11883077770471573,
            -0.13445891439914703,
            -0.185795858502388,
            0.09703731536865234,
            -0.025952111929655075,
            0.03829379752278328
          ],
          "bias": -0.03388993814587593,
          "activation": "relu"
        },
        {
          "weights": [
            0.0441911406815052,
            -0.043021928519010544,
            -0.2787942886352539,
            0.0687759593129158,
            -0.02804386056959629,
            -0.4679288864135742,
            -0.03475393354892731,
            -0.0916135236620903
          ],
          "bias": -0.061778292059898376,
          "activation": "relu"
        },
        {
          "weights": [
            -0.0906468853354454,
            -0.003467800095677376,
            -0.1056004986166954,
            -0.10082314163446426,
            0.017335250973701477,
            0.03487318381667137,
            0.12060406804084778,
            0.3269944190979004
          ],
          "bias": 0.02227778173983097,
          "activation": "relu"
        },
        {
          "weights": [
            -0.14000865817070007,
            0.0445752888917923,
            -0.07490819692611694,
            -0.07116831839084625,
            -0.18633660674095154,
            0.009314817376434803,
            -0.20866715908050537,
            -0.010149287059903145
          ],
          "bias": 0.061204198747873306,
          "activation": "relu"
        },
        {
          "weights": [
            0.21160948276519775,
            -0.03887840732932091,
            -0.13525639474391937,
            0.21344512701034546,
            -0.020435720682144165,
            -0.19907523691654205,
            -0.14551840722560883,
            0.1631806194782257
          ],
          "bias": -0.12816204130649567,
          "activation": "relu"
        },
        {
          "weights": [
            0.248886838555336,
            0.10564236342906952,
            0.06916671991348267,
            0.021961422637104988,
            -0.10360845923423767,
            0.06098461523652077,
            0.04167836904525757,
            -0.14890317618846893
          ],
          "bias": -0.010101702064275742,
          "activation": "relu"
        },
        {
          "weights": [
            0.0032330185640603304,
            0.0025547838304191828,
            0.07564425468444824,
            -0.056317951530218124,
            -0.012589415535330772,
            -0.918992280960083,
            -0.2073928266763687,
            -0.1854708343744278
          ],
          "bias": -0.047291722148656845,
          "activation": "relu"
        },
        {
          "weights": [
            0.02408994361758232,
            0.04769188538193703,
            -0.14892050623893738,
            0.11073867231607437,
            0.04132545366883278,
            0.09951317310333252,
            -0.17142872512340546,
            -0.1913008689880371
          ],
          "bias": -0.12395650893449783,
          "activation": "relu"
        },
        {
          "weights": [
            -0.020012622699141502,
            -0.09413382411003113,
            -0.14087726175785065,
            -0.3068501055240631,
            0.0987725779414177,
            -0.03101637400686741,
            -0.2278357893228531,
            -0.13131146132946014
          ],
          "bias": 0.1014387458562851,
          "activation": "relu"
        },
        {
          "weights": [
            -0.07171473652124405,
            0.08214489370584488,
            0.10131128877401352,
            -0.09938575327396393,
            -0.14557015895843506,
            0.04752878099679947,
            0.047771818935871124,
            -0.0728817731142044
          ],
          "bias": -0.07817170023918152,
          "activation": "relu"
        },
        {
          "weights": [
            -0.09345745295286179,
            0.010654287412762642,
            -0.014926501549780369,
            -0.017312202602624893,
            0.04639479145407677,
            0.0076055037789046764,
            0.14865408837795258,
            0.3261496126651764
          ],
          "bias": -0.06431249529123306,
          "activation": "relu"
        },
        {
          "weights": [
            0.04523491859436035,
            -0.3214689791202545,
            0.13320185244083405,
            0.02233424223959446,
            -0.13411976397037506,
            0.0649387538433075,
            -0.04003721475601196,
            -0.1627580225467682
          ],
          "bias": -0.0012418634723871946,
          "activation": "relu"
        },
        {
          "weights": [
            0.030993040651082993,
            0.1263585090637207,
            0.10552243143320084,
            -0.045609548687934875,
            0.08856330811977386,
            -0.31762275099754333,
            -0.3922758102416992,
            0.20383581519126892
          ],
          "bias": -0.02707367017865181,
          "activation": "relu"
        },
        {
          "weights": [
            0.044730909168720245,
            0.07008099555969238,
            0.03626038879156113,
            -0.041513629257678986,
            0.0188765786588192,
            0.08601188659667969,
            -0.1974274218082428,
            -0.22299492359161377
          ],
          "bias": -0.12625479698181152,
          "activation": "relu"
        },
        {
          "weights": [
            0.06814266741275787,
            0.11015141010284424,
            0.024872031062841415,
            0.003009845968335867,
            0.07240097969770432,
            0.8082990050315857,
            -0.1393921822309494,
            -0.10636252909898758
          ],
          "bias": 0.0702807605266571,
          "activation": "relu"
        },
        {
          "weights": [
            -0.1031915470957756,
            -0.08296916633844376,
            0.10909700393676758,
            0.01674407161772251,
            -0.03463132679462433,
            0.18510007858276367,
            0.0724109634757042,
            -0.1388167142868042
          ],
          "bias": -0.019811127334833145,
          "activation": "relu"
        },
        {
          "weights": [
            -0.10413774847984314,
            0.005074535962194204,
            0.15877529978752136,
            -0.028547951951622963,
            -0.2003176212310791,
            0.17484590411186218,
            0.0733383297920227,
            -0.07658521831035614
          ],
          "bias": -0.09209775179624557,
          "activation": "relu"
        },
        {
          "weights": [
            0.07281959801912308,
            0.018488595262169838,
            -0.026014573872089386,
            0.07487136125564575,
            -0.15797267854213715,
            -0.014485279098153114,
            0.08898504823446274,
            -0.2576669156551361
          ],
          "bias": 0.053286995738744736,
          "activation": "relu"
        },
        {
          "weights": [
            -0.04793459549546242,
            0.05571860447525978,
            -0.04243628308176994,
            -0.02652115561068058,
            -0.050675198435783386,
            0.22379650175571442,
            0.2614777982234955,
            0.03533030301332474
          ],
          "bias": -0.12018850445747375,
          "activation": "relu"
        },
        {
          "weights": [
            -0.13255563378334045,
            0.05561354011297226,
            -0.024286678060889244,
            -0.21754948794841766,
            -0.1322171539068222,
            0.04828798770904541,
            -0.075715072453022,
            -0.16562704741954803
          ],
          "bias": 0.05100809410214424,
          "activation": "relu"
        },
        {
          "weights": [
            -0.12958604097366333,
            -0.08746834099292755,
            0.13247448205947876,
            -0.22215381264686584,
            -0.05988543853163719,
            0.10371384769678116,
            -0.005286404862999916,
            0.03603169322013855
          ],
          "bias": -0.0848737582564354,
          "activation": "relu"
        },
        {
          "weights": [
            0.1040516123175621,
            0.17191453278064728,
            -0.0713510513305664,
            -0.17401409149169922,
            -0.07101176679134369,
            -0.020520197227597237,
            0.13994170725345612,
            -0.10846997797489166
          ],
          "bias": 0.07557288557291031,
          "activation": "relu"
        },
        {
          "weights": [
            -0.11823602765798569,
            -0.08397264033555984,
            -0.1858583241701126,
            0.000543291971553117,
            -0.018971258774399757,
            -0.3820996880531311,
            -0.23410481214523315,
            -0.09827368706464767
          ],
          "bias": -0.023276295512914658,
          "activation": "relu"
        },
        {
          "weights": [
            -0.025095494464039803,
            -0.07037018984556198,
            -0.03051852062344551,
            -0.05165053531527519,
            0.004227387718856335,
            -0.28343597054481506,
            0.20664483308792114,
            -0.33124375343322754
          ],
          "bias": -0.1458577960729599,
          "activation": "relu"
        },
        {
          "weights": [
            -0.21845124661922455,
            0.07734845578670502,
            0.23909123241901398,
            0.062127720564603806,
            0.05491005629301071,
            -0.041381265968084335,
            0.02658724971115589,
            0.06966295838356018
          ],
          "bias": -0.09497588872909546,
          "activation": "relu"
        },
        {
          "weights": [
            -0.039175763726234436,
            -0.00046611513243988156,
            -0.016941094771027565,
            -0.12703536450862885,
            0.006366637535393238,
            0.33908939361572266,
            -0.21706849336624146,
            -0.13216809928417206
          ],
          "bias": -0.003076458116993308,
          "activation": "relu"
        },
        {
          "weights": [
            0.0974804013967514,
            -0.03251580521464348,
            0.20373734831809998,
            -0.17247417569160461,
            -0.11149051040410995,
            0.03762520104646683,
            -0.17619705200195312,
            0.06942370533943176
          ],
          "bias": 0.10667145252227783,
          "activation": "relu"
        },
        {
          "weights": [
            -0.03608265891671181,
            0.11007831245660782,
            -0.11206800490617752,
            -0.16955307126045227,
            0.18097440898418427,
            0.5425496101379395,
            -0.09357651323080063,
            -0.012561686336994171
          ],
          "bias": -0.00941638182848692,
          "activation": "relu"
        },
        {
          "weights": [
            0.28778719902038574,
            0.11184424161911011,
            -0.04776737093925476,
            0.1143469512462616,
            0.008589287288486958,
            0.32568109035491943,
            -0.08891722559928894,
            0.101821169257164
          ],
          "bias": -0.0015262884553521872,
          "activation": "relu"
        },
        {
          "weights": [
            0.016712771728634834,
            -0.094907246530056,
            -0.18740175664424896,
            -0.203684464097023,
            0.09256871789693832,
            0.2745615839958191,
            -0.1035044714808464,
            0.14124654233455658
          ],
          "bias": 0.026083851233124733,
          "activation": "relu"
        },
        {
          "weights": [
            0.09539229422807693,
            0.110837422311306,
            -0.20164422690868378,
            -0.19050630927085876,
            0.12785261869430542,
            0.2559458017349243,
            0.18531347811222076,
            -0.03082977794110775
          ],
          "bias": -0.14924126863479614,
          "activation": "relu"
        },
        {
          "weights": [
            -0.08963368833065033,
            -0.07822269946336746,
            0.09476716071367264,
            0.1815289855003357,
            -0.13732367753982544,
            0.07736627012491226,
            -0.10293127596378326,
            0.17372921109199524
          ],
          "bias": 0.03099852241575718,
          "activation": "relu"
        },
        {
          "weights": [
            -0.0921550989151001,
            0.04543287307024002,
            -0.05007900670170784,
            -0.06343872845172882,
            0.028030212968587875,
            0.2501349449157715,
            -0.2197786271572113,
            -0.065140500664711
          ],
          "bias": -0.033857740461826324,
          "activation": "relu"
        },
        {
          "weights": [
            -0.08973384648561478,
            -0.07556971907615662,
            -0.05689089000225067,
            0.009311976842582226,
            -0.05843610316514969,
            0.26169824600219727,
            -0.20708537101745605,
            0.2201698273420334
          ],
          "bias": -0.010535363107919693,
          "activation": "relu"
        },
        {
          "weights": [
            0.008440682664513588,
            0.0015412252396345139,
            -0.053621429949998856,
            -0.014193044044077396,
            -0.010930122807621956,
            -0.008396291173994541,
            -0.02354227751493454,
            0.23951216042041779
          ],
          "bias": -0.18457671999931335,
          "activation": "relu"
        },
        {
          "weights": [
            0.113800548017025,
            -0.010837910696864128,
            -0.16976985335350037,
            0.10748535394668579,
            0.14262962341308594,
            -0.6070684194564819,
            -0.07513907551765442,
            -0.07949318736791611
          ],
          "bias": 0.019668282940983772,
          "activation": "relu"
        },
        {
          "weights": [
            0.01782536320388317,
            -0.08590083569288254,
            -0.005037340801209211,
            -0.007271607406437397,
            0.026758892461657524,
            -0.5699761509895325,
            -0.24482467770576477,
            -0.03460872918367386
          ],
          "bias": -0.061490248888731,
          "activation": "relu"
        },
        {
          "weights": [
            -0.03496180847287178,
            -0.03672920539975166,
            -0.12245728820562363,
            0.022805441170930862,
            0.02232258766889572,
            -0.5171214938163757,
            0.20883166790008545,
            -0.014215364120900631
          ],
          "bias": -0.03480904549360275,
          "activation": "relu"
        },
        {
          "weights": [
            0.17078199982643127,
            -0.09252925962209702,
            -0.16367116570472717,
            0.19664306938648224,
            0.19919000566005707,
            0.23256821930408478,
            -0.1603793352842331,
            -0.04886386916041374
          ],
          "bias": -0.07642117142677307,
          "activation": "relu"
        },
        {
          "weights": [
            -0.21347513794898987,
            0.22589604556560516,
            -0.10596975684165955,
            0.133209228515625,
            -0.015157558023929596,
            0.15756073594093323,
            0.11636058986186981,
            -0.17772914469242096
          ],
          "bias": 0.088258758187294,
          "activation": "relu"
        },
        {
          "weights": [
            -0.09857175499200821,
            -0.012450303882360458,
            0.0326283760368824,
            -0.14443829655647278,
            0.0051364838145673275,
            0.6249824166297913,
            0.10768662393093109,
            0.07226165384054184
          ],
          "bias": 0.2115040272474289,
          "activation": "relu"
        },
        {
          "weights": [
            -0.1033794954419136,
            -0.010371656157076359,
            0.09958836436271667,
            0.05743732675909996,
            0.1784738302230835,
            -0.02496708370745182,
            -0.12996795773506165,
            0.2755716145038605
          ],
          "bias": -0.06732623279094696,
          "activation": "relu"
        },
        {
          "weights": [
            -0.11916422098875046,
            -0.06194567680358887,
            -0.10131237655878067,
            -0.2771880626678467,
            0.05351956933736801,
            0.05067286267876625,
            -0.25075891613960266,
            -0.017957312986254692
          ],
          "bias": 0.1572353094816208,
          "activation": "relu"
        },
        {
          "weights": [
            0.10875145345926285,
            0.13657693564891815,
            -0.10571298748254776,
            0.10522528737783432,
            0.20077146589756012,
            0.12812203168869019,
            0.1989089399576187,
            -0.05867508053779602
          ],
          "bias": -0.05327565595507622,
          "activation": "relu"
        },
        {
          "weights": [
            0.026586560532450676,
            0.08606307953596115,
            -0.10948041826486588,
            0.0323193185031414,
            0.17173612117767334,
            -0.6404848098754883,
            -0.04277283325791359,
            0.07216794788837433
          ],
          "bias": -0.037297721952199936,
          "activation": "relu"
        },
        {
          "weights": [
            -0.20875343680381775,
            0.21783116459846497,
            0.07712092250585556,
            -0.27067244052886963,
            -0.12988287210464478,
            0.04342632740736008,
            -0.07241751253604889,
            0.04725164547562599
          ],
          "bias": -0.08327127993106842,
          "activation": "relu"
        },
        {
          "weights": [
            0.08713225275278091,
            0.011255512945353985,
            -0.06211400777101517,
            -0.10250912606716156,
            0.0377463772892952,
            0.1300596445798874,
            -0.2820683419704437,
            0.24936626851558685
          ],
          "bias": 0.022317180410027504,
          "activation": "relu"
        },
        {
          "weights": [
            -0.07620503753423691,
            -0.0042407759465277195,
            0.11057387292385101,
            -0.08416534960269928,
            0.0035865625832229853,
            -0.5341742634773254,
            0.12606558203697205,
            -0.11804140359163284
          ],
          "bias": -0.0525595098733902,
          "activation": "relu"
        },
        {
          "weights": [
            -0.2707931101322174,
            0.1268082559108734,
            0.009663885459303856,
            0.15778683125972748,
            0.047123849391937256,
            0.04940618574619293,
            0.13768760859966278,
            -0.09916072338819504
          ],
          "bias": 0.11012717336416245,
          "activation": "relu"
        },
        {
          "weights": [
            -0.03768262267112732,
            0.015066172927618027,
            -0.13504281640052795,
            0.14811359345912933,
            -0.07730459421873093,
            0.06867741793394089,
            -0.14356502890586853,
            0.1286572813987732
          ],
          "bias": -0.0318891666829586,
          "activation": "relu"
        },
        {
          "weights": [
            -0.0364832878112793,
            0.06567779183387756,
            0.0265091173350811,
            -0.0891658142209053,
            -0.26018399000167847,
            -0.6058061718940735,
            -0.06956828385591507,
            0.03473387658596039
          ],
          "bias": -0.036445800215005875,
          "activation": "relu"
        },
        {
          "weights": [
            -0.07784086465835571,
            -0.06291621178388596,
            -0.040508933365345,
            0.12394145876169205,
            0.18987539410591125,
            0.03654542565345764,
            -0.3215218484401703,
            -0.18907208740711212
          ],
          "bias": 0.08440691977739334,
          "activation": "relu"
        },
        {
          "weights": [
            0.0250296201556921,
            -0.043643344193696976,
            -0.15035848319530487,
            -0.03738588094711304,
            -0.08762946724891663,
            -0.2877069413661957,
            -0.2973993718624115,
            0.233896866440773
          ],
          "bias": 0.014557912014424801,
          "activation": "relu"
        },
        {
          "weights": [
            0.16875743865966797,
            -0.00399009371176362,
            -0.13092997670173645,
            0.15932168066501617,
            0.01918638125061989,
            -0.08951762318611145,
            0.20112834870815277,
            -0.20207653939723969
          ],
          "bias": -0.12874290347099304,
          "activation": "relu"
        },
        {
          "weights": [
            -0.20925351977348328,
            -0.2580922245979309,
            0.09855950623750687,
            0.026575716212391853,
            -0.13603533804416656,
            -0.022899989038705826,
            0.13134075701236725,
            0.021627061069011688
          ],
          "bias": -0.044556889683008194,
          "activation": "relu"
        },
        {
          "weights": [
            0.08245013654232025,
            -0.05005969852209091,
            -0.11030973494052887,
            -0.10802945494651794,
            0.013303620740771294,
            -0.031056862324476242,
            0.08493493497371674,
            -0.3502247631549835
          ],
          "bias": -0.16507484018802643,
          "activation": "relu"
        },
        {
          "weights": [
            -0.09224501997232437,
            0.16648215055465698,
            0.1056538000702858,
            -0.016045913100242615,
            -0.0693519115447998,
            -0.06504356861114502,
            -0.2262011021375656,
            0.16745871305465698
          ],
          "bias": -0.07526248693466187,
          "activation": "relu"
        },
        {
          "weights": [
            0.06954880803823471,
            0.042290665209293365,
            -0.08070915937423706,
            -0.06314865499734879,
            0.016116444021463394,
            -0.20039981603622437,
            -0.4763663411140442,
            0.1033429279923439
          ],
          "bias": -0.09414093941450119,
          "activation": "relu"
        },
        {
          "weights": [
            0.09458660334348679,
            -0.0025302909780293703,
            -0.14521926641464233,
            -0.22502166032791138,
            -0.06473133713006973,
            -0.5805226564407349,
            -0.09894773364067078,
            0.14600799977779388
          ],
          "bias": -0.0452069528400898,
          "activation": "relu"
        },
        {
          "weights": [
            -0.024520501494407654,
            -0.006177153903990984,
            0.14138418436050415,
            -0.14784103631973267,
            0.06128718703985214,
            -0.07974443584680557,
            0.14578716456890106,
            -0.22847162187099457
          ],
          "bias": -0.155796617269516,
          "activation": "relu"
        },
        {
          "weights": [
            -0.06409572064876556,
            0.010589830577373505,
            0.05280032753944397,
            0.19974802434444427,
            -0.03657596930861473,
            0.24040141701698303,
            0.08996276557445526,
            -0.0944359228014946
          ],
          "bias": 0.01916155219078064,
          "activation": "relu"
        },
        {
          "weights": [
            0.03472350537776947,
            -0.16170820593833923,
            -0.13190342485904694,
            -0.11071699857711792,
            0.09327121824026108,
            -0.26564082503318787,
            -0.2595856785774231,
            0.02518058940768242
          ],
          "bias": 0.12255022674798965,
          "activation": "relu"
        },
        {
          "weights": [
            0.0823042243719101,
            0.1098780483007431,
            0.06455918401479721,
            0.11027143150568008,
            0.06964518874883652,
            0.07914139330387115,
            -0.16983479261398315,
            0.21472135186195374
          ],
          "bias": 0.059895433485507965,
          "activation": "relu"
        },
        {
          "weights": [
            0.14382949471473694,
            -0.19142787158489227,
            -0.09676379710435867,
            -0.0032655890099704266,
            -0.09154251217842102,
            0.10982337594032288,
            0.15400293469429016,
            -0.13493578135967255
          ],
          "bias": -0.013283180072903633,
          "activation": "relu"
        },
        {
          "weights": [
            -0.11648204922676086,
            0.11313328891992569,
            -0.09252388775348663,
            0.19066666066646576,
            -0.038381177932024,
            0.37632161378860474,
            0.19738875329494476,
            -0.2243853509426117
          ],
          "bias": 0.00781378522515297,
          "activation": "relu"
        },
        {
          "weights": [
            -0.028063688427209854,
            0.039046671241521835,
            0.15263748168945312,
            -0.17005592584609985,
            0.02319827862083912,
            -0.05061671510338783,
            0.23753736913204193,
            -0.1858552247285843
          ],
          "bias": -0.10152815282344818,
          "activation": "relu"
        },
        {
          "weights": [
            -0.08973906189203262,
            -0.07759711891412735,
            0.0947701558470726,
            0.10687390714883804,
            0.0829215869307518,
            0.2413170039653778,
            0.15567269921302795,
            0.04361524432897568
          ],
          "bias": -0.048536501824855804,
          "activation": "relu"
        },
        {
          "weights": [
            0.09773556888103485,
            0.042864471673965454,
            -0.10393697768449783,
            0.08653014153242111,
            0.03589128330349922,
            -0.37394583225250244,
            -0.2056037187576294,
            -0.17363795638084412
          ],
          "bias": -0.009056971408426762,
          "activation": "relu"
        },
        {
          "weights": [
            0.08959458023309708,
            0.043594010174274445,
            -0.05178404971957207,
            0.043472349643707275,
            0.025547338649630547,
            -1.082977533340454,
            -0.04908579960465431,
            -0.04509618505835533
          ],
          "bias": -0.07265575975179672,
          "activation": "relu"
        },
        {
          "weights": [
            0.05756871774792671,
            0.0411391519010067,
            0.15494339168071747,
            -0.17296552658081055,
            -0.021328385919332504,
            -0.43384554982185364,
            0.13335682451725006,
            -0.05760236829519272
          ],
          "bias": 0.010727384127676487,
          "activation": "relu"
        },
        {
          "weights": [
            0.06652359664440155,
            0.15431545674800873,
            -0.05741804093122482,
            -0.3545362651348114,
            -0.017627576366066933,
            0.06444200873374939,
            0.007789399940520525,
            0.0765761286020279
          ],
          "bias": 0.10020758211612701,
          "activation": "relu"
        },
        {
          "weights": [
            -0.09441234171390533,
            -0.05322115123271942,
            0.04727897420525551,
            -0.076171875,
            0.08055455982685089,
            0.024748940020799637,
            0.28345292806625366,
            0.12226025015115738
          ],
          "bias": 0.035717085003852844,
          "activation": "relu"
        },
        {
          "weights": [
            -0.21749207377433777,
            0.0559174008667469,
            -0.149500772356987,
            0.18887785077095032,
            0.11268190294504166,
            0.2011890858411789,
            0.06368893384933472,
            0.039533406496047974
          ],
          "bias": -0.02661178447306156,
          "activation": "relu"
        },
        {
          "weights": [
            -0.054424092173576355,
            -0.08175002038478851,
            -0.1547609567642212,
            0.14458978176116943,
            -0.22356505692005157,
            0.041478220373392105,
            0.23133070766925812,
            0.09247176349163055
          ],
          "bias": 0.03737039864063263,
          "activation": "relu"
        },
        {
          "weights": [
            -0.22281800210475922,
            0.12411070615053177,
            0.03288984298706055,
            -0.07078111171722412,
            -0.03844711184501648,
            -0.026765314862132072,
            0.025861596688628197,
            -0.16306056082248688
          ],
          "bias": 0.01348199974745512,
          "activation": "relu"
        },
        {
          "weights": [
            0.09641098231077194,
            0.0706491768360138,
            0.005044595804065466,
            0.027330245822668076,
            0.03418618068099022,
            -0.7476406097412109,
            -0.14395251870155334,
            -0.106438547372818
          ],
          "bias": -0.11760727316141129,
          "activation": "relu"
        },
        {
          "weights": [
            -0.18481793999671936,
            0.07097417861223221,
            -0.06599684804677963,
            0.03294321894645691,
            -0.05167917534708977,
            0.30034586787223816,
            -0.24737103283405304,
            0.19952230155467987
          ],
          "bias": 0.15577158331871033,
          "activation": "relu"
        },
        {
          "weights": [
            0.1981906294822693,
            0.018760131672024727,
            -0.18419696390628815,
            0.18841898441314697,
            0.01481153815984726,
            0.08965519815683365,
            -0.050533726811409,
            0.16639982163906097
          ],
          "bias": 0.11873862892389297,
          "activation": "relu"
        },
        {
          "weights": [
            0.0036340313963592052,
            -0.08463110774755478,
            -0.01685585081577301,
            -0.16422288119792938,
            0.12512987852096558,
            0.25668662786483765,
            -0.05643848329782486,
            -0.17198434472084045
          ],
          "bias": -0.009011335670948029,
          "activation": "relu"
        },
        {
          "weights": [
            -0.2444840967655182,
            0.1794460117816925,
            -0.008623043075203896,
            0.024275051429867744,
            -0.08497260510921478,
            -0.004867428448051214,
            0.03892698884010315,
            0.10850904136896133
          ],
          "bias": 0.05785828083753586,
          "activation": "relu"
        },
        {
          "weights": [
            -0.09188411384820938,
            -0.05609894171357155,
            0.05909402668476105,
            0.15777790546417236,
            0.1503368616104126,
            -0.027856072410941124,
            0.13415028154850006,
            -0.03521798178553581
          ],
          "bias": 0.024464910849928856,
          "activation": "relu"
        },
        {
          "weights": [
            -0.21996179223060608,
            -0.07578893005847931,
            0.07763697952032089,
            -0.15820349752902985,
            0.05896203964948654,
            0.02673773653805256,
            0.13839004933834076,
            -0.16862665116786957
          ],
          "bias": 0.18458148837089539,
          "activation": "relu"
        },
        {
          "weights": [
            0.11251844465732574,
            -0.0522783026099205,
            0.12630130350589752,
            0.19362398982048035,
            0.08220986276865005,
            0.009722002781927586,
            0.02893594093620777,
            0.1134927049279213
          ],
          "bias": 0.05699741095304489,
          "activation": "relu"
        },
        {
          "weights": [
            0.01758667267858982,
            -0.03938974440097809,
            0.013467379845678806,
            0.0630442276597023,
            -0.08433843404054642,
            -0.029885174706578255,
            -0.27061721682548523,
            0.2682296633720398
          ],
          "bias": -0.01353253610432148,
          "activation": "relu"
        },
        {
          "weights": [
            -0.024153748527169228,
            0.10263174772262573,
            -0.03764939308166504,
            0.04731190204620361,
            -0.0584246926009655,
            -0.6055572628974915,
            -0.2603949308395386,
            0.14686836302280426
          ],
          "bias": 0.06897860765457153,
          "activation": "relu"
        },
        {
          "weights": [
            0.14443013072013855,
            0.18968895077705383,
            0.12274596095085144,
            -0.10458075255155563,
            0.19658906757831573,
            0.1852491945028305,
            -0.08800937980413437,
            0.057761531323194504
          ],
          "bias": -0.015508037060499191,
          "activation": "relu"
        },
        {
          "weights": [
            -0.002566490089520812,
            0.0522460974752903,
            -0.08192367106676102,
            0.04001906141638756,
            -0.011107265949249268,
            -0.6989195942878723,
            -0.16399917006492615,
            -0.11441293358802795
          ],
          "bias": -0.07635646313428879,
          "activation": "relu"
        },
        {
          "weights": [
            0.0417182631790638,
            0.1630108803510666,
            0.20249776542186737,
            -0.1363954097032547,
            -0.019277356564998627,
            -0.39793190360069275,
            -0.05874445661902428,
            0.061127711087465286
          ],
          "bias": -0.0215402003377676,
          "activation": "relu"
        },
        {
          "weights": [
            0.14626596868038177,
            -0.06304164230823517,
            0.04537409171462059,
            0.24011026322841644,
            0.07754383981227875,
            0.0942254588007927,
            -0.16495998203754425,
            -0.18101803958415985
          ],
          "bias": 0.027169423177838326,
          "activation": "relu"
        },
        {
          "weights": [
            0.06692574918270111,
            0.07776594907045364,
            -0.27154746651649475,
            -0.12651941180229187,
            0.1093471348285675,
            0.053280048072338104,
            0.18182416260242462,
            -0.012961236760020256
          ],
          "bias": -0.024980349466204643,
          "activation": "relu"
        },
        {
          "weights": [
            0.05459677800536156,
            -0.2732367217540741,
            0.05803791061043739,
            -0.03268607705831528,
            0.0977708175778389,
            -0.08243291079998016,
            0.15156017243862152,
            -0.0403921976685524
          ],
          "bias": -0.021029209718108177,
          "activation": "relu"
        },
        {
          "weights": [
            -0.03635501116514206,
            -0.04515525698661804,
            -0.07035979628562927,
            0.06999862194061279,
            -0.22407107055187225,
            0.13158629834651947,
            -0.052162304520606995,
            -0.036607448011636734
          ],
          "bias": -0.19797731935977936,
          "activation": "relu"
        },
        {
          "weights": [
            0.07947443425655365,
            -0.12724658846855164,
            -0.10317964106798172,
            -0.0348845012485981,
            -0.1354748159646988,
            0.06884746998548508,
            -0.3175952434539795,
            0.03344980254769325
          ],
          "bias": 0.020006369799375534,
          "activation": "relu"
        },
        {
          "weights": [
            -0.07934611290693283,
            0.052009258419275284,
            0.10040771216154099,
            -0.13921800255775452,
            0.024224281311035156,
            0.5389419198036194,
            -0.043297551572322845,
            -0.03939557448029518
          ],
          "bias": 0.12113133817911148,
          "activation": "relu"
        },
        {
          "weights": [
            -0.0213148295879364,
            -0.11991668492555618,
            -0.09857393801212311,
            -0.06337488442659378,
            -0.015377400442957878,
            -0.26560133695602417,
            0.1374836266040802,
            0.13328708708286285
          ],
          "bias": -0.03329498693346977,
          "activation": "relu"
        },
        {
          "weights": [
            0.19906769692897797,
            0.12335647642612457,
            0.15790347754955292,
            0.1216224953532219,
            -0.13043126463890076,
            0.22137340903282166,
            -0.007128607481718063,
            -0.011897778138518333
          ],
          "bias": 0.10628381371498108,
          "activation": "relu"
        },
        {
          "weights": [
            0.15000277757644653,
            0.2859058976173401,
            0.105491504073143,
            0.07119322568178177,
            0.01686226949095726,
            -0.035988178104162216,
            -0.023672709241509438,
            0.018742429092526436
          ],
          "bias": 0.05585379898548126,
          "activation": "relu"
        },
        {
          "weights": [
            -0.15583199262619019,
            0.13820365071296692,
            0.08908835053443909,
            -0.11541355401277542,
            -0.17415566742420197,
            -0.0246379766613245,
            -0.14388494193553925,
            0.051406893879175186
          ],
          "bias": -0.11148102581501007,
          "activation": "relu"
        },
        {
          "weights": [
            0.037509772926568985,
            0.0293703805655241,
            0.005322791635990143,
            -0.14936962723731995,
            -0.0009935536654666066,
            -0.26998746395111084,
            -0.38310766220092773,
            0.14943088591098785
          ],
          "bias": -0.09766312688589096,
          "activation": "relu"
        },
        {
          "weights": [
            -0.15477125346660614,
            -0.056233204901218414,
            -0.11822064965963364,
            0.15404391288757324,
            -0.09765567630529404,
            0.3997616469860077,
            -0.1869305670261383,
            -0.04748905077576637
          ],
          "bias": 0.009912649169564247,
          "activation": "relu"
        },
        {
          "weights": [
            -0.04273504391312599,
            0.14043159782886505,
            -0.2183583825826645,
            0.155893936753273,
            -0.12611691653728485,
            0.12330152094364166,
            -0.18851928412914276,
            0.03812594711780548
          ],
          "bias": 0.09320033341646194,
          "activation": "relu"
        }
      ]
    },
    {
      "type": "hidden",
      "nodes": 64,
      "neurons": [
        {
          "weights": [
            0.09936336427927017,
            0.06946931779384613,
            -0.081034816801548,
            -0.02937711775302887,
            -0.0548732727766037,
            -0.02913481928408146,
            0.1281736195087433,
            0.10047081857919693,
            0.00752965547144413,
            0.04565317556262016,
            0.1706298440694809,
            -0.003726088209077716,
            0.18050378561019897,
            0.05422639846801758,
            -0.036797985434532166,
            0.10765965282917023,
            0.1688014268875122,
            0.0692431852221489,
            -0.10671840608119965,
            -0.17890658974647522,
            -0.13816918432712555,
            0.13283266127109528,
            0.008481867611408234,
            0.3748765289783478,
            -0.0703250840306282,
            -0.008759861811995506,
            -0.08327695727348328,
            0.044386621564626694,
            0.04701745882630348,
            -0.06362161040306091,
            -0.015671832486987114,
            0.038079626858234406,
            -0.043934017419815063,
            -0.2264922857284546,
            -0.18656927347183228,
            -0.007830693386495113,
            0.0030867725145071745,
            -0.11711958050727844,
            -0.058845873922109604,
            0.0030312067829072475,
            -0.052893225103616714,
            -0.17271733283996582,
            -0.08976047486066818,
            -0.0782751813530922,
            -0.07240941375494003,
            0.1601075381040573,
            0.09682822227478027,
            0.1684156209230423,
            -0.10015670955181122,
            0.03262161836028099,
            -0.1930679976940155,
            0.11896906793117523,
            -0.17565366625785828,
            -0.13799452781677246,
            -0.08926740288734436,
            -0.2303967922925949,
            -0.07796892523765564,
            0.12437593936920166,
            -0.10539156943559647,
            0.06015777215361595,
            -0.1783171445131302,
            0.110796719789505,
            0.03351179137825966,
            -0.044376879930496216,
            -0.07965479046106339,
            -0.1201978325843811,
            -0.05250146985054016,
            -0.03969655558466911,
            -0.04537397623062134,
            -0.053067147731781006,
            0.10229705274105072,
            0.12506186962127686,
            -0.004821612033993006,
            0.0773535743355751,
            0.016041208058595657,
            0.03505007550120354,
            -0.08682585507631302,
            0.08557718247175217,
            -0.005044547375291586,
            -0.14885084331035614,
            -0.172848179936409,
            0.12355206161737442,
            -0.1584244817495346,
            0.0025328148622065783,
            -0.2600938677787781,
            -0.08896160125732422,
            -0.10628121346235275,
            -0.05464206635951996,
            0.07528159022331238,
            -0.011366337537765503,
            -0.012196030467748642,
            0.02548820897936821,
            0.12295902520418167,
            0.007907802239060402,
            0.08025410771369934,
            -0.11316651850938797,
            0.1368187814950943,
            0.06530556082725525,
            -0.00971344206482172,
            0.04736396297812462,
            -0.09644866734743118,
            0.039225928485393524,
            -0.09595747292041779,
            -0.14979299902915955,
            -0.07441184669733047,
            -0.02809014916419983,
            0.04865788668394089,
            0.040236182510852814,
            -0.15008273720741272,
            -0.05723174661397934,
            -0.16046494245529175,
            0.02856082282960415,
            -0.09582303464412689,
            -0.07248774915933609,
            -0.036110177636146545,
            -0.10329202562570572,
            -0.13637052476406097,
            -0.007508730515837669,
            -0.11705465614795685,
            0.1146242767572403,
            -0.09510987251996994,
            0.03689837455749512,
            0.07382816821336746,
            0.20603854954242706,
            -0.09116321802139282,
            -0.2243691384792328,
            -0.03258277848362923,
            -0.13681107759475708
          ],
          "bias": -0.13986043632030487,
          "activation": "relu"
        },
        {
          "weights": [
            -0.029414210468530655,
            -0.09808078408241272,
            0.20310957729816437,
            0.07603996247053146,
            0.08797840774059296,
            -0.09280959516763687,
            0.13158456981182098,
            -0.021562697365880013,
            -0.13054750859737396,
            0.0943521037697792,
            -0.0661979615688324,
            0.14617779850959778,
            0.07462114840745926,
            0.09234587103128433,
            0.09360107779502869,
            -0.07211728394031525,
            -0.06363137066364288,
            -0.03902927041053772,
            -0.03217857703566551,
            -0.005999566987156868,
            -0.07507700473070145,
            0.19238539040088654,
            -0.05038490146398544,
            0.17109203338623047,
            -0.10202481597661972,
            -0.03479718789458275,
            -0.09710470587015152,
            0.0892295315861702,
            -0.14489318430423737,
            0.14083559811115265,
            0.11109428852796555,
            0.1784629076719284,
            -0.13040059804916382,
            0.014709960669279099,
            -0.08962336927652359,
            -0.007095894776284695,
            0.138834610581398,
            0.2228928506374359,
            -0.172811359167099,
            -0.03891092911362648,
            0.035517118871212006,
            0.05400731787085533,
            0.13124391436576843,
            -0.07664860039949417,
            -0.08708453178405762,
            -0.04413539916276932,
            -0.16298091411590576,
            -0.25448402762413025,
            -0.016739709302783012,
            -0.1604640930891037,
            -0.04824380204081535,
            0.08714227378368378,
            -0.09741875529289246,
            0.05124003440141678,
            -0.16998499631881714,
            0.15988409519195557,
            0.048785094171762466,
            0.13423573970794678,
            -0.007890273816883564,
            0.03509454056620598,
            0.002830945188179612,
            0.16617022454738617,
            -0.06246408820152283,
            -0.16876329481601715,
            0.11896779388189316,
            -0.08448348194360733,
            -0.06853001564741135,
            -0.14019252359867096,
            0.1811656653881073,
            0.057947754859924316,
            -0.16512197256088257,
            0.1515127569437027,
            -0.0036808254662901163,
            -0.07207651436328888,
            -0.03175976499915123,
            0.2019435614347458,
            0.11925932765007019,
            -0.12264867126941681,
            -0.2149524986743927,
            0.043544284999370575,
            -0.08439477533102036,
            0.1859837770462036,
            0.10490089654922485,
            0.03600889444351196,
            -0.1599331945180893,
            0.08060268312692642,
            0.04245208576321602,
            -0.033809468150138855,
            -0.12619078159332275,
            0.002646871143952012,
            0.1604984849691391,
            0.15808141231536865,
            -0.018212411552667618,
            -0.11251365393400192,
            -0.30649644136428833,
            -0.0897703468799591,
            0.10182757675647736,
            -0.007025618571788073,
            -0.04511338844895363,
            0.011931302957236767,
            0.1317283660173416,
            0.04511154070496559,
            -0.010253087617456913,
            -0.16151593625545502,
            -0.1289350688457489,
            -0.12528568506240845,
            -0.09766076505184174,
            -0.041238732635974884,
            0.18432651460170746,
            0.11890481412410736,
            -0.0052100070752203465,
            -0.11900277435779572,
            0.15252499282360077,
            -0.16566169261932373,
            0.02673635631799698,
            -0.1062760129570961,
            0.11187255382537842,
            0.059842415153980255,
            -0.08456604927778244,
            0.008064759895205498,
            -0.14286638796329498,
            0.015994245186448097,
            -0.1347382366657257,
            -0.09870538115501404,
            -0.03059825673699379,
            0.05485330894589424,
            0.026896126568317413,
            -0.04569391906261444
          ],
          "bias": -0.17454300820827484,
          "activation": "relu"
        },
        {
          "weights": [
            -0.020627710968255997,
            -0.10630673170089722,
            -0.0366596095263958,
            -0.05451977252960205,
            -0.10589242726564407,
            -0.1500953584909439,
            -0.04193834960460663,
            0.22381019592285156,
            0.10187111049890518,
            -0.18310730159282684,
            0.031742677092552185,
            0.20799697935581207,
            0.02398359775543213,
            0.0073708659037947655,
            0.05345655605196953,
            0.1025000810623169,
            0.08562685549259186,
            -0.15325570106506348,
            -0.11679530888795853,
            0.08407355844974518,
            0.006716967094689608,
            0.011661582626402378,
            -0.013130085542798042,
            -0.17231136560440063,
            -0.14827577769756317,
            -0.08161574602127075,
            -0.03705479949712753,
            -0.18541787564754486,
            0.141150563955307,
            0.129716694355011,
            -0.05937943235039711,
            0.08568381518125534,
            -0.19118082523345947,
            0.13985413312911987,
            -0.081590935587883,
            0.07440319657325745,
            -0.10200084745883942,
            -0.10981438308954239,
            -0.07409613579511642,
            0.07673253118991852,
            -0.13197575509548187,
            -0.32004639506340027,
            -0.10488757491111755,
            0.06263601779937744,
            -0.05580564960837364,
            0.05870858207345009,
            -0.06469304859638214,
            -0.08638744801282883,
            -0.16442206501960754,
            -0.06307774037122726,
            -0.06192793697118759,
            -0.07560621947050095,
            0.07040590047836304,
            -0.13683387637138367,
            0.04437221959233284,
            -0.1310397833585739,
            0.10530457645654678,
            0.0992923304438591,
            -0.045793961733579636,
            0.0739763155579567,
            -0.03362127020955086,
            -0.2299032211303711,
            -0.08810169994831085,
            0.07779345661401749,
            -0.07666175812482834,
            -0.20981460809707642,
            -0.11717051267623901,
            0.07578518241643906,
            0.140843003988266,
            -0.09135189652442932,
            -0.024845348671078682,
            0.1334657073020935,
            -0.12149135768413544,
            0.0767967626452446,
            0.2285664677619934,
            -0.08664178848266602,
            -0.07244942337274551,
            0.18137839436531067,
            0.059309739619493484,
            -0.10067521780729294,
            0.17258040606975555,
            -0.08303625136613846,
            0.03813696652650833,
            -0.09294990450143814,
            0.08221185207366943,
            -0.07614073902368546,
            -0.05887328460812569,
            -0.03030354343354702,
            0.1317722350358963,
            -0.03889171779155731,
            -0.1752956658601761,
            -0.01299893669784069,
            0.14371293783187866,
            -0.04740724340081215,
            0.10643208026885986,
            0.10378812998533249,
            -0.06191288307309151,
            0.05276237428188324,
            -0.08014864474534988,
            -0.17732438445091248,
            0.09342049807310104,
            0.005624791141599417,
            0.2009272575378418,
            -0.03856479376554489,
            0.08729594945907593,
            -0.17469315230846405,
            -0.0732164978981018,
            0.11907615512609482,
            0.12411093711853027,
            -0.028781160712242126,
            -0.04474779590964317,
            0.0400862917304039,
            -0.12779225409030914,
            0.012225283309817314,
            0.05949525162577629,
            0.07260466367006302,
            -0.053813476115465164,
            -0.0818510428071022,
            -0.012859097681939602,
            -0.1712854504585266,
            -0.1689496785402298,
            -0.19292540848255157,
            -0.027226530015468597,
            0.0767979770898819,
            0.11977716535329819,
            0.14427292346954346,
            0.05904417112469673,
            -0.14029332995414734
          ],
          "bias": -0.0388324037194252,
          "activation": "relu"
        },
        {
          "weights": [
            -0.09924453496932983,
            -0.08547526597976685,
            -0.07175631076097488,
            0.032023750245571136,
            0.06351849436759949,
            -0.013388198800384998,
            0.03120892308652401,
            0.26076000928878784,
            0.15152378380298615,
            0.15951165556907654,
            -0.03147873282432556,
            -0.08816991746425629,
            0.003152207937091589,
            0.10745567083358765,
            -0.20807138085365295,
            0.10619670152664185,
            0.004315873142331839,
            0.085574671626091,
            -0.06763552129268646,
            0.0530531071126461,
            0.10037817806005478,
            -0.05173288658261299,
            -0.19984954595565796,
            -0.1029873788356781,
            -0.08802191913127899,
            -0.17388582229614258,
            -0.013908477500081062,
            -0.1273907721042633,
            -0.04150301218032837,
            -0.051518481224775314,
            0.030437255278229713,
            -0.1238757073879242,
            -0.004863009322434664,
            0.1160186380147934,
            0.14815989136695862,
            -0.026778552681207657,
            0.01980847865343094,
            -0.23378606140613556,
            -0.03564209118485451,
            0.033769868314266205,
            -0.18526668846607208,
            -0.1607314944267273,
            -0.1501326709985733,
            0.21617212891578674,
            -0.05325289070606232,
            -0.018266890197992325,
            -0.04335668310523033,
            -0.1786433309316635,
            -0.08430293202400208,
            -0.007677403744310141,
            -0.10016835480928421,
            -0.014955181628465652,
            -0.0655951127409935,
            0.002876270329579711,
            -0.09464027732610703,
            -0.15564459562301636,
            0.13904669880867004,
            -0.10839433968067169,
            -0.008035998791456223,
            -0.07734842598438263,
            0.08384910970926285,
            -0.2917148172855377,
            0.05532395839691162,
            0.09926596283912659,
            0.08933018147945404,
            -0.0748448520898819,
            0.09421615302562714,
            -0.01354200765490532,
            0.14005418121814728,
            0.04539235308766365,
            -0.006911357399076223,
            0.012842726893723011,
            -0.0074705337174236774,
            -0.16921895742416382,
            0.07001981139183044,
            -0.055229708552360535,
            0.0890749916434288,
            0.07517880201339722,
            0.09337867796421051,
            0.16760113835334778,
            -0.018618859350681305,
            -0.062150727957487106,
            0.005435764789581299,
            -0.125620037317276,
            0.15111804008483887,
            0.1858689785003662,
            -0.04321013391017914,
            0.14108316600322723,
            0.15520115196704865,
            -0.19757847487926483,
            0.10855976492166519,
            -0.01395676750689745,
            0.15571658313274384,
            -0.0710659995675087,
            0.01610836386680603,
            0.15853166580200195,
            -0.1136641874909401,
            -0.061730701476335526,
            -0.1591958850622177,
            0.10583008825778961,
            -0.07066498696804047,
            -0.11052616685628891,
            0.006155608221888542,
            0.06054617092013359,
            0.1551792472600937,
            -0.004678782541304827,
            -0.12173290550708771,
            0.10832636803388596,
            0.004268264397978783,
            0.007011845707893372,
            -0.057373881340026855,
            0.03621874749660492,
            -0.05873897299170494,
            0.13505083322525024,
            -0.10593067854642868,
            0.013719758950173855,
            0.09192227572202682,
            -0.1119617372751236,
            -0.08998461067676544,
            -0.17521856725215912,
            0.027063006535172462,
            -0.20806661248207092,
            0.1445642113685608,
            0.03278642147779465,
            -0.12079045921564102,
            -0.03682863339781761,
            -0.006295971106737852,
            -0.10910771042108536
          ],
          "bias": -0.03996095061302185,
          "activation": "relu"
        },
        {
          "weights": [
            -0.09138103574514389,
            0.08025819063186646,
            -0.07045505195856094,
            0.08578682690858841,
            0.1338617503643036,
            0.008119129575788975,
            0.04536152631044388,
            -0.11006093770265579,
            -0.08688517659902573,
            -0.040445853024721146,
            -0.11548551172018051,
            0.1443241536617279,
            0.032119978219270706,
            0.09275718778371811,
            0.06866669654846191,
            -0.03534292057156563,
            0.0665670707821846,
            0.00675169425085187,
            0.03962220624089241,
            0.01316534448415041,
            0.09346633404493332,
            0.15791666507720947,
            0.09468180686235428,
            -0.09603079408407211,
            -0.13430549204349518,
            -0.1362823247909546,
            0.05855012312531471,
            0.04856141284108162,
            -0.11426436901092529,
            0.20896950364112854,
            0.1324014812707901,
            0.22949883341789246,
            0.16079510748386383,
            -0.10182599723339081,
            -0.05667540058493614,
            -0.14209233224391937,
            -0.1090771034359932,
            -0.06070911884307861,
            -0.10703618079423904,
            -0.016883723437786102,
            0.19989041984081268,
            -0.09436389803886414,
            0.04540850222110748,
            -0.07696249336004257,
            0.06956549733877182,
            0.11090829223394394,
            0.025533372536301613,
            0.13190054893493652,
            -0.14184775948524475,
            0.0823182612657547,
            0.12401232123374939,
            0.0843905508518219,
            0.08123783022165298,
            -0.03117654100060463,
            -0.0742483139038086,
            -0.05946030467748642,
            -0.05422380194067955,
            0.004460890311747789,
            -0.02695625275373459,
            0.11606461554765701,
            0.1771077811717987,
            -0.005074330605566502,
            0.10181165486574173,
            -0.077408067882061,
            0.2116018384695053,
            -0.015218368731439114,
            0.12331769615411758,
            0.19389590620994568,
            -0.10778290778398514,
            0.16152027249336243,
            0.01534340064972639,
            0.06434911489486694,
            0.10577542334794998,
            0.21854789555072784,
            0.0665716677904129,
            0.1273740828037262,
            -0.0383390411734581,
            0.003945148549973965,
            0.014965192414820194,
            0.014795380644500256,
            0.1751391887664795,
            0.01806599460542202,
            0.04509624093770981,
            -0.014884352684020996,
            -0.03712378814816475,
            -0.12741193175315857,
            -0.04022638127207756,
            -0.09442373365163803,
            0.10050635039806366,
            0.15231935679912567,
            0.19265572726726532,
            -0.13588552176952362,
            0.1764664649963379,
            0.09637455642223358,
            -0.1566915065050125,
            0.16336536407470703,
            0.06081312894821167,
            -0.1731996238231659,
            0.15704099833965302,
            0.08837687969207764,
            -0.12050413340330124,
            0.2531495988368988,
            0.026648055762052536,
            0.11236100643873215,
            0.0015115200076252222,
            -0.21304398775100708,
            0.17153300344944,
            0.07947941869497299,
            0.03823941946029663,
            0.12109102308750153,
            -0.1366347223520279,
            -0.01441298145800829,
            0.18665215373039246,
            -0.20576246082782745,
            0.05150965601205826,
            0.13079333305358887,
            -0.1972266137599945,
            -0.1065269261598587,
            -0.06135671213269234,
            -0.08537329733371735,
            0.020022084936499596,
            -0.03947370499372482,
            -0.10435757786035538,
            0.15925805270671844,
            -0.14978395402431488,
            0.18015192449092865,
            0.02059164084494114,
            -0.0036089278291910887
          ],
          "bias": -0.16129599511623383,
          "activation": "relu"
        },
        {
          "weights": [
            -0.09134646505117416,
            -0.14354495704174042,
            -0.1268259882926941,
            -0.04463259130716324,
            -0.06233101338148117,
            -0.20344524085521698,
            -0.1923973709344864,
            -0.03525089845061302,
            -0.05335567146539688,
            -0.12600938975811005,
            -0.17941056191921234,
            -0.08920945972204208,
            -0.1720925271511078,
            -0.09693646430969238,
            -0.0928153246641159,
            -0.031212178990244865,
            -0.05143534019589424,
            -0.12510210275650024,
            -0.02406557835638523,
            0.08473005145788193,
            0.00020963259157724679,
            -0.08728904277086258,
            -0.15097656846046448,
            0.05733370780944824,
            0.03322136774659157,
            -0.06413063406944275,
            -0.12484847009181976,
            0.061558857560157776,
            0.09001331776380539,
            -0.05068653076887131,
            0.10407266765832901,
            0.10070887207984924,
            0.0712985172867775,
            0.21445691585540771,
            0.1345534771680832,
            -0.130838543176651,
            0.03253547474741936,
            0.05802260711789131,
            0.016411811113357544,
            0.0972094014286995,
            0.04179757460951805,
            -0.25902724266052246,
            0.06216476112604141,
            -0.010035409592092037,
            0.04457912966609001,
            0.1094794049859047,
            0.08023454248905182,
            -0.02075715735554695,
            -0.07747848331928253,
            -0.10412289947271347,
            0.18062913417816162,
            -0.0014045903226360679,
            0.009187387302517891,
            0.10724358260631561,
            0.034902267158031464,
            -0.16867676377296448,
            -0.16835913062095642,
            -0.019623424857854843,
            0.12355007976293564,
            -0.1103166863322258,
            -0.13660593330860138,
            -0.0406080037355423,
            0.13633722066879272,
            0.10116834193468094,
            0.158180832862854,
            -0.023473689332604408,
            -0.21149468421936035,
            -0.012741499580442905,
            0.11570265889167786,
            -0.026015697047114372,
            -0.0133439302444458,
            0.08663370460271835,
            -0.14984570443630219,
            -0.018265031278133392,
            0.0872243270277977,
            0.05604497715830803,
            0.16625989973545074,
            0.17819838225841522,
            -0.013230638578534126,
            -0.08992888033390045,
            0.13405612111091614,
            0.056786976754665375,
            -0.09033727645874023,
            -0.00691802054643631,
            0.03386775031685829,
            -0.06655040383338928,
            -0.026191016659140587,
            -0.01160371769219637,
            -0.10762251168489456,
            0.060785721987485886,
            -0.023937683552503586,
            -0.12140820920467377,
            0.17122751474380493,
            -0.12577202916145325,
            0.02898079715669155,
            -0.022263918071985245,
            -0.008864711038768291,
            -0.15997138619422913,
            0.04035958647727966,
            -0.10397116839885712,
            -0.0741538554430008,
            0.04699241369962692,
            0.0836329385638237,
            -0.13962450623512268,
            -0.15599118173122406,
            -0.13206957280635834,
            0.08106683939695358,
            0.053403060883283615,
            0.036926914006471634,
            0.02282111532986164,
            -0.06683283299207687,
            0.03584655001759529,
            -0.09608201682567596,
            0.12439495325088501,
            0.14169500768184662,
            -0.21524636447429657,
            -0.06080352142453194,
            0.03382086381316185,
            -0.019184578210115433,
            0.10649334639310837,
            -0.07101437449455261,
            0.06866427510976791,
            -0.0008705270593054593,
            -0.0069183469749987125,
            -0.13450905680656433,
            0.12749835848808289,
            -0.17041701078414917,
            -0.0026537852827459574
          ],
          "bias": -0.04324425756931305,
          "activation": "relu"
        },
        {
          "weights": [
            0.0626874566078186,
            -0.03359878063201904,
            -0.02373426780104637,
            -0.054986048489809036,
            -0.08336609601974487,
            -0.06100287660956383,
            -0.027643591165542603,
            -0.10037572681903839,
            -0.019624512642621994,
            -0.05654064565896988,
            -0.18197768926620483,
            -0.05021359771490097,
            -0.15727552771568298,
            0.1373673975467682,
            0.09225107729434967,
            0.10724315792322159,
            -0.0685616210103035,
            -0.07991856336593628,
            -0.02804281748831272,
            -0.06330820918083191,
            0.10221423208713531,
            -0.08670403063297272,
            -0.12679831683635712,
            -0.11236633360385895,
            -0.055178701877593994,
            0.02356012724339962,
            -0.08889089524745941,
            -0.15447048842906952,
            -0.057861026376485825,
            -0.08372781425714493,
            0.0355023518204689,
            -0.059333764016628265,
            -0.00665300851687789,
            0.007119621150195599,
            -0.17031587660312653,
            0.04791184514760971,
            0.02317940630018711,
            -0.20504453778266907,
            -0.004123746883124113,
            0.15455865859985352,
            -0.14751645922660828,
            -0.18430332839488983,
            0.06274933367967606,
            -0.0055730026215314865,
            0.04734892025589943,
            -0.08232526481151581,
            0.08567280322313309,
            0.1071397215127945,
            0.07229077070951462,
            0.08842131495475769,
            0.17048901319503784,
            -0.021341858431696892,
            -0.07440247386693954,
            0.040332697331905365,
            0.08741296082735062,
            0.058899570256471634,
            -0.0824921652674675,
            -0.2579968571662903,
            -0.08792512863874435,
            -0.15078820288181305,
            -0.18762025237083435,
            -0.11662607640028,
            0.14597490429878235,
            -0.016765853390097618,
            0.13837634027004242,
            0.08111829310655594,
            -0.044356197118759155,
            -0.19366279244422913,
            -0.07644028216600418,
            -0.11189202219247818,
            -0.008268133737146854,
            0.02625933662056923,
            0.11133488267660141,
            -0.15583233535289764,
            0.13717764616012573,
            -0.14286689460277557,
            0.09213961660861969,
            0.12936991453170776,
            -0.008419182151556015,
            0.0018629210535436869,
            -0.1478997766971588,
            0.055582646280527115,
            0.07260633260011673,
            0.04036865010857582,
            -0.020901206880807877,
            0.09221627563238144,
            0.08301462978124619,
            -0.006285072769969702,
            0.1491764485836029,
            -0.0886225551366806,
            -0.07881629467010498,
            -0.17490462958812714,
            0.012991467490792274,
            0.14971579611301422,
            0.06743402034044266,
            0.1418190747499466,
            0.12142838537693024,
            0.057189781218767166,
            0.0024306762497872114,
            -0.1305997520685196,
            -0.09881861507892609,
            -0.06918168067932129,
            0.08258863538503647,
            -0.08156935125589371,
            0.0009166719391942024,
            -0.2195778340101242,
            -0.10396618396043777,
            0.04525712504982948,
            -0.14365647733211517,
            -0.035710401833057404,
            0.14566388726234436,
            0.04608466476202011,
            -0.04398176074028015,
            0.000737298047170043,
            0.08110950142145157,
            -0.05007096007466316,
            0.03723343461751938,
            -0.10634557157754898,
            0.029567308723926544,
            -0.2081066519021988,
            -0.05873537063598633,
            0.131166011095047,
            0.010016554966568947,
            0.09148452430963516,
            0.05584268271923065,
            0.15614962577819824,
            0.07667624205350876,
            -0.002763805678114295
          ],
          "bias": 0.007611824665218592,
          "activation": "relu"
        },
        {
          "weights": [
            -0.1025732010602951,
            -0.1703307181596756,
            0.1507517397403717,
            -0.027864821255207062,
            0.05846147984266281,
            -0.0846058800816536,
            0.15578149259090424,
            0.23219618201255798,
            -0.12009412795305252,
            -0.05884302407503128,
            -0.21930371224880219,
            0.0890585407614708,
            -0.12083239108324051,
            -0.14940357208251953,
            0.08665051311254501,
            0.047711025923490524,
            -0.0534859374165535,
            0.019685033708810806,
            -0.18065938353538513,
            0.040509436279535294,
            0.10764789581298828,
            0.1578039973974228,
            0.17741170525550842,
            -0.008564644493162632,
            0.14575791358947754,
            0.10382843017578125,
            -0.11702307313680649,
            0.043738123029470444,
            0.042289797216653824,
            -0.20965906977653503,
            -0.08736488223075867,
            -0.010554932057857513,
            -0.029216431081295013,
            0.0019733840599656105,
            0.018386123701930046,
            -0.1170230433344841,
            -0.03135783597826958,
            -0.1119312047958374,
            -0.07585318386554718,
            0.15624114871025085,
            0.17893490195274353,
            -0.0003051736857742071,
            0.14164374768733978,
            -0.09397017955780029,
            -0.1887790560722351,
            -0.027733393013477325,
            -0.05895782262086868,
            -0.019820064306259155,
            0.0323309563100338,
            0.16451048851013184,
            -0.11114921420812607,
            -0.12316089123487473,
            -0.027049196884036064,
            0.007072480861097574,
            -0.11777634173631668,
            -0.06910205632448196,
            0.02179281786084175,
            -0.020063934847712517,
            -0.10827282816171646,
            0.009601877070963383,
            -0.07474838197231293,
            -0.33266544342041016,
            0.09718813747167587,
            -0.032146699726581573,
            0.11879073828458786,
            -0.021890057250857353,
            -0.04894175007939339,
            -0.10237394273281097,
            -0.11464443802833557,
            -0.016054147854447365,
            -0.06103889271616936,
            -0.002495107939466834,
            -0.07638334482908249,
            0.1861652284860611,
            -0.0980820432305336,
            0.020010262727737427,
            -0.06096448004245758,
            -0.03967288136482239,
            0.08442030847072601,
            0.1383005529642105,
            0.045286912471055984,
            -0.10516208410263062,
            0.13236765563488007,
            -0.09130260348320007,
            0.24346297979354858,
            -0.05833108723163605,
            0.017746372148394585,
            0.14086005091667175,
            -0.07017041742801666,
            0.06413959711790085,
            -0.12697243690490723,
            -0.11478061974048615,
            -0.1243412047624588,
            -0.07919362932443619,
            -0.06324492394924164,
            0.14875827729701996,
            0.23847469687461853,
            0.06657793372869492,
            -0.15473143756389618,
            -0.04911334440112114,
            -0.06448923796415329,
            -0.018716150894761086,
            0.13495855033397675,
            0.0008927369490265846,
            0.1247621476650238,
            -0.05525868758559227,
            0.09715958684682846,
            0.007480429485440254,
            -0.09474927186965942,
            0.01632288657128811,
            -0.0646580308675766,
            0.01171044446527958,
            -0.1367894858121872,
            0.04504568502306938,
            0.007517641875892878,
            0.06266438215970993,
            -0.09616229683160782,
            -0.03678084537386894,
            0.021892298012971878,
            0.11923785507678986,
            -0.04023357853293419,
            -0.1769462674856186,
            -0.027600010856986046,
            -0.17844513058662415,
            0.0011311884736642241,
            -0.027706598863005638,
            -0.028492556884884834,
            -0.13741590082645416
          ],
          "bias": -0.027064194902777672,
          "activation": "relu"
        },
        {
          "weights": [
            -0.20866422355175018,
            -0.0639369860291481,
            0.16943900287151337,
            -0.008459974080324173,
            0.09158679842948914,
            0.022170215845108032,
            0.09370578825473785,
            -0.001547028892673552,
            0.03410656750202179,
            0.11474179476499557,
            -0.1730961948633194,
            -0.10347922891378403,
            0.1613437384366989,
            -0.03360774368047714,
            -0.060182493180036545,
            0.013770967721939087,
            -0.05566481500864029,
            -0.07975037395954132,
            0.018700970336794853,
            -0.16063717007637024,
            0.11882805079221725,
            0.09501475840806961,
            -0.008853117004036903,
            -0.09080053865909576,
            -0.18744917213916779,
            -0.04825605824589729,
            0.10874102264642715,
            0.09926432371139526,
            0.08855810761451721,
            -0.06042948737740517,
            -0.15851324796676636,
            -0.14277856051921844,
            0.05137179046869278,
            0.011006109416484833,
            0.10791803896427155,
            -0.1054956242442131,
            -0.10659477859735489,
            -0.1782996952533722,
            0.032645244151353836,
            -0.036559924483299255,
            -0.0393093004822731,
            -0.2100069522857666,
            -0.028574375435709953,
            -0.035536300390958786,
            -0.1496003121137619,
            0.10734535753726959,
            0.04295731708407402,
            -0.20700332522392273,
            0.0026303487829864025,
            -0.12926946580410004,
            -0.0646824911236763,
            -0.034127477556467056,
            -0.055709198117256165,
            -0.07600410282611847,
            0.144136443734169,
            -0.14080768823623657,
            0.1345289945602417,
            -0.043212875723838806,
            -0.034602146595716476,
            0.028089549392461777,
            0.006507985293865204,
            -0.2359021157026291,
            -0.04508752003312111,
            0.18811234831809998,
            -0.12227541953325272,
            -0.1969059407711029,
            -0.09895337373018265,
            0.016126859933137894,
            -0.08005926758050919,
            0.10227461159229279,
            0.05882580578327179,
            0.1289948672056198,
            -0.10070636868476868,
            -0.10508407652378082,
            0.0700150728225708,
            0.11154989153146744,
            -0.13352251052856445,
            0.13988348841667175,
            0.028396066278219223,
            0.14273716509342194,
            0.06383218616247177,
            -0.1700408011674881,
            -0.1863875389099121,
            -0.051944054663181305,
            -0.0849955826997757,
            0.15798771381378174,
            0.009419730864465237,
            0.09490501880645752,
            0.1671542078256607,
            0.028246654197573662,
            -0.057742632925510406,
            0.0007401558104902506,
            0.10511971265077591,
            0.10337680578231812,
            0.01583959348499775,
            -0.170220285654068,
            0.07406202703714371,
            0.04549410194158554,
            -0.11889823526144028,
            0.10734885185956955,
            -0.06470614671707153,
            0.11071360111236572,
            -0.12276085466146469,
            0.1007615402340889,
            0.028222372755408287,
            0.10121777653694153,
            -0.02633332647383213,
            -0.043656617403030396,
            -0.137587770819664,
            -0.0715155079960823,
            -0.004538592882454395,
            0.12700793147087097,
            -0.13691827654838562,
            -0.04641890153288841,
            0.07005120813846588,
            0.055474333465099335,
            0.02353046089410782,
            0.129503071308136,
            0.07094486802816391,
            0.13547533750534058,
            0.0242579597979784,
            0.00036921221180818975,
            -0.1379961371421814,
            0.0711066946387291,
            -0.20722535252571106,
            -0.13303442299365997,
            -0.1880839765071869,
            0.026704978197813034
          ],
          "bias": -0.11429504305124283,
          "activation": "relu"
        },
        {
          "weights": [
            0.018687278032302856,
            -0.14261510968208313,
            -0.02490333653986454,
            -0.027468428015708923,
            0.11947257816791534,
            -0.12138184905052185,
            0.006066452711820602,
            -0.026797093451023102,
            0.027737444266676903,
            0.10328244417905807,
            0.01824919879436493,
            0.06468246877193451,
            -0.11126454174518585,
            -0.10278359055519104,
            -0.1268656849861145,
            -0.009852330200374126,
            0.015966961160302162,
            0.03004535660147667,
            -0.24026504158973694,
            0.007341674529016018,
            0.08274320513010025,
            -0.13200803101062775,
            -0.16066962480545044,
            0.08525848388671875,
            0.15409336984157562,
            -0.09440259635448456,
            -0.1581857055425644,
            0.026945345103740692,
            0.11859557777643204,
            -0.009421441704034805,
            0.05417073145508766,
            0.013755605556070805,
            0.0771445780992508,
            -0.038798704743385315,
            0.012186134234070778,
            -0.1335575133562088,
            -0.061507631093263626,
            -0.014140656217932701,
            -0.1850137859582901,
            0.054909832775592804,
            -0.015484235249459743,
            -0.09307121485471725,
            0.021632060408592224,
            0.04947654530405998,
            -0.13988643884658813,
            0.005244622938334942,
            0.13511613011360168,
            0.11920648068189621,
            0.04029552638530731,
            -0.118949756026268,
            -0.15431945025920868,
            0.15809962153434753,
            0.07779206335544586,
            0.048021819442510605,
            -0.19654735922813416,
            -0.2238919734954834,
            -0.1532142162322998,
            0.06438350677490234,
            -0.1676717847585678,
            -0.01718827150762081,
            -0.1793656200170517,
            -0.10861635208129883,
            0.07358353585004807,
            0.13729619979858398,
            0.1625409573316574,
            -0.1605532169342041,
            0.06693664193153381,
            -0.1909237802028656,
            -0.19639931619167328,
            -0.16504397988319397,
            -0.008479852229356766,
            0.10432242602109909,
            -0.1043693944811821,
            0.0813683569431305,
            0.004726500250399113,
            0.12436104565858841,
            -0.08409017324447632,
            0.10284994542598724,
            -0.024152666330337524,
            0.1017836332321167,
            -0.10762885957956314,
            0.06483852863311768,
            0.05894282087683678,
            0.035875093191862106,
            0.04353497922420502,
            0.14042450487613678,
            -0.08297500759363174,
            -0.007337176240980625,
            0.043731607496738434,
            0.1789819747209549,
            0.11086244136095047,
            -0.09921623766422272,
            -0.1616291105747223,
            0.08822884410619736,
            0.05476193130016327,
            0.08700115233659744,
            0.1014101654291153,
            0.10940482467412949,
            0.11155328899621964,
            -0.012915545143187046,
            -0.0983261838555336,
            -0.1698915660381317,
            0.07005535811185837,
            0.0602235347032547,
            -0.21576513350009918,
            -0.024998396635055542,
            -0.08356791734695435,
            0.04314437136054039,
            -0.001639681519009173,
            0.04191350191831589,
            0.011779642663896084,
            -0.04542078450322151,
            0.014097773469984531,
            0.052195534110069275,
            -0.08557505160570145,
            -0.17955367267131805,
            0.024752993136644363,
            -0.05824603512883186,
            -0.06402029097080231,
            0.05473704636096954,
            -0.007971838116645813,
            0.020508792251348495,
            -0.0744236409664154,
            0.025544626638293266,
            -0.026975274085998535,
            0.13638785481452942,
            -0.17904552817344666,
            0.033425331115722656
          ],
          "bias": -0.049921367317438126,
          "activation": "relu"
        },
        {
          "weights": [
            0.1507308930158615,
            -0.002308084163814783,
            0.09587202221155167,
            -0.016756724566221237,
            -0.020864136517047882,
            -0.1521265208721161,
            0.18645931780338287,
            -0.028332959860563278,
            -0.14411211013793945,
            -0.07380121201276779,
            -0.0271166879683733,
            0.09619181603193283,
            0.07967168837785721,
            0.05714142322540283,
            -0.002713034860789776,
            0.1844896525144577,
            0.20053091645240784,
            0.07844171673059464,
            -0.1780937910079956,
            0.015804700553417206,
            -0.08179513365030289,
            0.12087521702051163,
            -0.06602118164300919,
            0.016521483659744263,
            -0.1744239777326584,
            0.06773249059915543,
            0.057954881340265274,
            0.0790020152926445,
            -0.12474191933870316,
            0.0969129204750061,
            0.0009156200103461742,
            0.07225023210048676,
            -0.10924457013607025,
            -0.060879629105329514,
            -0.07273556292057037,
            -0.15614831447601318,
            0.00023708061780780554,
            0.020962614566087723,
            0.15210027992725372,
            -0.09349162876605988,
            0.07168235629796982,
            -0.01932584121823311,
            -0.0701591819524765,
            0.11684815585613251,
            0.1094679906964302,
            0.1306498944759369,
            0.04025299474596977,
            -0.0019697006791830063,
            -0.1198827251791954,
            0.12137795984745026,
            -0.06689803302288055,
            0.08968909084796906,
            -0.1309937685728073,
            -0.13710705935955048,
            0.09842251986265182,
            -0.057342153042554855,
            0.057227034121751785,
            -0.15538853406906128,
            0.03647560998797417,
            0.08899568766355515,
            0.040432531386613846,
            -0.015224712900817394,
            -0.13435405492782593,
            -0.09876445680856705,
            0.004665000829845667,
            -0.21476586163043976,
            0.013508252799510956,
            -0.05243314057588577,
            0.07509661465883255,
            0.10344495624303818,
            -0.025832535699009895,
            -0.04687843844294548,
            0.06721935421228409,
            0.010151510126888752,
            -0.023463638499379158,
            0.029860232025384903,
            0.08199824392795563,
            -0.013708267360925674,
            0.009090200066566467,
            0.16469769179821014,
            0.21460285782814026,
            0.008031614124774933,
            0.08533545583486557,
            0.09005840867757797,
            0.06271028518676758,
            -0.042958423495292664,
            0.09567141532897949,
            -0.1921677589416504,
            0.12842623889446259,
            0.06146502494812012,
            0.19483450055122375,
            0.02899288944900036,
            0.25350770354270935,
            0.11782509088516235,
            0.01312180608510971,
            0.16591373085975647,
            0.07080040872097015,
            -0.11222540587186813,
            0.062127888202667236,
            0.08302267640829086,
            -0.09724186360836029,
            0.15171197056770325,
            0.06548963487148285,
            -0.010517856106162071,
            0.06516621261835098,
            -0.15218354761600494,
            0.11688507348299026,
            0.14570783078670502,
            0.14706498384475708,
            -0.11790753155946732,
            0.03075641579926014,
            -0.07398767024278641,
            -0.04535301774740219,
            -0.29868587851524353,
            -0.08652453124523163,
            -0.0007565774722024798,
            -0.12903174757957458,
            -0.0754912719130516,
            0.06278269737958908,
            -0.0525546595454216,
            0.10622437298297882,
            -0.026926277205348015,
            -0.005960419308394194,
            -0.050877559930086136,
            -0.05792339891195297,
            0.16148494184017181,
            -0.15462952852249146,
            -0.009561573155224323
          ],
          "bias": -0.26990777254104614,
          "activation": "relu"
        },
        {
          "weights": [
            -0.06246808543801308,
            0.055423032492399216,
            -0.020691879093647003,
            -0.13758209347724915,
            -0.15639883279800415,
            -0.08036959171295166,
            -0.11337001621723175,
            0.0925523191690445,
