{
  "layers": [
    {
      "type": "input",
      "nodes": 8,
      "values": [
        -0.08179355732569496,
        0.42784198908117776,
        0.024192841832721808,
        -0.1584652345305447,
        -0.31965346359440344,
        -0.05297076268258404,
        0.4571985880098328,
        -1.170581354743413
      ]
    },
    {
      "type": "hidden",
      "nodes": 64,
      "neurons": [
        {
          "weights": [
            0.19208034873008728,
            0.09483242779970169,
            -0.20475225150585175,
            0.28895390033721924,
            0.17012706398963928,
            0.02156238630414009,
            -0.06767094880342484,
            -0.16287048161029816
          ],
          "bias": 0.05932562053203583,
          "activation": "relu"
        },
        {
          "weights": [
            0.12614086270332336,
            -0.11980630457401276,
            -0.2966342270374298,
            -0.3036556839942932,
            0.09332121908664703,
            0.008025574497878551,
            -0.3047541677951813,
            0.3232247531414032
          ],
          "bias": -0.04637601226568222,
          "activation": "relu"
        },
        {
          "weights": [
            -0.09689302742481232,
            0.07932030409574509,
            -0.31151652336120605,
            0.11230836808681488,
            0.02125106193125248,
            0.028307117521762848,
            -0.2698242664337158,
            0.29135769605636597
          ],
          "bias": -0.17516697943210602,
          "activation": "relu"
        },
        {
          "weights": [
            0.17864282429218292,
            0.0013909180415794253,
            -0.1698608696460724,
            0.24078744649887085,
            -0.23956209421157837,
            0.17805635929107666,
            0.4996362328529358,
            0.3681223392486572
          ],
          "bias": 0.03257525712251663,
          "activation": "relu"
        },
        {
          "weights": [
            -0.056365951895713806,
            -0.012211023829877377,
            0.1503119021654129,
            -0.026068786159157753,
            -0.0636565238237381,
            -1.0606337785720825,
            -0.4422435760498047,
            0.4301907420158386
          ],
          "bias": -0.09217695146799088,
          "activation": "relu"
        },
        {
          "weights": [
            0.07060421258211136,
            -0.10956257581710815,
            -0.17358843982219696,
            0.13622097671031952,
            0.11057534068822861,
            -0.3341218829154968,
            -0.3312655985355377,
            -0.3565968871116638
          ],
          "bias": 0.131692573428154,
          "activation": "relu"
        },
        {
          "weights": [
            -0.08405061811208725,
            -0.23149564862251282,
            0.05735435709357262,
            -0.02602343074977398,
            0.05437241494655609,
            0.07698950916528702,
            -0.04055279493331909,
            0.3776264190673828
          ],
          "bias": -0.2310362607240677,
          "activation": "relu"
        },
        {
          "weights": [
            -0.22514232993125916,
            0.05228322744369507,
            -0.1385321021080017,
            -0.012616604566574097,
            0.18390145897865295,
            0.11752142012119293,
            0.0953078418970108,
            0.34985506534576416
          ],
          "bias": -0.17484398186206818,
          "activation": "relu"
        },
        {
          "weights": [
            -0.02441273257136345,
            -0.10328784584999084,
            0.2264447659254074,
            -0.10286252945661545,
            -0.3554593324661255,
            0.13566413521766663,
            -0.17655418813228607,
            0.18882308900356293
          ],
          "bias": 0.08446907997131348,
          "activation": "relu"
        },
        {
          "weights": [
            0.051021087914705276,
            0.004675822798162699,
            -0.4773014187812805,
            0.4218636751174927,
            0.13898944854736328,
            0.056202035397291183,
            -0.4057155251502991,
            -0.281210333108902
          ],
          "bias": 0.13728652894496918,
          "activation": "relu"
        },
        {
          "weights": [
            0.36459338665008545,
            0.025268683210015297,
            0.09471669793128967,
            -0.09788603335618973,
            -0.01384278479963541,
            0.13702243566513062,
            0.046588197350502014,
            0.2756311893463135
          ],
          "bias": -0.08972816914319992,
          "activation": "relu"
        },
        {
          "weights": [
            -0.31991687417030334,
            0.25534626841545105,
            0.19326633214950562,
            0.11384672671556473,
            -0.08526508510112762,
            0.038406483829021454,
            0.2801498472690582,
            0.18654268980026245
          ],
          "bias": -0.16601355373859406,
          "activation": "relu"
        },
        {
          "weights": [
            0.218911275267601,
            -0.016901671886444092,
            -0.12906967103481293,
            0.20666112005710602,
            -0.41701561212539673,
            -0.7449203133583069,
            0.08110347390174866,
            -0.043759286403656006
          ],
          "bias": -0.056421272456645966,
          "activation": "relu"
        },
        {
          "weights": [
            0.029884343966841698,
            0.16418111324310303,
            0.33748260140419006,
            0.0028576829936355352,
            -0.1406639665365219,
            -0.8697433471679688,
            0.2267892062664032,
            -0.22396139800548553
          ],
          "bias": 0.053440991789102554,
          "activation": "relu"
        },
        {
          "weights": [
            -0.1668723225593567,
            0.11043865233659744,
            -0.20253196358680725,
            -0.05821862071752548,
            -0.07177311927080154,
            0.08715276420116425,
            0.3241868019104004,
            -0.04383394122123718
          ],
          "bias": 0.2568178176879883,
          "activation": "relu"
        },
        {
          "weights": [
            0.11037779599428177,
            0.11010652780532837,
            0.004802631679922342,
            0.3722013831138611,
            -0.010676183737814426,
            -0.004038356244564056,
            0.10879593342542648,
            0.08911694586277008
          ],
          "bias": -0.1855992078781128,
          "activation": "relu"
        },
        {
          "weights": [
            0.2215268313884735,
            0.16692481935024261,
            0.2330763190984726,
            0.06138645485043526,
            0.027884749695658684,
            0.21993350982666016,
            -0.1769922971725464,
            0.20112644135951996
          ],
          "bias": 0.04398411139845848,
          "activation": "relu"
        },
        {
          "weights": [
            0.10419542342424393,
            0.19972145557403564,
            0.08289317786693573,
            -0.19219449162483215,
            -0.2882295250892639,
            -0.8460463285446167,
            0.05411708727478981,
            -0.26731711626052856
          ],
          "bias": -0.102263905107975,
          "activation": "relu"
        },
        {
          "weights": [
            0.19974596798419952,
            0.032625388354063034,
            -0.39916348457336426,
            0.1753554791212082,
            0.17256136238574982,
            0.08668403327465057,
            -0.3150899112224579,
            -0.1503770649433136
          ],
          "bias": -0.21544571220874786,
          "activation": "relu"
        },
        {
          "weights": [
            -0.065828338265419,
            -0.09516850858926773,
            0.11489670723676682,
            0.0032531023025512695,
            0.1642128974199295,
            0.01383044384419918,
            0.30666452646255493,
            -0.519037127494812
          ],
          "bias": -0.11653997004032135,
          "activation": "relu"
        },
        {
          "weights": [
            0.1864195317029953,
            0.0677512064576149,
            0.24006803333759308,
            -0.16670584678649902,
            -0.023482000455260277,
            -0.9029664397239685,
            -0.2594536542892456,
            -0.2328251451253891
          ],
          "bias": 0.03679800406098366,
          "activation": "relu"
        },
        {
          "weights": [
            0.23172681033611298,
            -0.00029082284891046584,
            -0.14352664351463318,
            0.18760298192501068,
            0.21599161624908447,
            1.3571485396823846e-05,
            -0.027844276279211044,
            0.02573883719742298
          ],
          "bias": 0.10333746671676636,
          "activation": "relu"
        },
        {
          "weights": [
            -0.22028376162052155,
            0.1791302114725113,
            0.11394473910331726,
            -0.04610365256667137,
            -0.22000619769096375,
            0.1865924447774887,
            0.0056195445358753204,
            -0.0039141918532550335
          ],
          "bias": -0.03233744949102402,
          "activation": "relu"
        },
        {
          "weights": [
            -0.01112363114953041,
            -0.011052745394408703,
            -0.03190062940120697,
            0.11464416980743408,
            -0.2814042270183563,
            0.13783007860183716,
            0.33347341418266296,
            -0.4540325999259949
          ],
          "bias": 0.060852907598018646,
          "activation": "relu"
        },
        {
          "weights": [
            -0.1295078843832016,
            -0.1960339993238449,
            0.06909657269716263,
            0.20889870822429657,
            0.033369556069374084,
            0.1679142713546753,
            0.16257113218307495,
            -0.1453326791524887
          ],
          "bias": 0.03658755123615265,
          "activation": "relu"
        },
        {
          "weights": [
            0.02098417468369007,
            -0.031148122623562813,
            -0.20456567406654358,
            0.22652938961982727,
            0.021936612203717232,
            -1.2426369190216064,
            -0.30069777369499207,
            0.28370237350463867
          ],
          "bias": 0.0664583295583725,
          "activation": "relu"
        },
        {
          "weights": [
            -0.007039042189717293,
            -0.0053790053352713585,
            0.029649119824171066,
            0.08168978244066238,
            -0.01083272323012352,
            0.1821194887161255,
            0.5428197979927063,
            0.397385835647583
          ],
          "bias": 0.07529144734144211,
          "activation": "relu"
        },
        {
          "weights": [
            -0.04972393438220024,
            0.23321524262428284,
            -0.3517006039619446,
            0.022041108459234238,
            -0.026201428845524788,
            -1.1392427682876587,
            -0.13284240663051605,
            -0.004681427031755447
          ],
          "bias": 0.04014526680111885,
          "activation": "relu"
        },
        {
          "weights": [
            -0.1670890599489212,
            -0.039243750274181366,
            -0.1495785266160965,
            -0.10846704989671707,
            0.02603597566485405,
            0.13979816436767578,
            0.5569022297859192,
            -0.028098562732338905
          ],
          "bias": -0.015400509350001812,
          "activation": "relu"
        },
        {
          "weights": [
            -0.18217836320400238,
            0.0586296021938324,
            -0.11746161431074142,
            0.26733162999153137,
            0.08241303265094757,
            0.03478061035275459,
            0.11621276289224625,
            0.03759266436100006
          ],
          "bias": 0.19742795825004578,
          "activation": "relu"
        },
        {
          "weights": [
            0.11664632707834244,
            0.4228740334510803,
            0.18276767432689667,
            -0.08404304832220078,
            0.24121320247650146,
            0.14307166635990143,
            0.03318164870142937,
            0.05712636932730675
          ],
          "bias": 0.218466117978096,
          "activation": "relu"
        },
        {
          "weights": [
            -0.09042998403310776,
            0.24481984972953796,
            -0.056165535002946854,
            0.08009791374206543,
            0.1704905778169632,
            -0.7251393795013428,
            -0.29462379217147827,
            -0.067448690533638
          ],
          "bias": -0.0028219306841492653,
          "activation": "relu"
        },
        {
          "weights": [
            0.19951094686985016,
            -0.006480339914560318,
            0.02994571253657341,
            0.02923702448606491,
            -0.025509225204586983,
            -1.204521656036377,
            -0.0742105096578598,
            -0.19912120699882507
          ],
          "bias": 0.021235154941678047,
          "activation": "relu"
        },
        {
          "weights": [
            -0.3872200846672058,
            -0.2801062762737274,
            0.2897476851940155,
            0.147304505109787,
            0.01581871323287487,
            0.07407809048891068,
            -0.22768282890319824,
            -0.17658787965774536
          ],
          "bias": -0.10319188237190247,
          "activation": "relu"
        },
        {
          "weights": [
            0.09317675232887268,
            -0.15331263840198517,
            0.20650534331798553,
            -0.15479901432991028,
            0.0027113351970911026,
            -0.07258284837007523,
            0.5541622042655945,
            0.12930291891098022
          ],
          "bias": 0.08593396097421646,
          "activation": "relu"
        },
        {
          "weights": [
            0.28413575887680054,
            0.13777339458465576,
            -0.14880917966365814,
            0.15931840240955353,
            0.03675904497504234,
            0.14680376648902893,
            -0.23428849875926971,
            -0.2886679768562317
          ],
          "bias": 0.11236628890037537,
          "activation": "relu"
        },
        {
          "weights": [
            -0.14362074434757233,
            0.25903356075286865,
            -0.07370124012231827,
            -0.35856786370277405,
            -0.1598103940486908,
            0.1879381388425827,
            0.1004646047949791,
            0.02447768859565258
          ],
          "bias": 0.08106844127178192,
          "activation": "relu"
        },
        {
          "weights": [
            -0.2293047457933426,
            -0.17339958250522614,
            -0.049620371311903,
            -0.23581887781620026,
            0.11154524236917496,
            -0.316893994808197,
            -0.0018864816520363092,
            0.16641131043434143
          ],
          "bias": 0.22983495891094208,
          "activation": "relu"
        },
        {
          "weights": [
            -0.05148984119296074,
            -0.049786798655986786,
            -0.11010643094778061,
            -0.1824915111064911,
            -0.05572713166475296,
            0.07872440665960312,
            -0.006112527567893267,
            -0.2067546397447586
          ],
          "bias": -0.03150680288672447,
          "activation": "relu"
        },
        {
          "weights": [
            -0.09750380367040634,
            0.190935879945755,
            -0.059910889714956284,
            0.17917126417160034,
            0.07651036232709885,
            0.24499142169952393,
            -0.021485110744833946,
            0.2724117636680603
          ],
          "bias": -0.10613217949867249,
          "activation": "relu"
        },
        {
          "weights": [
            0.19674994051456451,
            0.13114798069000244,
            -0.17685572803020477,
            -0.13044343888759613,
            0.09305159747600555,
            -1.3422796726226807,
            0.13120760023593903,
            0.12927468121051788
          ],
          "bias": 0.10866892337799072,
          "activation": "relu"
        },
        {
          "weights": [
            -0.0493551641702652,
            0.09312247484922409,
            -0.15759319067001343,
            0.19062474370002747,
            -0.0672115832567215,
            0.12822134792804718,
            -0.30684971809387207,
            -0.017799194902181625
          ],
          "bias": -0.09225066006183624,
          "activation": "relu"
        },
        {
          "weights": [
            -0.11742890626192093,
            0.0026412850711494684,
            0.08476478606462479,
            0.018102625384926796,
            -0.505053699016571,
            -0.2075868546962738,
            -0.15799422562122345,
            -0.3008893132209778
          ],
          "bias": 0.08333861827850342,
          "activation": "relu"
        },
        {
          "weights": [
            -0.06558318436145782,
            -0.08950184285640717,
            -0.1151682585477829,
            -0.33361393213272095,
            -0.13099713623523712,
            0.20824410021305084,
            0.12318568676710129,
            0.34662869572639465
          ],
          "bias": -0.18168087303638458,
          "activation": "relu"
        },
        {
          "weights": [
            -0.15834550559520721,
            -0.22160109877586365,
            0.21806447207927704,
            -0.1628938913345337,
            -0.25326502323150635,
            -0.5472372174263,
            0.1502300500869751,
            0.12343693524599075
          ],
          "bias": 0.13442538678646088,
          "activation": "relu"
        },
        {
          "weights": [
            0.02405758760869503,
            -0.33394575119018555,
            0.0783027857542038,
            -0.047483786940574646,
            0.2093481421470642,
            0.0018245645333081484,
            0.06544408202171326,
            0.10690900683403015
          ],
          "bias": -0.13653317093849182,
          "activation": "relu"
        },
        {
          "weights": [
            0.007007534150034189,
            0.15624843537807465,
            -0.2674267888069153,
            -0.0016733743250370026,
            0.019366221502423286,
            -1.1042122840881348,
            -0.12468273937702179,
            -0.2763580083847046
          ],
          "bias": -0.07164764404296875,
          "activation": "relu"
        },
        {
          "weights": [
            0.14139151573181152,
            -0.0618969202041626,
            0.12582993507385254,
            0.21859616041183472,
            -0.1279621124267578,
            -0.6501258611679077,
            0.06569954007863998,
            -0.08146531879901886
          ],
          "bias": -0.3195454180240631,
          "activation": "relu"
        },
        {
          "weights": [
            0.06784938275814056,
            0.049478694796562195,
            0.14347180724143982,
            0.06582015007734299,
            0.051760610193014145,
            -1.4685410261154175,
            0.005053608678281307,
            0.005619158502668142
          ],
          "bias": -0.013657864183187485,
          "activation": "relu"
        },
        {
          "weights": [
            0.16229978203773499,
            0.0450243279337883,
            -0.14734594523906708,
            0.3349205553531647,
            0.16146309673786163,
            -1.4403890371322632,
            -0.025762028992176056,
            -0.01951584964990616
          ],
          "bias": -0.02689032256603241,
          "activation": "relu"
        },
        {
          "weights": [
            -0.0855344906449318,
            0.060266461223363876,
            0.07448296993970871,
            -0.4421994090080261,
            0.061990104615688324,
            -0.4280264377593994,
            0.388869047164917,
            -0.3138430118560791
          ],
          "bias": 0.21479403972625732,
          "activation": "relu"
        },
        {
          "weights": [
            -0.405892014503479,
            -0.15907686948776245,
            -0.3124622702598572,
            0.3115953505039215,
            0.07807636260986328,
            -0.6153392791748047,
            0.16000492870807648,
            0.0692562460899353
          ],
          "bias": -0.08828451484441757,
          "activation": "relu"
        },
        {
          "weights": [
            -0.014760813675820827,
            0.07991604506969452,
            0.07541842758655548,
            0.009021101519465446,
            -0.08619512617588043,
            0.06858803331851959,
            0.0231921523809433,
            -0.5752086043357849
          ],
          "bias": -0.42753157019615173,
          "activation": "relu"
        },
        {
          "weights": [
            0.17541126906871796,
            -0.13014274835586548,
            0.2464749664068222,
            -0.020446671172976494,
            0.11886271834373474,
            0.10285068303346634,
            -0.24996300041675568,
            0.11274129897356033
          ],
          "bias": 0.02103993110358715,
          "activation": "relu"
        },
        {
          "weights": [
            0.11064296215772629,
            -0.1647673100233078,
            0.2305660992860794,
            0.09935034811496735,
            -0.039992187172174454,
            0.049708958715200424,
            0.34772971272468567,
            -0.002071600640192628
          ],
          "bias": 0.11996092647314072,
          "activation": "relu"
        },
        {
          "weights": [
            0.02745651826262474,
            -0.21510730683803558,
            -0.07954438775777817,
            0.011792962439358234,
            -0.023160986602306366,
            0.07322504371404648,
            -0.21947945654392242,
            -0.21499574184417725
          ],
          "bias": 0.15023088455200195,
          "activation": "relu"
        },
        {
          "weights": [
            0.2286713868379593,
            0.013295337557792664,
            0.14719532430171967,
            0.25098615884780884,
            -0.030140312388539314,
            -0.9125671982765198,
            0.05837421864271164,
            -0.12084547430276871
          ],
          "bias": 0.028360191732645035,
          "activation": "relu"
        },
        {
          "weights": [
            0.0070543112233281136,
            -0.05737794563174248,
            0.31821295619010925,
            -0.024575097486376762,
            -0.04995819553732872,
            0.1804392784833908,
            -0.23722527921199799,
            -0.22177153825759888
          ],
          "bias": 0.12011300027370453,
          "activation": "relu"
        },
        {
          "weights": [
            -0.11173676699399948,
            -0.044685814529657364,
            0.10249549150466919,
            -0.09671348333358765,
            0.007921933196485043,
            0.20288701355457306,
            0.4084465205669403,
            0.2697697579860687
          ],
          "bias": 0.06902076303958893,
          "activation": "relu"
        },
        {
          "weights": [
            -0.14767616987228394,
            0.2027609497308731,
            -0.02582530491054058,
            -0.441393107175827,
            0.03950642794370651,
            0.061008356511592865,
            -0.02466055005788803,
            0.06679052114486694
          ],
          "bias": 0.1337592750787735,
          "activation": "relu"
        },
        {
          "weights": [
            0.1438833475112915,
            0.2163650542497635,
            0.04660820960998535,
            -0.010435453616082668,
            0.03650885447859764,
            -1.631296992301941,
            -0.13497567176818848,
            -0.07805507630109787
          ],
          "bias": -0.04606206342577934,
          "activation": "relu"
        },
        {
          "weights": [
            0.1412719488143921,
            0.06467689573764801,
            -0.003330827224999666,
            0.01471608504652977,
            0.18660177290439606,
            -1.2377666234970093,
            -0.02656765654683113,
            0.006843624636530876
          ],
          "bias": -0.0026953942142426968,
          "activation": "relu"
        },
        {
          "weights": [
            0.07409624010324478,
            0.005553616210818291,
            0.22729508578777313,
            -0.03728592023253441,
            0.018049634993076324,
            -1.348180890083313,
            -0.17212215065956116,
            -0.037091806530952454
          ],
          "bias": -0.057757891714572906,
          "activation": "relu"
        },
        {
          "weights": [
            0.11983528733253479,
            0.13530397415161133,
            -0.07915792614221573,
            0.11082475632429123,
            0.08416103571653366,
            -1.2565549612045288,
            0.07649438828229904,
            0.11494693905115128
          ],
          "bias": 0.23112064599990845,
          "activation": "relu"
        }
      ]
    },
    {
      "type": "hidden",
      "nodes": 32,
      "neurons": [
        {
          "weights": [
            0.18061979115009308,
            -0.12958703935146332,
            0.023232251405715942,
            -0.13712438941001892,
            0.294407457113266,
            0.06935834884643555,
            -0.17188523709774017,
            -0.006762033794075251,
            -0.22186511754989624,
            -0.08411251753568649,
            -0.18004050850868225,
            -0.0982542484998703,
            -0.08294418454170227,
            0.20894461870193481,
            -0.09114311635494232,
            0.15336932241916656,
            -0.02144327573478222,
            0.12895715236663818,
            -0.33205875754356384,
            0.20413507521152496,
            -0.15276090800762177,
            -0.1485009789466858,
            -0.10284598171710968,
            0.2535030245780945,
            -0.15419498085975647,
            0.4193632900714874,
            -0.5551607608795166,
            -0.031601402908563614,
            -0.08177945762872696,
            -0.1169850304722786,
            0.11812029778957367,
            0.20269259810447693,
            0.2803765535354614,
            -0.08423613011837006,
            -0.08766386657953262,
            0.20725788176059723,
            -0.2542329728603363,
            -0.0443304106593132,
            -0.2226714938879013,
            0.11111589521169662,
            0.22809280455112457,
            0.022820353507995605,
            -0.23803730309009552,
            -0.004168311133980751,
            -0.14176082611083984,
            -0.07150571048259735,
            0.12730464339256287,
            0.12783733010292053,
            0.09687617421150208,
            0.05928144231438637,
            -0.09587220102548599,
            -0.5108069181442261,
            0.21744468808174133,
            0.11458135396242142,
            -0.1433647871017456,
            -0.07577534019947052,
            0.1363474726676941,
            -0.256783664226532,
            0.014308079145848751,
            -0.1527256965637207,
            -0.22116006910800934,
            -0.01514291763305664,
            0.10702890157699585,
            0.18306265771389008
          ],
          "bias": 0.07016736268997192,
          "activation": "relu"
        },
        {
          "weights": [
            -0.15384860336780548,
            -0.14769893884658813,
            0.11730222404003143,
            -0.24653969705104828,
            0.059478115290403366,
            -0.034521810710430145,
            -0.043647393584251404,
            -0.15569400787353516,
            -0.19639119505882263,
            0.05007118731737137,
            0.005995631217956543,
            -0.24503032863140106,
            -0.09229493886232376,
            -0.028033960610628128,
            -0.1970447450876236,
            -0.051994115114212036,
            -0.02109321393072605,
            0.020434321835637093,
            -0.14881525933742523,
            -0.12627661228179932,
            -0.0015635605668649077,
            0.17980140447616577,
            -0.1282363086938858,
            0.02283453941345215,
            -0.09011915326118469,
            0.09634546935558319,
            -0.1933150291442871,
            0.028959671035408974,
            -0.17659249901771545,
            -0.03894323855638504,
            -0.2368106245994568,
            -0.2576759457588196,
            -0.06625886261463165,
            0.11519414186477661,
            -0.007922559976577759,
            0.17447419464588165,
            -0.002150237560272217,
            -0.24721312522888184,
            -0.1314505636692047,
            -0.02625407837331295,
            -0.1456834077835083,
            -0.15115424990653992,
            0.17317530512809753,
            0.2020224779844284,
            -0.05303660035133362,
            -0.24173277616500854,
            0.16851244866847992,
            -0.13511529564857483,
            -0.015308715403079987,
            0.23620247840881348,
            -0.20384782552719116,
            0.09377838671207428,
            0.16197799146175385,
            -0.24150803685188293,
            0.1296849250793457,
            -0.10041169822216034,
            -0.1736716479063034,
            -0.02549123764038086,
            -0.02926170825958252,
            -0.2239016890525818,
            0.0177379809319973,
            0.06324542313814163,
            0.10024616122245789,
            -0.06530053168535233
          ],
          "bias": -0.02081274427473545,
          "activation": "relu"
        },
        {
          "weights": [
            -0.22865477204322815,
            -0.13293658196926117,
            -0.051077306270599365,
            -0.30348944664001465,
            0.2733188569545746,
            0.14220905303955078,
            0.02239222265779972,
            -0.15958240628242493,
            -0.07620187848806381,
            -0.150258868932724,
            0.1474563479423523,
            0.03525958210229874,
            -0.14911828935146332,
            -0.07655514031648636,
            -0.10132034868001938,
            -0.08447912335395813,
            0.17275074124336243,
            0.2796650230884552,
            0.18911010026931763,
            -0.015912972390651703,
            -0.01987496390938759,
            -0.013318673707544804,
            0.13526366651058197,
            -0.2124021351337433,
            -0.10375845432281494,
            0.07842294126749039,
            -0.08811899274587631,
            0.18165571987628937,
            -0.06353169679641724,
            -0.07186192274093628,
            -0.23984022438526154,
            -0.031262923032045364,
            0.10172340273857117,
            -0.10570042580366135,
            -0.06184333190321922,
            0.0649198442697525,
            0.13992394506931305,
            0.09137400984764099,
            0.04580579698085785,
            0.013841881416738033,
            -0.14853648841381073,
            0.04288962483406067,
            0.12253277003765106,
            0.14795564115047455,
            0.038961492478847504,
            0.045335713773965836,
            0.25622135400772095,
            0.11626365780830383,
            0.2982170581817627,
            0.2654496431350708,
            -0.07547040283679962,
            0.18428319692611694,
            0.27280476689338684,
            0.12615880370140076,
            0.07022347301244736,
            0.08251664787530899,
            0.0794801265001297,
            0.004511557053774595,
            -0.29363033175468445,
            -0.06718846410512924,
            0.03850746899843216,
            0.03585660457611084,
            0.0855914056301117,
            0.16022560000419617
          ],
          "bias": 0.0020264149643480778,
          "activation": "relu"
        },
        {
          "weights": [
            0.24338796734809875,
            -0.07838615775108337,
            -0.08064917474985123,
            0.17447561025619507,
            -0.21157675981521606,
            -0.13142584264278412,
            0.24801094830036163,
            -0.10931786149740219,
            -0.15075895190238953,
            -0.18146349489688873,
            0.2982632517814636,
            0.18399201333522797,
            -0.038289815187454224,
            -0.10600476711988449,
            -0.27226197719573975,
            -0.04151954501867294,
            0.06557897478342056,
            0.20714695751667023,
            -0.2126089185476303,
            0.07687479257583618,
            0.14907081425189972,
            0.19906829297542572,
            0.19313190877437592,
            0.1816219985485077,
            -0.22854208946228027,
            -0.2840154767036438,
            0.06422146409749985,
            -0.2603287100791931,
            -0.15407679975032806,
            -0.060218822211027145,
            0.32190588116645813,
            0.027945632115006447,
            -0.11932578682899475,
            -0.3023543655872345,
            0.2441510111093521,
            0.3007303774356842,
            -0.13041462004184723,
            -0.38642024993896484,
            -0.17374637722969055,
            0.13574856519699097,
            -0.022338762879371643,
            -0.056778620928525925,
            -0.07709670811891556,
            -0.2851276695728302,
            -0.22666260600090027,
            0.371412992477417,
            -0.04722271487116814,
            -0.2164938896894455,
            -0.32378441095352173,
            -0.3799527585506439,
            -0.2881608307361603,
            0.06512069702148438,
            -0.14788469672203064,
            -0.09286221861839294,
            0.15151166915893555,
            -0.10947117954492569,
            -0.08742843568325043,
            0.04422627389431,
            -0.13474223017692566,
            0.13474948704242706,
            0.08785617351531982,
            -0.1112545058131218,
            -0.34294766187667847,
            -0.19814759492874146
          ],
          "bias": 0.03557043895125389,
          "activation": "relu"
        },
        {
          "weights": [
            0.19134089350700378,
            0.23556576669216156,
            0.15958063304424286,
            -0.14719489216804504,
            0.06766538321971893,
            -0.04545319080352783,
            0.01227114349603653,
            -0.06282829493284225,
            0.016140097752213478,
            0.09370122849941254,
            -0.019138997420668602,
            0.26556161046028137,
            0.058856721967458725,
            -0.06682924181222916,
            -0.22132685780525208,
            -0.3335135281085968,
            0.14298059046268463,
            0.2555103898048401,
            -0.20975713431835175,
            0.30409476161003113,
            0.2740340232849121,
            0.006890515796840191,
            -0.1050509437918663,
            -0.05412209406495094,
            -0.11588626354932785,
            0.20923784375190735,
            -0.0575709268450737,
            -0.2311759889125824,
            -0.06666357070207596,
            -0.15148091316223145,
            -0.408612996339798,
            0.14059536159038544,
            0.28963354229927063,
            -0.242356076836586,
            0.2521152198314667,
            -0.20326346158981323,
            -0.20819297432899475,
            0.22998304665088654,
            -0.08975586295127869,
            -0.01864815130829811,
            -0.08948741108179092,
            -0.3408726751804352,
            -0.07885631918907166,
            -0.05292012169957161,
            0.26472967863082886,
            -0.14218224585056305,
            0.2677726447582245,
            -0.2867078185081482,
            0.34744369983673096,
            0.17978402972221375,
            0.16643036901950836,
            -0.1961289495229721,
            -0.023028366267681122,
            -0.10666248947381973,
            -0.15121608972549438,
            -0.11732971668243408,
            0.26641348004341125,
            0.08685406297445297,
            0.10950380563735962,
            0.06674482673406601,
            0.024249915033578873,
            -0.030235735699534416,
            0.006775972433388233,
            -0.05810777097940445
          ],
          "bias": 0.022380180656909943,
          "activation": "relu"
        },
        {
          "weights": [
            0.20236530900001526,
            0.24113903939723969,
            0.2173052728176117,
            0.21662284433841705,
            0.27836722135543823,
            -0.22226451337337494,
            0.1392832100391388,
            0.22488699853420258,
            -0.05922350287437439,
            -0.23180504143238068,
            0.24364960193634033,
            -0.15253962576389313,
            0.2339954823255539,
            -0.00979089830070734,
            -0.036110032349824905,
            0.1013312041759491,
            0.07352171093225479,
            0.2834376096725464,
            -0.1116524189710617,
            -0.19612325727939606,
            -0.2983535826206207,
            -0.20985306799411774,
            -0.028218451887369156,
            0.038736552000045776,
            0.17320245504379272,
            0.27597713470458984,
            0.2356691211462021,
            0.18522576987743378,
            -0.11431141942739487,
            -0.1064934954047203,
            -0.04093972593545914,
            -0.07314997911453247,
            -0.051509857177734375,
            0.06165425851941109,
            0.1223849430680275,
            0.19852393865585327,
            0.11370345205068588,
            -0.018806053325533867,
            0.20147553086280823,
            -0.009483521804213524,
            -0.0023341772612184286,
            0.06065409630537033,
            -0.3619801700115204,
            0.24299457669258118,
            0.040788207203149796,
            -0.06378917396068573,
            -0.06431438028812408,
            0.26628586649894714,
            0.09490317106246948,
            0.18789193034172058,
            -0.27516159415245056,
            0.11011054366827011,
            0.0400884710252285,
            0.11948642134666443,
            -0.14397519826889038,
            -0.0010752597590908408,
            -0.11264504492282867,
            -0.02278985269367695,
            0.16458074748516083,
            -0.18638814985752106,
            0.29861876368522644,
            0.032606612890958786,
            0.24149318039417267,
            -0.06805337965488434
          ],
          "bias": -0.4089662432670593,
          "activation": "relu"
        },
        {
          "weights": [
            -0.04776006191968918,
            -0.24969112873077393,
            -0.02076154761016369,
            0.10458555817604065,
            0.14697107672691345,
            0.12749658524990082,
            -0.026641281321644783,
            -0.11315888911485672,
            0.17889924347400665,
            -0.03740378096699715,
            0.21671682596206665,
            -0.2563629448413849,
            0.275285542011261,
            0.25795289874076843,
            -0.0896981880068779,
            0.1906214952468872,
            0.12718912959098816,
            0.04207249730825424,
            -0.10386213660240173,
            -0.034558769315481186,
            0.24113208055496216,
            0.1075335294008255,
            -0.06974687427282333,
            -0.28610658645629883,
            -0.03750548139214516,
            0.01817362941801548,
            -0.2247193157672882,
            -0.09678839892148972,
            0.05712192505598068,
            0.09315510839223862,
            -0.1698511391878128,
            0.14295519888401031,
            0.26250842213630676,
            -0.04409431293606758,
            0.054467398673295975,
            0.18656887114048004,
            0.1977854073047638,
            -0.05236786976456642,
            -0.08749499171972275,
            -0.20819346606731415,
            -0.18968665599822998,
            -0.054563481360673904,
            0.16391147673130035,
            -0.10747595876455307,
            0.4514414966106415,
            -0.02903103642165661,
            -0.014130761846899986,
            -0.11668661236763,
            0.2539823055267334,
            0.17621295154094696,
            0.09693228453397751,
            -0.17724475264549255,
            -0.1695391684770584,
            0.11502622067928314,
            0.1755906194448471,
            -0.268414705991745,
            -0.10056166350841522,
            0.1771135777235031,
            -0.051332566887140274,
            -0.10040183365345001,
            0.2413346916437149,
            0.17962005734443665,
            -0.1622314453125,
            -0.11532691866159439
          ],
          "bias": 0.14621883630752563,
          "activation": "relu"
        },
        {
          "weights": [
            -0.037164755165576935,
            -0.1991642713546753,
            0.07878167927265167,
            -0.11035699397325516,
            0.05121331289410591,
            -0.1967146098613739,
            -0.4103045165538788,
            -0.21933692693710327,
            0.12119948863983154,
            -0.08641240745782852,
            -0.030558807775378227,
            0.09472686052322388,
            0.09780386835336685,
            0.29721447825431824,
            -0.3617731034755707,
            0.08470495045185089,
            0.11732950806617737,
            0.1272249072790146,
            0.04340306296944618,
            -0.18116630613803864,
            0.030481338500976562,
            0.09384216368198395,
            0.011365926824510098,
            -0.04510338231921196,
            -0.19829300045967102,
            -0.11859310418367386,
            -0.004280332010239363,
            0.19377516210079193,
            0.014786784537136555,
            -0.13205745816230774,
            0.04298778623342514,
            0.27964648604393005,
            0.07556983083486557,
            -0.39951595664024353,
            -0.10476823151111603,
            0.053933653980493546,
            -0.3115369975566864,
            -0.21254974603652954,
            -0.1463490128517151,
            -0.032405149191617966,
            -0.2480042576789856,
            -0.16485652327537537,
            -0.15604747831821442,
            -0.1736290156841278,
            -0.014764324761927128,
            -0.08275773376226425,
            -0.16615553200244904,
            0.1190970242023468,
            0.11738909035921097,
            0.09469741582870483,
            -0.4492141902446747,
            -0.164836123585701,
            -0.15354229509830475,
            -0.04514950141310692,
            -0.06420215964317322,
            -0.43108510971069336,
            0.07842152565717697,
            0.039982110261917114,
            0.21890363097190857,
            -0.1278124302625656,
            -0.1142326295375824,
            0.10793069750070572,
            -0.11209776252508163,
            -0.06598924845457077
          ],
          "bias": -0.21246235072612762,
          "activation": "relu"
        },
        {
          "weights": [
            0.12411858886480331,
            0.1567072719335556,
            0.1491607129573822,
            0.06286484003067017,
            0.20245951414108276,
            0.1540386825799942,
            -0.04847506806254387,
            -0.1094418540596962,
            0.05050329864025116,
            0.1446724236011505,
            0.12729725241661072,
            -0.19548866152763367,
            -0.008217919617891312,
            -0.19753147661685944,
            0.07462464272975922,
            0.10768184065818787,
            -0.17232735455036163,
            0.13274388015270233,
            0.005929413717240095,
            0.053397491574287415,
            -0.2229643017053604,
            0.08924596756696701,
            0.15190882980823517,
            -0.09637580811977386,
            0.14029182493686676,
            0.04568309336900711,
            0.07051834464073181,
            0.020871449261903763,
            0.15114548802375793,
            -0.23050719499588013,
            0.03935876488685608,
            0.3837566077709198,
            -0.18916651606559753,
            -0.22244301438331604,
            -0.13177631795406342,
            -0.23198631405830383,
            -0.09039878100156784,
            -0.10027731955051422,
            -0.1075628250837326,
            0.08546493947505951,
            -0.12228791415691376,
            0.0691252276301384,
            -0.08511725813150406,
            0.12683600187301636,
            -0.1941264122724533,
            0.05399144068360329,
            0.26897573471069336,
            0.06733793765306473,
            -0.06010543927550316,
            -0.004670031368732452,
            0.17465324699878693,
            -0.1740012764930725,
            -0.22790458798408508,
            0.08417115360498428,
            -0.16270695626735687,
            0.21793650090694427,
            -0.19263850152492523,
            -0.20350578427314758,
            -0.1259835660457611,
            0.11435959488153458,
            0.2306174635887146,
            0.09396863728761673,
            0.10086296498775482,
            0.04316394776105881
          ],
          "bias": -0.1608308106660843,
          "activation": "relu"
        },
        {
          "weights": [
            -0.08522264659404755,
            -0.12842583656311035,
            0.13083313405513763,
            -0.45535609126091003,
            0.18688513338565826,
            0.21805202960968018,
            -0.11751259863376617,
            -0.15111111104488373,
            -0.170798197388649,
            0.4581318497657776,
            -0.10721689462661743,
            -0.23969890177249908,
            0.13733422756195068,
            0.0579957440495491,
            -0.23302149772644043,
            0.049543898552656174,
            0.0824899822473526,
            0.12510472536087036,
            -0.08237909525632858,
            0.3275925815105438,
            0.10501589626073837,
            -0.11440177261829376,
            -0.15037798881530762,
            0.0820930153131485,
            0.08652910590171814,
            0.033562298864126205,
            -0.35727471113204956,
            -0.06983456015586853,
            -0.12316972762346268,
            0.03620290756225586,
            -0.08575177192687988,
            0.05551964417099953,
            -0.13467958569526672,
            0.05967244878411293,
            -0.2981427013874054,
            -0.09691103547811508,
            -0.02251240611076355,
            -0.06929411739110947,
            0.11068829894065857,
            -0.32217180728912354,
            -0.1830790787935257,
            -0.1479015201330185,
            0.0641738772392273,
            -0.32995933294296265,
            -0.008094965480268002,
            0.019235240295529366,
            0.10370828956365585,
            -0.05660846084356308,
            0.15282070636749268,
            0.1264783889055252,
            -0.1157173439860344,
            -0.12727251648902893,
            0.4146738648414612,
            -0.11604870110750198,
            -0.07324732840061188,
            0.2420085370540619,
            0.06713968515396118,
            0.028198910877108574,
            -0.37568536400794983,
            0.1288335919380188,
            0.22764746844768524,
            0.08632520586252213,
            0.17393286526203156,
            -0.2603825628757477
          ],
          "bias": 0.053863346576690674,
          "activation": "relu"
        },
        {
          "weights": [
            -0.12396099418401718,
            0.31704941391944885,
            0.3273453712463379,
            -0.014951031655073166,
            0.2748447060585022,
            -0.06999649852514267,
            0.15288709104061127,
            0.099013552069664,
            0.4099600613117218,
            0.37071657180786133,
            0.017404505982995033,
            -0.24903832376003265,
            -0.12295015156269073,
            -0.2757621705532074,
            -0.30823516845703125,
            -0.05977353826165199,
            0.25399619340896606,
            0.08688902854919434,
            -0.29899120330810547,
            -0.6552610993385315,
            0.16619311273097992,
            0.3528529107570648,
            -0.046000078320503235,
            -1.2140107154846191,
            -0.13164252042770386,
            0.25206926465034485,
            -0.05825899541378021,
            0.317433625459671,
            -0.47501441836357117,
            -0.1424095630645752,
            0.043192870914936066,
            0.3640376329421997,
            0.12462236732244492,
            0.1244378387928009,
            -0.6210078597068787,
            -0.013605534099042416,
            -0.0024520540609955788,
            -0.21695338189601898,
            -0.05743842571973801,
            0.003162287175655365,
            -0.29069963097572327,
            0.13472624123096466,
            0.03111395053565502,
            0.2220052182674408,
            -0.062094856053590775,
            -0.2954332232475281,
            0.15127244591712952,
            -0.2335730940103531,
            0.12199666351079941,
            -0.0951911136507988,
            -1.0918853282928467,
            -0.05776788666844368,
            -0.2992842495441437,
            0.12539392709732056,
            -0.09040360897779465,
            0.2633724808692932,
            -0.025492582470178604,
            0.1029946431517601,
            -0.6237903237342834,
            0.18581639230251312,
            -0.11301688104867935,
            0.21219676733016968,
            0.38923314213752747,
            -0.003711308352649212
          ],
          "bias": 0.0757993832230568,
          "activation": "relu"
        },
        {
          "weights": [
            -0.07064753770828247,
            0.1492760330438614,
            0.1570867896080017,
            -0.2762337923049927,
            0.03367049992084503,
            -0.20721662044525146,
            -0.5595654249191284,
            -0.2079077810049057,
            0.322067528963089,
            -0.05223379284143448,
            -0.4262687563896179,
            0.15820176899433136,
            -0.0035651710350066423,
            0.06123735010623932,
            0.16631284356117249,
            0.20108996331691742,
            0.0950290784239769,
            -0.13196298480033875,
            -0.4605472683906555,
            0.3058635890483856,
            0.09529832005500793,
            -0.3324463963508606,
            -0.2556490898132324,
            0.05398884043097496,
            -0.06613791733980179,
            -0.10586097091436386,
            -1.5520951747894287,
            0.16045959293842316,
            0.09301910549402237,
            -0.08357638120651245,
            -0.31313610076904297,
            0.003990352153778076,
            0.264248788356781,
            -0.7998418807983398,
            -0.3513469994068146,
            -0.056119177490472794,
            -0.18134145438671112,
            0.3480428159236908,
            -0.08387096971273422,
            -0.012342294678092003,
            0.14711058139801025,
            -0.20812222361564636,
            -0.14188061654567719,
            -0.10006806254386902,
            0.024825362488627434,
            -0.39280804991722107,
            0.2715662121772766,
            0.16374969482421875,
            0.6168673634529114,
            0.3623238503932953,
            -0.17719483375549316,
            -0.1365056186914444,
            0.3357137143611908,
            0.0760459154844284,
            -0.1324245184659958,
            -0.07825852185487747,
            0.021271437406539917,
            -0.4052635431289673,
            -0.14228980243206024,
            0.05210793763399124,
            0.018507355824112892,
            -0.12222011387348175,
            0.17492669820785522,
            0.24391695857048035
          ],
          "bias": -0.04594556242227554,
          "activation": "relu"
        },
        {
          "weights": [
            -0.034919168800115585,
            0.08580806106328964,
            -0.1365976780653,
            0.1300845444202423,
            -0.08349321037530899,
            0.04276140406727791,
            -0.32344451546669006,
            -0.16062550246715546,
            0.021895861253142357,
            0.2314928025007248,
            0.3466866910457611,
            -0.2620788514614105,
            0.10058944672346115,
            0.1837305873632431,
            0.08746065199375153,
            0.20402950048446655,
            -0.15853816270828247,
            0.1591409146785736,
            -0.0187425147742033,
            -0.33646559715270996,
            -0.00206021242775023,
            -0.05844513326883316,
            -0.19781294465065002,
            0.09158119559288025,
            0.20554275810718536,
            -0.23150916397571564,
            -0.39649295806884766,
            0.28928452730178833,
            -0.13865426182746887,
            0.16928516328334808,
            0.1533779501914978,
            -0.17127151787281036,
            0.18938446044921875,
            -0.36083897948265076,
            -0.024126658216118813,
            0.21815480291843414,
            0.3238937556743622,
            0.10440758615732193,
            0.21766023337841034,
            -0.33503466844558716,
            0.1751963347196579,
            -0.12021267414093018,
            -0.10679294168949127,
            0.2454611361026764,
            0.3052847981452942,
            0.18643757700920105,
            0.2199762612581253,
            0.20802868902683258,
            -0.11765310913324356,
            0.13054050505161285,
            -0.0756293311715126,
            -0.3231930434703827,
            -0.016118712723255157,
            -0.07854853570461273,
            0.04135729372501373,
            0.1817445307970047,
            -0.08615841716527939,
            -0.2804269790649414,
            0.053735632449388504,
            0.1989246904850006,
            0.2468119114637375,
            0.06619816273450851,
            0.11258220672607422,
            0.16887372732162476
          ],
          "bias": 0.06520844250917435,
          "activation": "relu"
        },
        {
          "weights": [
            0.20164744555950165,
            0.008035538718104362,
            0.34440869092941284,
            -0.16606372594833374,
            0.38254278898239136,
            -0.10533082485198975,
            0.06443552672863007,
            -0.0801217332482338,
            -0.2113804817199707,
            -0.10657674074172974,
            0.1223263144493103,
            0.15401317179203033,
            0.2841385006904602,
            -0.13084284961223602,
            -0.060414280742406845,
            -0.33896610140800476,
            -0.03063644841313362,
            -0.10646060109138489,
            -0.32420507073402405,
            0.23930302262306213,
            0.015957972034811974,
            -0.07461156696081161,
            0.006069250870496035,
            0.2906651794910431,
            -0.017666513100266457,
            0.44056791067123413,
            -0.1123935729265213,
            -0.053908709436655045,
            -0.00221822876483202,
            -0.010557154193520546,
            -0.19424141943454742,
            0.21098124980926514,
            0.21463967859745026,
            0.19854441285133362,
            -0.08712276071310043,
            0.060264889150857925,
            0.0004291724762879312,
            -0.19531196355819702,
            0.1169055849313736,
            -0.18009509146213531,
            -0.10658733546733856,
            0.1281553953886032,
            0.18476809561252594,
            -0.24418990314006805,
            -0.2531593441963196,
            -0.23423561453819275,
            0.3178887367248535,
            0.11925897002220154,
            -0.14937956631183624,
            -0.3089321553707123,
            0.3027201294898987,
            0.15797483921051025,
            0.10894757509231567,
            0.17576196789741516,
            0.15959204733371735,
            0.10612068325281143,
            0.10108020901679993,
            -0.25728222727775574,
            -0.2111167311668396,
            -0.2896537482738495,
            0.15398117899894714,
            0.1922682523727417,
            5.965572199784219e-05,
            -0.15072020888328552
          ],
          "bias": -0.03520112857222557,
          "activation": "relu"
        },
        {
          "weights": [
            0.10190355777740479,
            0.2622382342815399,
            0.34225985407829285,
            0.16918529570102692,
            -0.11487537622451782,
            0.21113541722297668,
            -0.08295022696256638,
            0.10367582738399506,
            0.08441048860549927,
            0.130201056599617,
            -0.13944122195243835,
            -0.0424111969769001,
            0.031729914247989655,
            0.12185382843017578,
            0.04755183309316635,
            -0.0013582899700850248,
            0.1446036398410797,
            0.0563187301158905,
            -0.1765739470720291,
            0.06022867187857628,
            -0.08604975044727325,
            -0.1464267373085022,
            0.0001869906554929912,
            0.1615859866142273,
            -0.007888147607445717,
            -0.04435927793383598,
            0.0719333291053772,
            0.18951968848705292,
            -0.06465156376361847,
            0.020342696458101273,
            -0.27243903279304504,
            -0.20977537333965302,
            0.15982593595981598,
            -0.16963081061840057,
            0.21742592751979828,
            0.07048912346363068,
            -0.2059105783700943,
            0.007271614857017994,
            0.02567906305193901,
            -0.23402488231658936,
            0.21303819119930267,
            -0.06939078122377396,
            -0.11355585604906082,
            0.050890471786260605,
            0.07016171514987946,
            -0.2133849412202835,
            -0.12138527631759644,
            -0.07166478782892227,
            0.08828900754451752,
            0.1923188865184784,
            -0.03522524982690811,
            0.006595012731850147,
            0.12334726005792618,
            -0.12071241438388824,
            0.23452173173427582,
            -0.08774641901254654,
            0.07997620105743408,
            -0.04329395294189453,
            0.0015481298323720694,
            0.17175056040287018,
            0.06767835468053818,
            -0.1349346935749054,
            -0.19346632063388824,
            0.1538238376379013
          ],
          "bias": 0.03995378687977791,
          "activation": "relu"
        },
        {
          "weights": [
            -0.28577080368995667,
            -0.32915765047073364,
            0.17267470061779022,
            -0.01526127103716135,
            -0.08842507004737854,
            0.11383643001317978,
            -0.28692615032196045,
            -0.2987152934074402,
            0.09580669552087784,
            -0.006641649175435305,
            -0.16163301467895508,
            -0.13631905615329742,
            -0.0037918181624263525,
            0.2981749176979065,
            0.1297624558210373,
            -0.3419138789176941,
            -0.2829837501049042,
            0.10444304347038269,
            0.051332566887140274,
            0.018200505524873734,
            0.3483960032463074,
            0.038659460842609406,
            0.019916169345378876,
            -0.9863103628158569,
            0.2599501609802246,
            0.2037271112203598,
            -0.12735742330551147,
            0.23866583406925201,
            -0.6844635009765625,
            0.18633875250816345,
            -0.09325346350669861,
            -0.07875184714794159,
            0.061766598373651505,
            -0.4339790642261505,
            -0.3621884286403656,
            0.028569361194968224,
            -0.1438233107328415,
            0.04366211220622063,
            -0.049034085124731064,
            0.02753906138241291,
            0.2093794345855713,
            0.001082505681551993,
            0.17258478701114655,
            -0.24600906670093536,
            -0.1264050304889679,
            0.004941736813634634,
            -0.017096051946282387,
            -0.4606449007987976,
            0.2886596918106079,
            0.36853674054145813,
            -0.9077892899513245,
            -0.10019591450691223,
            -0.2618516683578491,
            0.04186876863241196,
            -0.24513466656208038,
            -0.31489017605781555,
            0.08988030254840851,
            -0.1476677656173706,
            -0.5180454254150391,
            -0.04139106720685959,
            0.3672427535057068,
            0.21578365564346313,
            0.4978608787059784,
            0.09066460281610489
          ],
          "bias": -0.019762571901082993,
          "activation": "relu"
        },
        {
          "weights": [
            -0.2045314610004425,
            0.2485230714082718,
            -0.12287328392267227,
            -0.2837713658809662,
            0.23625582456588745,
            0.1464172750711441,
            -0.05504533275961876,
            -0.24904607236385345,
            0.10929153859615326,
            -0.039328522980213165,
            0.15162065625190735,
            0.19310927391052246,
            0.020052550360560417,
            0.1126139760017395,
            -0.2293185442686081,
            0.0975315272808075,
            0.019425170496106148,
            -0.09980884194374084,
            -0.3344804346561432,
            0.4143703877925873,
            -0.017744312062859535,
            0.02171005867421627,
            0.16899852454662323,
            0.2673647403717041,
            -0.2189728319644928,
            0.052806392312049866,
            -0.519110381603241,
            0.03688078373670578,
            -0.06902734190225601,
            -0.14211152493953705,
            0.07117077708244324,
            0.0935664027929306,
            -0.04027910158038139,
            0.08353898674249649,
            -0.19536012411117554,
            0.02509516477584839,
            0.0880967304110527,
            -0.22255109250545502,
            -0.04686502739787102,
            -0.11586770415306091,
            0.2307322919368744,
            -0.06273002922534943,
            -0.07181313633918762,
            0.23973476886749268,
            -0.09194160997867584,
            -0.18774957954883575,
            0.026497168466448784,
            -0.20798920094966888,
            -0.23711317777633667,
            0.08609044551849365,
            0.2064020037651062,
            -0.04171130433678627,
            0.2705163061618805,
            0.025584854185581207,
            0.25758153200149536,
            -0.018854688853025436,
            0.01683436706662178,
            0.13412055373191833,
            -0.28527364134788513,
            0.017865177243947983,
            -0.2591671049594879,
            0.0944492518901825,
            -0.21441344916820526,
            0.03823157772421837
          ],
          "bias": 0.03726338967680931,
          "activation": "relu"
        },
        {
          "weights": [
            -0.14036065340042114,
            0.1127764880657196,
            0.22972381114959717,
            -0.030280807986855507,
            0.41675034165382385,
            -0.14905208349227905,
            0.4032614529132843,
            0.1459200382232666,
            -0.11801661550998688,
            -0.28729742765426636,
            0.24297674000263214,
            0.06626391410827637,
            0.047381363809108734,
            0.16031375527381897,
            -0.09771180897951126,
            0.13433322310447693,
            0.04740164056420326,
            0.12958191335201263,
            0.17853868007659912,
            0.2576843500137329,
            -0.2820340096950531,
            -0.004503528121858835,
            -0.13305078446865082,
            0.11343726515769958,
            -0.05393102392554283,
            0.38111114501953125,
            -0.05033168941736221,
            0.1158873662352562,
            0.254916250705719,
            -0.23195195198059082,
            -0.03273667022585869,
            -0.059546228498220444,
            0.028073640540242195,
            0.19261972606182098,
            0.06620778143405914,
            -0.01580696366727352,
            -0.04691137373447418,
            -0.23056331276893616,
            0.2117687463760376,
            -0.22885525226593018,
            0.18500357866287231,
            0.18348486721515656,
            -0.05840478464961052,
            0.14006954431533813,
            -0.0005389440921135247,
            -0.10459131747484207,
            -0.09522940963506699,
            0.22241367399692535,
            -0.2827990651130676,
            0.16077792644500732,
            0.022594602778553963,
            0.0005653344560414553,
            0.058615542948246,
            -0.0062870061956346035,
            0.08997473120689392,
            -0.153740793466568,
            -0.0807090625166893,
            -0.24538986384868622,
            -0.14965768158435822,
            0.12178151309490204,
            -0.13055098056793213,
            0.12285220623016357,
            0.02560899592936039,
            0.03793308138847351
          ],
          "bias": -0.326233834028244,
          "activation": "relu"
        },
        {
          "weights": [
            -0.21663309633731842,
            0.17769259214401245,
            -0.21310624480247498,
            -0.24191522598266602,
            0.241968035697937,
            0.09676889330148697,
            0.07731811702251434,
            0.011500682681798935,
            -0.052217841148376465,
            0.14273317158222198,
            0.13945405185222626,
            0.035086892545223236,
            0.21525675058364868,
            -0.2760264277458191,
            -0.1454649567604065,
            -0.20064163208007812,
            -0.17716790735721588,
            -0.08968012034893036,
            0.08213400840759277,
            -0.18963849544525146,
            -0.3759876489639282,
            0.1538967490196228,
            -0.007759441155940294,
            0.038071129471063614,
            -0.09948544949293137,
            0.12612426280975342,
            -0.005810758098959923,
            0.0642411857843399,
            -0.0660400390625,
            0.08871087431907654,
            -0.05721798911690712,
            -0.4411073625087738,
            0.12896712124347687,
            0.1778496354818344,
            -0.06962157040834427,
            -0.09988299012184143,
            0.09454236924648285,
            -0.11520710587501526,
            0.16458815336227417,
            0.01168341375887394,
            0.24872596561908722,
            -0.03147326409816742,
            -0.23005136847496033,
            -0.009750478900969028,
            -0.07150137424468994,
            0.1930851936340332,
            0.36902064085006714,
            0.18806155025959015,
            -0.19464288651943207,
            -0.16918827593326569,
            -0.058242812752723694,
            -0.4270769953727722,
            0.12872061133384705,
            -0.27953672409057617,
            0.14683420956134796,
            0.14802737534046173,
            -0.21223191916942596,
            0.13942359387874603,
            0.18058796226978302,
            -0.09482785314321518,
            -0.2048511505126953,
            -0.21129655838012695,
            0.08015803247690201,
            -0.04273926839232445
          ],
          "bias": -0.15974725782871246,
          "activation": "relu"
        },
        {
          "weights": [
            -0.025783490389585495,
            0.09535539895296097,
            0.3254743218421936,
            -0.14573930203914642,
            0.3114595413208008,
            0.02425108104944229,
            -0.16511766612529755,
            0.14202332496643066,
            0.1095733717083931,
            -0.1542978286743164,
            0.027910616248846054,
            0.2110501527786255,
            0.12725497782230377,
            0.03742644563317299,
            -0.10800041258335114,
            0.2227754443883896,
            -0.1878347396850586,
            0.3381515443325043,
            -0.07472484558820724,
            0.2902858257293701,
            -0.03573513403534889,
            0.19729219377040863,
            0.16984395682811737,
            -0.17875075340270996,
            -0.09101150184869766,
            0.009368879720568657,
            0.158507838845253,
            -0.11955909430980682,
            0.12342673540115356,
            -0.06054261699318886,
            0.09093162417411804,
            -0.028930816799402237,
            0.11103864759206772,
            0.21862879395484924,
            0.265972763299942,
            -0.08107294887304306,
            -0.16813860833644867,
            0.10400648415088654,
            -0.09959963709115982,
            -0.1694071739912033,
            -0.10359841585159302,
            0.17683985829353333,
            -0.06353432685136795,
            -0.008686537854373455,
            -0.0008022116962820292,
            0.035165607929229736,
            0.05562371760606766,
            0.20623131096363068,
            0.19401882588863373,
            -0.2752196192741394,
            0.3106954097747803,
            -0.1366102248430252,
            0.22135327756404877,
            0.16333699226379395,
            0.1499834656715393,
            0.07164808362722397,
            -0.1925402283668518,
            0.035649340599775314,
            0.14125074446201324,
            -0.0515885129570961,
            0.08114475011825562,
            -0.13452114164829254,
            -0.06503632664680481,
            0.0189815666526556
          ],
          "bias": 0.02405574358999729,
          "activation": "relu"
        },
        {
          "weights": [
            -0.11944528669118881,
            -0.076253242790699,
            -0.07638213038444519,
            -0.2618201971054077,
            0.007964961230754852,
            0.1819719821214676,
            -0.0010969920549541712,
            -0.11974065005779266,
            -0.013049786910414696,
            0.1972590535879135,
            0.16880667209625244,
            -0.18743428587913513,
            0.2942126989364624,
            -0.024697571992874146,
            -0.10594772547483444,
            -0.08670161664485931,
            0.10883348435163498,
            -0.12402767688035965,
            -0.003268750151619315,
            0.18948312103748322,
            0.0708102136850357,
            0.222909078001976,
            -0.0993661880493164,
            0.06121739000082016,
            -0.05797809362411499,
            0.25865429639816284,
            -0.5835334658622742,
            0.22968651354312897,
            -0.20574353635311127,
            -0.21076852083206177,
            0.11867659538984299,
            -0.13855300843715668,
            0.15650412440299988,
            0.23690763115882874,
            -0.3171849548816681,
            0.04624735563993454,
            0.05884835869073868,
            -0.012669348157942295,
            0.217440664768219,
            -0.07486394047737122,
            -0.1965806931257248,
            -0.022899044677615166,
            0.24355590343475342,
            -0.032109737396240234,
            -0.026411212980747223,
            -0.14884695410728455,
            0.09428884088993073,
            0.1735692173242569,
            -0.01203880738466978,
            0.0886765867471695,
            0.14178070425987244,
            -0.13801920413970947,
            0.10977765172719955,
            0.07541295140981674,
            -0.0182071290910244,
            0.27571049332618713,
            -0.03979204222559929,
            0.013707633130252361,
            -0.2884488105773926,
            0.08991096168756485,
            -0.1872246116399765,
            0.014437305741012096,
            -0.1975979208946228,
            -0.09927771985530853
          ],
          "bias": 0.11992406100034714,
          "activation": "relu"
        },
        {
          "weights": [
            -0.031497783958911896,
            -0.2645610570907593,
            -0.24040374159812927,
            -0.3093283772468567,
            0.0806049183011055,
            0.29577118158340454,
            -0.20152370631694794,
            0.059638917446136475,
            0.25155165791511536,
            0.2589415907859802,
            -0.46334055066108704,
            -0.20786216855049133,
            -0.3024129867553711,
            0.1478874385356903,
            0.10397756844758987,
            -0.05186629295349121,
            -0.25166788697242737,
            0.2443329244852066,
            0.03946683928370476,
            -0.13490378856658936,
            0.18389420211315155,
            -0.1084124892950058,
            0.03217397630214691,
            -0.06765063107013702,
            0.24627958238124847,
            -0.12503553926944733,
            -0.3300384283065796,
            -0.14225414395332336,
            0.08053484559059143,
            -0.0032396328169852495,
            0.002512140665203333,
            0.24282079935073853,
            0.06010504439473152,
            0.07049564272165298,
            0.001097885542549193,
            -0.03232049569487572,
            -0.14500188827514648,
            0.291011780500412,
            -0.040435366332530975,
            0.1419876366853714,
            -0.10641137510538101,
            -0.10617717355489731,
            -0.14109064638614655,
            0.14104227721691132,
            0.5000505447387695,
            0.22316688299179077,
            -0.062453191727399826,
            0.1336364895105362,
            0.25861454010009766,
            -0.35433724522590637,
            -0.1945306360721588,
            -0.17018422484397888,
            0.06691312789916992,
            -0.1845705658197403,
            -0.21159565448760986,
            0.020505551248788834,
            0.25321149826049805,
            -0.09809692203998566,
            0.09082012623548508,
            0.17756061255931854,
            0.03556070849299431,
            -0.15836863219738007,
            0.04047418385744095,
            0.06494048982858658
          ],
          "bias": 0.19356609880924225,
          "activation": "relu"
        },
        {
          "weights": [
            0.25015395879745483,
            -0.2184516340494156,
            -0.14298346638679504,
            0.12511567771434784,
            -0.24654874205589294,
            0.013461239635944366,
            -0.16742894053459167,
            -0.032186008989810944,
            0.008687764406204224,
            -0.09204929322004318,
            -0.16836510598659515,
            0.08567263185977936,
            0.11836424469947815,
            -0.3224778175354004,
            0.029552584514021873,
            -0.21626123785972595,
            -0.13823144137859344,
            -0.018835030496120453,
            0.01966159977018833,
            0.07285872846841812,
            -0.1842949092388153,
            0.11816374957561493,
            -0.09926912933588028,
            -0.08767373114824295,
            -0.10174914449453354,
            0.03331282362341881,
            -0.02547718584537506,
            0.05529040843248367,
            -0.10048044472932816,
            -0.03888391703367233,
            -0.21882732212543488,
            0.2744881212711334,
            -0.03550315275788307,
            0.0020393759477883577,
            0.004460867960005999,
            0.3312467038631439,
            0.1970273107290268,
            -0.24692793190479279,
            -0.2870537042617798,
            0.2377653270959854,
            -0.46340420842170715,
            0.2481531947851181,
            -0.23191100358963013,
            -0.1551860272884369,
            -0.09950446337461472,
            0.12237734347581863,
            0.26706618070602417,
            0.004699298646301031,
            0.01084947120398283,
            -0.2323864996433258,
            -0.11249447613954544,
            -0.15656468272209167,
            -0.1399148404598236,
            0.3271423876285553,
            0.17752787470817566,
            -0.022154659032821655,
            0.24427320063114166,
            0.03511948138475418,
            -0.3696010410785675,
            -0.035049717873334885,
            -0.16877928376197815,
            -0.18542198836803436,
            -0.056135646998882294,
            -0.30481332540512085
          ],
          "bias": 0.08673640340566635,
          "activation": "relu"
        },
        {
          "weights": [
            -0.0465821698307991,
            0.15074113011360168,
            0.1595277488231659,
            -0.39985543489456177,
            -0.04367409646511078,
            0.3295985460281372,
            0.07600422948598862,
            0.06981456279754639,
            0.012352037243545055,
            -0.09202922880649567,
            -0.053593795746564865,
            -0.058378174901008606,
            -0.18998019397258759,
            0.1559709906578064,
            0.09948920458555222,
            -0.13080652058124542,
            -0.11808961629867554,
            0.2011547088623047,
            0.040015917271375656,
            0.053704436868429184,
            -0.03689352795481682,
            -0.08155130594968796,
            0.12216557562351227,
            -0.2679995000362396,
            -0.13387763500213623,
            -0.12077618390321732,
            -0.29616159200668335,
            -0.16570547223091125,
            -0.21421851217746735,
            -0.07937296479940414,
            0.11108487844467163,
            0.11447765678167343,
            0.0952315703034401,
            0.1733824759721756,
            -0.19611606001853943,
            0.2275134176015854,
            -0.18025660514831543,
            0.117119699716568,
            0.3170965015888214,
            0.010958601720631123,
            -0.16263341903686523,
            -0.030037006363272667,
            0.009017962962388992,
            -0.03343798965215683,
            0.148420050740242,
            0.22349703311920166,
            0.3216775059700012,
            -0.15509633719921112,
            -0.1078278198838234,
            -0.04726717248558998,
            0.03084167093038559,
            0.043060749769210815,
            0.2199215590953827,
            -0.08109874278306961,
            -0.025526707991957664,
            0.21631722152233124,
            -0.020542174577713013,
            -0.20277154445648193,
            0.1499132215976715,
            -0.24862664937973022,
            0.20589904487133026,
            0.1123763844370842,
            0.27168533205986023,
            -0.1887608915567398
          ],
          "bias": 0.008231252431869507,
          "activation": "relu"
        },
        {
          "weights": [
            -0.06900192052125931,
            0.06635540723800659,
            -0.19856804609298706,
            -0.32030773162841797,
            0.20285065472126007,
            -0.12071467936038971,
            -0.26288142800331116,
            -0.1453731209039688,
            0.025356877595186234,
            -0.18374046683311462,
            -0.12632344663143158,
            0.23361556231975555,
            0.05737213417887688,
            -0.05579226464033127,
            -0.26115480065345764,
            -0.2869471609592438,
            -0.0038974375929683447,
            0.1830703467130661,
            -0.1333802044391632,
            0.2698427736759186,
            0.2729523181915283,
            -0.08881079405546188,
            -0.02175142988562584,
            -0.006826672703027725,
            -0.19253230094909668,
            0.17535768449306488,
            -0.6553891897201538,
            0.23939049243927002,
            0.1821085810661316,
            -0.05884750932455063,
            -0.22799673676490784,
            0.23205868899822235,
            -0.06655389070510864,
            0.21762217581272125,
            -0.21053346991539001,
            -0.053911030292510986,
            -0.32602664828300476,
            0.016432512551546097,
            0.15042024850845337,
            -0.23537187278270721,
            -0.04280969873070717,
            -0.0016483970684930682,
            0.1818561851978302,
            -0.23408597707748413,
            -0.02531513012945652,
            0.2934207618236542,
            0.34041160345077515,
            -0.22913320362567902,
            0.10845150798559189,
            0.19037045538425446,
            -0.028330082073807716,
            -0.060755010694265366,
            0.11250951141119003,
            -0.07890325784683228,
            -0.18682602047920227,
            0.16172568500041962,
            0.1287088245153427,
            0.17960454523563385,
            -0.1744040697813034,
            -0.29098498821258545,
            0.2447323203086853,
            -0.05661501735448837,
            0.440813273191452,
            -0.03138353303074837
          ],
          "bias": -0.0012352903140708804,
          "activation": "relu"
        },
        {
          "weights": [
            0.11342279613018036,
            -0.23820161819458008,
            -0.09544092416763306,
            -0.30976948142051697,
            0.2673278748989105,
            0.2739476263523102,
            -0.1236516609787941,
            0.014938734471797943,
            -0.24457035958766937,
            0.2931108772754669,
            0.10303002595901489,
            -0.1936858892440796,
            0.1910836100578308,
            0.17974917590618134,
            0.16020745038986206,
            0.12417237460613251,
            0.1858476996421814,
            0.2700978219509125,
            -0.0763046070933342,
            0.15991820394992828,
            -0.060724034905433655,
            -0.20541571080684662,
            -0.10111366212368011,
            -0.3370114266872406,
            0.26296466588974,
            0.20755355060100555,
            -0.6113687753677368,
            0.2888942360877991,
            -0.23315565288066864,
            0.13981783390045166,
            -0.32294487953186035,
            0.029058877378702164,
            0.24317145347595215,
            -0.3062053620815277,
            -0.26335594058036804,
            -0.24816133081912994,
            -0.027473587542772293,
            0.034827809780836105,
            -0.1418532282114029,
            -0.22573654353618622,
            0.02089601755142212,
            -0.19645623862743378,
            -0.2287270873785019,
            -0.276122123003006,
            -0.18257032334804535,
            -0.02091738022863865,
            0.27189457416534424,
            -0.3035477101802826,
            0.5027194023132324,
            0.05640540271997452,
            0.15115565061569214,
            -0.09639815241098404,
            0.017679566517472267,
            -0.15993505716323853,
            0.15429821610450745,
            0.05422447621822357,
            0.13752031326293945,
            -0.18166731297969818,
            -0.3367663323879242,
            0.004640135448426008,
            0.3609797954559326,
            0.2745036482810974,
            0.09544765204191208,
            0.049230217933654785
          ],
          "bias": -0.06608759611845016,
          "activation": "relu"
        },
        {
          "weights": [
            0.457389235496521,
            -0.1603686809539795,
            -0.13371148705482483,
            -0.2034066617488861,
            0.10615582764148712,
            -0.17936988174915314,
            -0.2403399646282196,
            -0.08406443893909454,
            -0.049978069961071014,
            0.10572618246078491,
            -0.09625857323408127,
            -0.08148413896560669,
            -0.1461413949728012,
            -0.2221331000328064,
            0.09720724821090698,
            0.15179769694805145,
            -0.08278590440750122,
            -0.05577538162469864,
            0.14972767233848572,
            -0.05773324519395828,
            0.06452479958534241,
            0.07061199098825455,
            -0.0252859927713871,
            -0.09420676529407501,
            -0.1051631048321724,
            -0.14739012718200684,
            0.12403051555156708,
            -0.4495566785335541,
            -0.08531081676483154,
            0.07211383432149887,
            0.2608014941215515,
            0.10280787199735641,
            -0.40382441878318787,
            0.004418959375470877,
            0.1960972547531128,
            0.32154926657676697,
            0.06919742375612259,
            -0.6433509588241577,
            0.09751922637224197,
            0.038087163120508194,
            -0.5020907521247864,
            -0.24164751172065735,
            0.2804006338119507,
            0.04295671731233597,
            0.30670082569122314,
            0.27915140986442566,
            -0.1778317093849182,
            0.07922369986772537,
            0.056202445179224014,
            0.06573108583688736,
            0.16938261687755585,
            -0.4150177240371704,
            0.08602535724639893,
            0.12479134649038315,
            -0.18262110650539398,
            0.03686344996094704,
            -0.29282188415527344,
            0.15921705961227417,
            -0.05981605499982834,
            0.22609412670135498,
            -0.14914116263389587,
            -0.30791184306144714,
            0.18814444541931152,
            -0.5750582814216614
          ],
          "bias": 0.0523868203163147,
          "activation": "relu"
        },
        {
          "weights": [
            0.007574246730655432,
            -0.2421495020389557,
            0.17465455830097198,
            -0.2577808201313019,
            0.06101994588971138,
            0.1745859682559967,
            -0.2618686258792877,
            -0.20774810016155243,
            -0.2966456413269043,
            0.10341887176036835,
            -0.19078218936920166,
            -0.2423969805240631,
            0.22287757694721222,
            0.20643606781959534,
            -0.16192099452018738,
            -0.30804243683815,
            0.04328840225934982,
            0.16431522369384766,
            -0.33453884720802307,
            0.21501471102237701,
            0.11934111267328262,
            -0.1581740379333496,
            0.20432740449905396,
            0.08538458496332169,
            -0.033564575016498566,
            0.27427569031715393,
            -0.2980356216430664,
            0.19262941181659698,
            0.07683044672012329,
            -0.19027253985404968,
            -0.27777400612831116,
            0.3938789963722229,
            -0.10436331480741501,
            -0.1588750183582306,
            0.26550278067588806,
            -0.286270409822464,
            -0.31784874200820923,
            0.0637042373418808,
            -0.16757486760616302,
            -0.3335171043872833,
            0.05000067874789238,
            0.08684783428907394,
            -0.030824093148112297,
            -0.14911042153835297,
            0.08189960569143295,
            0.040048159658908844,
            0.10437062382698059,
            -0.015891361981630325,
            0.5422816872596741,
            -0.010199223645031452,
            0.00990340206772089,
            0.2489146739244461,
            -0.07205937057733536,
            -0.19937726855278015,
            -0.027639394626021385,
            0.1898554563522339,
            -0.11461242288351059,
            -0.10055620968341827,
            -0.039589349180459976,
            -0.007119130343198776,
            0.24873924255371094,
            0.30976957082748413,
            0.2774322032928467,
            -0.03931155055761337
          ],
          "bias": 0.0021295505575835705,
          "activation": "relu"
        },
        {
          "weights": [
            -0.06627767533063889,
            -0.0820436030626297,
            -0.1397121101617813,
            -0.23184262216091156,
            -0.0684581995010376,
            -0.14017073810100555,
            0.12692786753177643,
            -0.11524925380945206,
            -0.16260926425457,
            -0.017114274203777313,
            -0.17076003551483154,
            -0.1766090840101242,
            0.2954229414463043,
            -0.07875453680753708,
            -0.1499527394771576,
            -0.1275096982717514,
            0.08039697259664536,
            -0.19109313189983368,
            -0.05255521833896637,
            -0.06099630892276764,
            0.1639479547739029,
            0.13181518018245697,
            0.08512839674949646,
            -0.5322169065475464,
            0.003117371816188097,
            0.05762866139411926,
            -0.06476888060569763,
            0.16941656172275543,
            -0.41086050868034363,
            0.16260004043579102,
            -0.24142365157604218,
            0.17605885863304138,
            0.1132730171084404,
            0.1514260321855545,
            -0.26704275608062744,
            0.04498601332306862,
            0.09383060783147812,
            -0.059221476316452026,
            -0.3548685908317566,
            -0.09817405790090561,
            0.23003004491329193,
            -0.23779283463954926,
            -0.33645355701446533,
            -0.2691395580768585,
            0.026256240904331207,
            0.16827771067619324,
            0.034147366881370544,
            -0.03596336394548416,
            0.344009131193161,
            -0.09917870908975601,
            -0.3781695067882538,
            -0.1767781376838684,
            -0.24981626868247986,
            0.1708698570728302,
            0.030455823987722397,
            0.16657879948616028,
            0.24788564443588257,
            -0.085836261510849,
            -0.2505343556404114,
            0.14014500379562378,
            -0.1979907751083374,
            0.11293791234493256,
            0.03904051333665848,
            0.16549544036388397
          ],
          "bias": 0.18757364153862,
          "activation": "relu"
        },
        {
          "weights": [
            0.1720791608095169,
            0.25918519496917725,
            -0.1607893705368042,
            -0.1397884488105774,
            -0.15564993023872375,
            -0.1539294421672821,
            -0.0956905260682106,
            -0.26043492555618286,
            -0.027222607284784317,
            0.044490084052085876,
            0.2522573471069336,
            -0.22240886092185974,
            -0.2141919881105423,
            0.2604886293411255,
            0.15093159675598145,
            -0.08059962093830109,
            -0.08368741720914841,
            -0.08577164262533188,
            -0.06938042491674423,
            -0.09796656668186188,
            0.1887378692626953,
            -0.03092913329601288,
            -0.043695710599422455,
            -0.05660470575094223,
            -0.22874262928962708,
            0.005875946022570133,
            -0.20232021808624268,
            0.09580840915441513,
            -0.11977748572826385,
            0.09362722933292389,
            -0.15601488947868347,
            0.27100327610969543,
            0.06485464423894882,
            -0.02765038050711155,
            0.18793272972106934,
            0.2544522285461426,
            -0.022059395909309387,
            0.09503971040248871,
            -0.14597579836845398,
            0.03715476766228676,
            0.1522977501153946,
            -0.12448461353778839,
            -0.22321031987667084,
            -0.26361557841300964,
            0.017237579450011253,
            0.027590012177824974,
            -0.027043187990784645,
            -0.1706281304359436,
            0.2548857033252716,
            -0.11380898952484131,
            0.19845105707645416,
            -0.2739943265914917,
            -0.1552649438381195,
            0.07382836192846298,
            0.1630021333694458,
            -0.018055137246847153,
            0.22961010038852692,
            0.14987285435199738,
            -0.00983944721519947,
            -0.09350679814815521,
            -0.1163584366440773,
            -0.15664614737033844,
            -0.022701852023601532,
            0.2250334471464157
          ],
          "bias": 0.12784665822982788,
          "activation": "relu"
        },
        {
          "weights": [
            -0.003778752638027072,
            -0.01464932318776846,
            -0.007523858919739723,
            0.13083936274051666,
            -0.06965558230876923,
            0.2460266798734665,
            -0.23544169962406158,
            0.06593729555606842,
            -0.19939273595809937,
            -0.028921693563461304,
            0.080227792263031,
            0.16866964101791382,
            0.3061497211456299,
            -0.08113662898540497,
            -0.22231322526931763,
            -0.03408469632267952,
            -0.11721733212471008,
            0.26419711112976074,
            0.02915886789560318,
            0.22869980335235596,
            -0.3391556739807129,
            0.26033344864845276,
            -0.16215428709983826,
            0.08607391268014908,
            -0.10398826748132706,
            0.04582289978861809,
            0.1574060320854187,
            -0.3474273383617401,
            -0.0004980298690497875,
            -0.22506733238697052,
            -0.10066955536603928,
            0.09451975673437119,
            -0.018916290253400803,
            0.2270226925611496,
            0.05814892426133156,
            -0.16163437068462372,
            0.1626371145248413,
            0.10440228879451752,
            -0.03643975034356117,
            -0.05470109358429909,
            -0.10651727020740509,
            -0.20506426692008972,
            0.09473859518766403,
            0.08005506545305252,
            -0.03597726672887802,
            0.1432519555091858,
            0.0056158569641411304,
            0.1400531381368637,
            -0.33608290553092957,
            -0.15981483459472656,
            0.1682833433151245,
            0.1611972600221634,
            0.21762703359127045,
            0.01672409474849701,
            -0.09881025552749634,
            -0.06483302265405655,
            -0.07677824050188065,
            0.09132007509469986,
            0.15964210033416748,
            -0.0873323306441307,
            -0.27978768944740295,
            0.09815497696399689,
            -0.1717032492160797,
            -0.3587522804737091
          ],
          "bias": -0.2104441374540329,
          "activation": "relu"
        },
        {
          "weights": [
            0.12879987061023712,
            0.1623772382736206,
            -0.1491132378578186,
            0.28680163621902466,
            -0.32885944843292236,
            -0.09392087161540985,
            0.06177545338869095,
            0.10065638273954391,
            0.020852312445640564,
            0.2560545802116394,
            0.20967397093772888,
            -0.14952434599399567,
            0.16754505038261414,
            -0.16776785254478455,
            0.024055350571870804,
            -0.1789829432964325,
            -0.06491205841302872,
            -0.2538124620914459,
            0.1756679266691208,
            0.17562755942344666,
            0.1792895495891571,
            -0.10489074140787125,
            -0.19051797688007355,
            0.13670487701892853,
            -0.15108126401901245,
            -0.28350189328193665,
            -0.2594488263130188,
            0.3096815347671509,
            -0.22467957437038422,
            0.08589906245470047,
            -0.2636767029762268,
            -0.16910818219184875,
            0.3141311705112457,
            -0.08829768002033234,
            -0.005922731477767229,
            0.07883448898792267,
            -0.17250536382198334,
            0.07050120085477829,
            0.17188116908073425,
            -0.10979104787111282,
            -0.11596013605594635,
            0.2377513349056244,
            0.04864721745252609,
            0.08474433422088623,
            0.2582313120365143,
            0.16017179191112518,
            0.045246243476867676,
            -0.11759812384843826,
            0.3431990444660187,
            0.21829095482826233,
            -0.30105289816856384,
            -0.08769795298576355,
            -0.1791488230228424,
            -0.014356851577758789,
            0.10412272810935974,
            -0.13413994014263153,
            0.002020379062741995,
            -0.17218263447284698,
            0.1478632539510727,
            0.031144337728619576,
            0.22294753789901733,
            0.14135755598545074,
            0.33734390139579773,
            -0.162303626537323
          ],
          "bias": 0.14537891745567322,
          "activation": "relu"
        }
      ]
    },
    {
      "type": "hidden",
      "nodes": 16,
      "neurons": [
        {
          "weights": [
            0.15988172590732574,
            0.08633393049240112,
            -0.33820608258247375,
            -0.010538789443671703,
            0.28936630487442017,
            0.09209305047988892,
            0.3057844936847687,
            -0.2898961901664734,
            0.10639037191867828,
            0.2702386975288391,
            0.12612126767635345,
            0.15452741086483002,
            -0.17027047276496887,
            0.31514182686805725,
            0.1645665168762207,
            0.1687592715024948,
            -0.12830427289009094,
            -0.100593201816082,
            0.16203442215919495,
            0.20132285356521606,
            0.1479516625404358,
            0.07236366719007492,
            -0.099695585668087,
            0.060317300260066986,
            0.09637841582298279,
            0.016994409263134003,
            -0.24675224721431732,
            0.41586318612098694,
            0.23958942294120789,
            0.07521048188209534,
            0.016598721966147423,
            -0.04061391204595566
          ],
          "bias": 0.16049854457378387,
          "activation": "relu"
        },
        {
          "weights": [
            0.22732076048851013,
            -0.3205232322216034,
            -0.4049268960952759,
            -0.08179263025522232,
            -0.3913787007331848,
            -0.5453608632087708,
            0.0387454517185688,
            -0.3779028654098511,
            -0.4067806601524353,
            -0.2919086217880249,
            0.00035405592643655837,
            -0.24619266390800476,
            0.023800630122423172,
            0.1161523312330246,
            0.16855737566947937,
            0.030397901311516762,
            0.2658732533454895,
            -0.2126830369234085,
            -0.2283637523651123,
            -0.2785712480545044,
